{"learner":{"attributes":{"scikit_learn":"{\"_estimator_type\": \"classifier\"}"},"feature_names":["rel_hum","SolarRadiation","Year","TEMP_MEAN","rnfl_amt_pst24hrs","dwpt_temp","RH","avg_air_temp_pst1hr","Longitude","pcpn_amt_pst24hrs","Rainmm","wind_speed","Pressurembar","CURRENT_AIR_TEMPERATURE1","air_temperature_yesterday_low","WindSpeed","wind_direction","DewPtC","SnowWaterEquivalent","ONE_DAY_PRECIPITATION","ATMOSPHERIC_PRESSURE","cum_pcpn_amt","tasmax","BAR_PRESS","pcp","AirTemperature","HUMIDITY","WDIR_VECT","SnowDepth","MEASURED_WIND_DIRECTION1","MAX_TEMP","air_temperature_yesterday_high","WindDirection","avg_rel_hum_pst1hr","HEIGHT_OF_SNOW","air_temp","dew_point","Latitude","MIN_TEMP","SolarRadiationWm","snw_dpth_wtr_equiv","DEW_POINT","tasmin","SWE","WSPD_SCLR","Wetness","WindSpeedms","air_temperature","Precipitation","avg_wnd_dir_10m_pst10mts","TempC","Month","rnfl_amt_pst1hr","precipitation","temperature","WIND_DIRECTION_STD_DEVIATION1","min_air_temp_snc_last_reset","DayOfYear","PRECIP_TOTAL","Rain","air_temp_1","pcpn_amt_pst1hr","tendency_amount","Elevation (m)","mean_sea_level"],"feature_types":["float","float","int","float","float","float","float","float","float","float","float","float","float","float","float","float","float","float","float","float","float","float","float","float","float","float","float","float","float","float","float","float","float","float","float","float","float","float","float","float","float","float","float","float","float","float","float","float","float","float","float","int","float","float","float","float","float","int","float","float","float","float","float","float","float"],"gradient_booster":{"model":{"gbtree_model_param":{"num_parallel_tree":"1","num_trees":"50"},"iteration_indptr":[0,1,2,3,4,5,6,7,8,9,10,11,12,13,14,15,16,17,18,19,20,21,22,23,24,25,26,27,28,29,30,31,32,33,34,35,36,37,38,39,40,41,42,43,44,45,46,47,48,49,50],"tree_info":[0,0,0,0,0,0,0,0,0,0,0,0,0,0,0,0,0,0,0,0,0,0,0,0,0,0,0,0,0,0,0,0,0,0,0,0,0,0,0,0,0,0,0,0,0,0,0,0,0,0],"trees":[{"base_weights":[3.3971714E-3,1.025122E0,-4.7470918E-1,3.5928074E-1,1.6512452E-2,-1.0475661E-2,-6.584902E-1,1.5773706E-2,-1.2693389E-3,-2.9608258E-3,4.435796E-3,5.143992E-3,-7.7576647E-3],"categories":[],"categories_nodes":[],"categories_segments":[],"categories_sizes":[],"default_left":[0,0,0,0,0,0,0,0,0,0,0,0,0],"id":0,"left_children":[1,3,5,7,-1,9,11,-1,-1,-1,-1,-1,-1],"loss_changes":[1.3808769E2,3.697351E1,1.6423046E1,2.682084E1,0E0,7.3457093E0,1.9373425E1,0E0,0E0,0E0,0E0,0E0,0E0],"parents":[2147483647,0,0,1,1,2,2,3,3,5,5,6,6],"right_children":[2,4,6,8,-1,10,12,-1,-1,-1,-1,-1,-1],"split_conditions":[7.9958336E1,1.614564E1,2.0912616E2,1.6145454E1,1.6512452E-2,1.4342105E-1,1.7021906E-6,1.5773706E-2,-1.2693389E-3,-2.9608258E-3,4.435796E-3,5.143992E-3,-7.7576647E-3],"split_indices":[0,3,27,3,0,18,28,0,0,0,0,0,0],"split_type":[0,0,0,0,0,0,0,0,0,0,0,0,0],"sum_hessian":[2.8068472E2,8.911012E1,1.9157462E2,4.3948044E1,4.516208E1,5.4631546E1,1.3694307E2,1.1897536E1,3.2050507E1,3.3750153E1,2.088139E1,1.2140344E1,1.2480273E2],"tree_param":{"num_deleted":"0","num_feature":"65","num_nodes":"13","size_leaf_vector":"1"}},{"base_weights":[3.4764926E-3,8.774163E-1,-5.6031406E-1,1.5011313E0,-3.3821523E-1,-1.1277044E0,-2.586746E-1,-1.8024282E-3,1.6039288E-2,6.179215E-4,-9.443149E-3,-1.4683926E-2,-9.845416E-4,2.7799904E-3,-6.4073633E-3],"categories":[],"categories_nodes":[],"categories_segments":[],"categories_sizes":[],"default_left":[0,0,0,0,0,0,0,0,0,0,0,0,0,0,0],"id":1,"left_children":[1,3,5,7,9,11,13,-1,-1,-1,-1,-1,-1,-1,-1],"loss_changes":[1.3928206E2,8.455396E1,2.9117245E1,1.2983246E1,9.369289E0,2.0665245E1,2.344805E1,0E0,0E0,0E0,0E0,0E0,0E0,0E0,0E0],"parents":[2147483647,0,0,1,1,2,2,3,3,4,4,5,5,6,6],"right_children":[2,4,6,8,10,12,14,-1,-1,-1,-1,-1,-1,-1,-1],"split_conditions":[-2.065706E0,2.022E3,2.018E3,2.019E3,9.5025E2,-1.185E2,6.7027214E1,-1.8024282E-3,1.6039288E-2,6.179215E-4,-9.443149E-3,-1.4683926E-2,-9.845416E-4,2.7799904E-3,-6.4073633E-3],"split_indices":[42,2,2,2,20,8,6,0,0,0,0,0,0,0,0],"split_type":[0,0,0,0,0,0,0,0,0,0,0,0,0,0,0],"sum_hessian":[2.8068274E2,1.0984859E2,1.7083415E2,7.244415E1,3.740443E1,5.834582E1,1.12488335E2,4.1305623E0,6.831359E1,2.3074207E1,1.4330225E1,4.3515316E1,1.4830504E1,4.689223E1,6.559611E1],"tree_param":{"num_deleted":"0","num_feature":"65","num_nodes":"15","size_leaf_vector":"1"}},{"base_weights":[3.4022515E-3,8.7008375E-1,-5.543192E-1,1.4903051E0,-3.3488443E-1,-1.1146799E0,-2.5600937E-1,-1.7874814E-3,1.5926674E-2,6.120616E-4,-9.341075E-3,-1.4506329E-2,-9.751688E-4,2.754039E-3,-6.3375616E-3],"categories":[],"categories_nodes":[],"categories_segments":[],"categories_sizes":[],"default_left":[0,0,0,0,0,0,0,0,0,0,0,0,0,0,0],"id":2,"left_children":[1,3,5,7,9,11,13,-1,-1,-1,-1,-1,-1,-1,-1],"loss_changes":[1.366282E2,8.3210266E1,2.8464424E1,1.2799072E1,9.1771145E0,2.0174492E1,2.2965784E1,0E0,0E0,0E0,0E0,0E0,0E0,0E0,0E0],"parents":[2147483647,0,0,1,1,2,2,3,3,4,4,5,5,6,6],"right_children":[2,4,6,8,10,12,14,-1,-1,-1,-1,-1,-1,-1,-1],"split_conditions":[-2.065706E0,2.022E3,2.018E3,2.019E3,9.5025E2,-1.185E2,6.7027214E1,-1.7874814E-3,1.5926674E-2,6.120616E-4,-9.341075E-3,-1.4506329E-2,-9.751688E-4,2.754039E-3,-6.3375616E-3],"split_indices":[42,2,2,2,20,8,6,0,0,0,0,0,0,0,0],"split_type":[0,0,0,0,0,0,0,0,0,0,0,0,0,0,0],"sum_hessian":[2.8066162E2,1.0967307E2,1.7098856E2,7.224851E1,3.742456E1,5.8452213E1,1.1253635E2,4.131807E0,6.811671E1,2.30718E1,1.4352761E1,4.361929E1,1.4832923E1,4.687028E1,6.566607E1],"tree_param":{"num_deleted":"0","num_feature":"65","num_nodes":"15","size_leaf_vector":"1"}},{"base_weights":[3.3297238E-3,8.62872E-1,-5.484127E-1,1.479699E0,-3.3159342E-1,-1.1019124E0,-2.5337577E-1,-1.7726637E-3,1.5816467E-2,-5.432247E-3,7.278379E-3,-1.433273E-2,-9.6588564E-4,-4.6947496E-3,5.1002395E-3],"categories":[],"categories_nodes":[],"categories_segments":[],"categories_sizes":[],"default_left":[0,0,0,0,0,0,0,0,0,0,0,0,0,0,0],"id":3,"left_children":[1,3,5,7,9,11,13,-1,-1,-1,-1,-1,-1,-1,-1],"loss_changes":[1.340331E2,8.189755E1,2.7831009E1,1.2619659E1,9.014841E0,1.9700157E1,1.8977144E1,0E0,0E0,0E0,0E0,0E0,0E0,0E0,0E0],"parents":[2147483647,0,0,1,1,2,2,3,3,4,4,5,5,6,6],"right_children":[2,4,6,8,10,12,14,-1,-1,-1,-1,-1,-1,-1,-1],"split_conditions":[-2.065706E0,2.022E3,2.018E3,2.019E3,-1.179E2,-1.185E2,1.52E1,-1.7726637E-3,1.5816467E-2,-5.432247E-3,7.278379E-3,-1.433273E-2,-9.6588564E-4,-4.6947496E-3,5.1002395E-3],"split_indices":[42,2,2,2,8,8,14,0,0,0,0,0,0,0,0],"split_type":[0,0,0,0,0,0,0,0,0,0,0,0,0,0,0],"sum_hessian":[2.8062582E2,1.0949033E2,1.7113548E2,7.204645E1,3.7443886E1,5.8553055E1,1.1258243E2,4.133035E0,6.7913414E1,3.1615618E1,5.828268E0,4.3717743E1,1.4835312E1,8.804432E1,2.4538107E1],"tree_param":{"num_deleted":"0","num_feature":"65","num_nodes":"15","size_leaf_vector":"1"}},{"base_weights":[3.3098669E-3,9.949477E-1,-4.5625192E-1,1.6203506E-2,-1.7157765E-1,-1.0437924E0,-1.7649822E-1,5.2801464E-3,-4.9854396E-3,-1.4245775E-2,-5.6228903E-3,2.7117094E-3,-5.6117526E-3],"categories":[],"categories_nodes":[],"categories_segments":[],"categories_sizes":[],"default_left":[0,0,0,0,0,0,0,0,0,0,0,0,0],"id":4,"left_children":[1,3,5,-1,7,9,11,-1,-1,-1,-1,-1,-1],"loss_changes":[1.2877539E2,6.5561264E1,3.1554283E1,0E0,7.613973E0,1.0581551E1,2.2886139E1,0E0,0E0,0E0,0E0,0E0,0E0],"parents":[2147483647,0,0,1,1,2,2,4,4,5,5,6,6],"right_children":[2,4,6,-1,8,10,12,-1,-1,-1,-1,-1,-1],"split_conditions":[7.9958336E1,2.022E3,2.018E3,1.6203506E-2,6E0,7.5E2,6.893063E1,5.2801464E-3,-4.9854396E-3,-1.4245775E-2,-5.6228903E-3,2.7117094E-3,-5.6117526E-3],"split_indices":[0,2,2,0,41,63,6,0,0,0,0,0,0],"split_type":[0,0,0,0,0,0,0,0,0,0,0,0,0],"sum_hessian":[2.805803E2,8.848445E1,1.9209586E2,5.7349125E1,3.1135324E1,6.1081333E1,1.3101451E2,9.720979E0,2.1414347E1,3.301423E1,2.8067104E1,6.068603E1,7.032849E1],"tree_param":{"num_deleted":"0","num_feature":"65","num_nodes":"13","size_leaf_vector":"1"}},{"base_weights":[3.263527E-3,8.4984684E-1,-5.375908E-1,1.4608421E0,-3.2600415E-1,-1.5410627E-1,-9.486034E-1,-1.6983921E-3,1.5618282E-2,6.376264E-4,-9.145446E-3,-3.1701892E-3,6.783853E-3,-1.0836917E-2,4.8727402E-3],"categories":[],"categories_nodes":[],"categories_segments":[],"categories_sizes":[],"default_left":[0,0,0,0,0,0,0,0,0,0,0,0,0,0,0],"id":5,"left_children":[1,3,5,7,9,11,13,-1,-1,-1,-1,-1,-1,-1,-1],"loss_changes":[1.2936191E2,7.9600105E1,2.702602E1,1.2230057E1,8.884571E0,1.2472366E1,1.6630768E1,0E0,0E0,0E0,0E0,0E0,0E0,0E0,0E0],"parents":[2147483647,0,0,1,1,2,2,3,3,4,4,5,5,6,6],"right_children":[2,4,6,8,10,12,14,-1,-1,-1,-1,-1,-1,-1,-1],"split_conditions":[-2.065706E0,2.022E3,2.320177E1,2.019E3,9.5025E2,5.3399518E-2,3.0666666E1,-1.6983921E-3,1.5618282E-2,6.376264E-4,-9.145446E-3,-3.1701892E-3,6.783853E-3,-1.0836917E-2,4.8727402E-3],"split_indices":[42,2,45,2,20,48,30,0,0,0,0,0,0,0,0],"split_type":[0,0,0,0,0,0,0,0,0,0,0,0,0,0,0],"sum_hessian":[2.805269E2,1.09132965E2,1.713939E2,7.165648E1,3.7476486E1,8.93775E1,8.201641E1,4.1390486E0,6.751743E1,2.3081917E1,1.4394568E1,7.52674E1,1.4110101E1,7.518795E1,6.828456E0],"tree_param":{"num_deleted":"0","num_feature":"65","num_nodes":"15","size_leaf_vector":"1"}},{"base_weights":[3.251725E-3,8.429564E-1,-5.317937E-1,1.4508263E0,-3.2281438E-1,-1.0710263E0,-2.4370755E-1,-1.6843395E-3,1.5514523E-2,-5.310211E-3,7.2195497E-3,-1.3949111E-2,-8.619689E-4,2.754616E-3,-6.116678E-3],"categories":[],"categories_nodes":[],"categories_segments":[],"categories_sizes":[],"default_left":[0,0,0,0,0,0,0,0,0,0,0,0,0,0,0],"id":6,"left_children":[1,3,5,7,9,11,13,-1,-1,-1,-1,-1,-1,-1,-1],"loss_changes":[1.2690484E2,7.836981E1,2.6541267E1,1.2064224E1,8.756935E0,1.894928E1,2.1898369E1,0E0,0E0,0E0,0E0,0E0,0E0,0E0,0E0],"parents":[2147483647,0,0,1,1,2,2,3,3,4,4,5,5,6,6],"right_children":[2,4,6,8,10,12,14,-1,-1,-1,-1,-1,-1,-1,-1],"split_conditions":[-2.065706E0,2.022E3,2.018E3,2.019E3,-1.179E2,-1.185E2,6.7027214E1,-1.6843395E-3,1.5514523E-2,-5.310211E-3,7.2195497E-3,-1.3949111E-2,-8.619689E-4,2.754616E-3,-6.116678E-3],"split_indices":[42,2,2,2,8,8,6,0,0,0,0,0,0,0,0],"split_type":[0,0,0,0,0,0,0,0,0,0,0,0,0,0,0],"sum_hessian":[2.804648E2,1.08931435E2,1.7153337E2,7.143726E1,3.749417E1,5.8784412E1,1.1274896E2,4.140181E0,6.729708E1,3.1673796E1,5.8203754E0,4.392291E1,1.4861505E1,4.6869865E1,6.58791E1],"tree_param":{"num_deleted":"0","num_feature":"65","num_nodes":"15","size_leaf_vector":"1"}},{"base_weights":[3.2208965E-3,9.734081E-1,-4.4294715E-1,1.589638E-2,-1.6344248E-1,-1.0141778E0,-1.7021985E-1,5.261187E-3,-4.8522055E-3,-1.3347823E-2,-3.145411E-4,-2.9269543E-3,7.6551563E-3],"categories":[],"categories_nodes":[],"categories_segments":[],"categories_sizes":[],"default_left":[0,0,0,0,0,0,0,0,0,0,0,0,0],"id":7,"left_children":[1,3,5,-1,7,9,11,-1,-1,-1,-1,-1,-1],"loss_changes":[1.22232216E2,6.2575752E1,2.9962029E1,0E0,7.394304E0,1.9588509E1,1.5366213E1,0E0,0E0,0E0,0E0,0E0,0E0],"parents":[2147483647,0,0,1,1,2,2,4,4,5,5,6,6],"right_children":[2,4,6,-1,8,10,12,-1,-1,-1,-1,-1,-1],"split_conditions":[7.9958336E1,2.022E3,2.018E3,1.589638E-2,6E0,-1.185E2,3.0666666E1,5.261187E-3,-4.8522055E-3,-1.3347823E-2,-3.145411E-4,-2.9269543E-3,7.6551563E-3],"split_indices":[0,2,2,0,41,8,30,0,0,0,0,0,0],"split_type":[0,0,0,0,0,0,0,0,0,0,0,0,0],"sum_hessian":[2.8038248E2,8.795142E1,1.9243105E2,5.67771E1,3.117432E1,6.1306072E1,1.3112497E2,9.716692E0,2.1457628E1,4.5955326E1,1.5350749E1,1.1655645E2,1.4568517E1],"tree_param":{"num_deleted":"0","num_feature":"65","num_nodes":"13","size_leaf_vector":"1"}},{"base_weights":[3.224176E-3,8.306361E-1,-5.214444E-1,2.912875E-1,1.5120959E0,-1.4564729E-1,-9.234937E-1,1.2565349E-2,-2.284781E-3,5.1099556E-3,1.5695145E-2,-6.4895456E-3,1.2444442E-3,-2.6511808E-3,-1.1520655E-2],"categories":[],"categories_nodes":[],"categories_segments":[],"categories_sizes":[],"default_left":[0,0,0,0,0,0,0,0,0,0,0,0,0,0,0],"id":8,"left_children":[1,3,5,7,9,11,13,-1,-1,-1,-1,-1,-1,-1,-1],"loss_changes":[1.2255043E2,3.9821457E1,2.5967232E1,3.1586248E1,1.9661484E0,1.2380697E1,1.2226479E1,0E0,0E0,0E0,0E0,0E0,0E0,0E0,0E0],"parents":[2147483647,0,0,1,1,2,2,3,3,4,4,5,5,6,6],"right_children":[2,4,6,8,10,12,14,-1,-1,-1,-1,-1,-1,-1,-1],"split_conditions":[-2.065706E0,1.614564E1,2.320177E1,4.1613925E-1,5.017544E0,1.5368055E1,6.6101425E1,1.2565349E-2,-2.284781E-3,5.1099556E-3,1.5695145E-2,-6.4895456E-3,1.2444442E-3,-2.6511808E-3,-1.1520655E-2],"split_indices":[42,3,45,48,54,54,6,0,0,0,0,0,0,0,0],"split_type":[0,0,0,0,0,0,0,0,0,0,0,0,0,0,0],"sum_hessian":[2.803004E2,1.08542984E2,1.7175743E2,6.1385906E1,4.7157078E1,8.9481224E1,8.227621E1,2.098939E1,4.039652E1,3.0949953E0,4.406208E1,3.075938E1,5.8721848E1,2.175971E1,6.05165E1],"tree_param":{"num_deleted":"0","num_feature":"65","num_nodes":"15","size_leaf_vector":"1"}},{"base_weights":[3.242542E-3,8.241766E-1,-5.159707E-1,1.2831932E0,1.19284555E-1,-6.694863E-1,4.3580797E-1,7.559035E-4,1.3421358E-2,-1.1274048E-2,4.269524E-3,-2.7014907E-3,-1.0453208E-2,-1.0826668E-3,1.2432491E-2],"categories":[],"categories_nodes":[],"categories_segments":[],"categories_sizes":[],"default_left":[0,0,0,0,0,0,0,0,0,0,0,0,0,0,0],"id":9,"left_children":[1,3,5,7,9,11,13,-1,-1,-1,-1,-1,-1,-1,-1],"loss_changes":[1.2029146E2,3.5223785E1,2.555183E1,4.6045456E0,1.7443552E1,2.2119751E1,1.0949179E1,0E0,0E0,0E0,0E0,0E0,0E0,0E0,0E0],"parents":[2147483647,0,0,1,1,2,2,3,3,4,4,5,5,6,6],"right_children":[2,4,6,8,10,12,14,-1,-1,-1,-1,-1,-1,-1,-1],"split_conditions":[-2.065706E0,2.2E2,3.0666666E1,-1.4572917E2,3.9208333E0,2.320177E1,1.6666667E-3,7.559035E-4,1.3421358E-2,-1.1274048E-2,4.269524E-3,-2.7014907E-3,-1.0453208E-2,-1.0826668E-3,1.2432491E-2],"split_indices":[42,57,30,40,11,45,53,0,0,0,0,0,0,0,0],"split_type":[0,0,0,0,0,0,0,0,0,0,0,0,0,0,0],"sum_hessian":[2.8021774E2,1.083372E2,1.7188055E2,6.511484E1,4.322236E1,1.4826328E2,2.3617281E1,3.136537E0,6.1978302E1,8.028008E0,3.519435E1,7.271737E1,7.55459E1,1.4627088E1,8.990194E0],"tree_param":{"num_deleted":"0","num_feature":"65","num_nodes":"15","size_leaf_vector":"1"}},{"base_weights":[3.2376214E-3,8.175138E-1,-5.104648E-1,2.8319412E-1,1.4954966E0,-1.4275794E-1,-9.0304637E-1,1.2407513E-2,-2.2995195E-3,5.001468E-3,1.5528732E-2,-3.0333987E-3,6.7875986E-3,-2.545428E-3,-1.1280134E-2],"categories":[],"categories_nodes":[],"categories_segments":[],"categories_sizes":[],"default_left":[0,0,0,0,0,0,0,0,0,0,0,0,0,0,0],"id":10,"left_children":[1,3,5,7,9,11,13,-1,-1,-1,-1,-1,-1,-1,-1],"loss_changes":[1.1801547E2,3.911222E1,2.4844479E1,3.0881943E1,1.9570694E0,1.2147086E1,1.1892242E1,0E0,0E0,0E0,0E0,0E0,0E0,0E0,0E0],"parents":[2147483647,0,0,1,1,2,2,3,3,4,4,5,5,6,6],"right_children":[2,4,6,8,10,12,14,-1,-1,-1,-1,-1,-1,-1,-1],"split_conditions":[-2.065706E0,1.614564E1,2.320177E1,4.1613925E-1,5.017544E0,5.3399518E-2,6.6101425E1,1.2407513E-2,-2.2995195E-3,5.001468E-3,1.5528732E-2,-3.0333987E-3,6.7875986E-3,-2.545428E-3,-1.1280134E-2],"split_indices":[42,3,45,48,54,48,6,0,0,0,0,0,0,0,0],"split_type":[0,0,0,0,0,0,0,0,0,0,0,0,0,0,0],"sum_hessian":[2.8013644E2,1.081365E2,1.7199994E2,6.1268417E1,4.6868076E1,8.95178E1,8.248214E1,2.0882555E1,4.0385864E1,3.084045E0,4.378403E1,7.540848E1,1.41093235E1,2.1792692E1,6.068945E1],"tree_param":{"num_deleted":"0","num_feature":"65","num_nodes":"15","size_leaf_vector":"1"}},{"base_weights":[3.2877454E-3,8.112204E-1,-5.050815E-1,2.807269E-1,1.4862691E0,-6.564218E-1,4.347772E-1,1.2322273E-2,-2.2762467E-3,5.014675E-3,1.5431153E-2,-2.6585015E-3,-1.0232858E-2,-1.0427084E-3,1.2362096E-2],"categories":[],"categories_nodes":[],"categories_segments":[],"categories_sizes":[],"default_left":[0,0,0,0,0,0,0,0,0,0,0,0,0,0,0],"id":11,"left_children":[1,3,5,7,9,11,13,-1,-1,-1,-1,-1,-1,-1,-1],"loss_changes":[1.15839645E2,3.8589127E1,2.490889E1,3.0378456E1,1.8964386E0,2.1149757E1,1.0761141E1,0E0,0E0,0E0,0E0,0E0,0E0,0E0,0E0],"parents":[2147483647,0,0,1,1,2,2,3,3,4,4,5,5,6,6],"right_children":[2,4,6,8,10,12,14,-1,-1,-1,-1,-1,-1,-1,-1],"split_conditions":[-2.065706E0,1.614564E1,3.0666666E1,4.1613925E-1,5.315786E0,2.320177E1,1.6666667E-3,1.2322273E-2,-2.2762467E-3,5.014675E-3,1.5431153E-2,-2.6585015E-3,-1.0232858E-2,-1.0427084E-3,1.2362096E-2],"split_indices":[42,3,30,48,13,45,53,0,0,0,0,0,0,0,0],"split_type":[0,0,0,0,0,0,0,0,0,0,0,0,0,0,0],"sum_hessian":[2.800373E2,1.0792319E2,1.721141E2,6.1224884E1,4.6698303E1,1.4850305E2,2.3611063E1,2.0823954E1,4.040093E1,3.0844705E0,4.361383E1,7.27628E1,7.574025E1,1.4636419E1,8.974645E0],"tree_param":{"num_deleted":"0","num_feature":"65","num_nodes":"15","size_leaf_vector":"1"}},{"base_weights":[3.367391E-3,9.4070554E-1,-4.2221713E-1,1.5469766E-2,-1.5878046E-1,-9.8138154E-1,-1.5491986E-1,5.2353363E-3,-4.767604E-3,-1.2091722E-2,-2.5627047E-3,2.7262068E-3,-5.2050296E-3],"categories":[],"categories_nodes":[],"categories_segments":[],"categories_sizes":[],"default_left":[0,0,0,0,0,0,0,0,0,0,0,0,0],"id":12,"left_children":[1,3,5,-1,7,9,11,-1,-1,-1,-1,-1,-1],"loss_changes":[1.1246404E2,5.8926613E1,2.882827E1,0E0,7.234878E0,1.0017296E1,2.0832E1,0E0,0E0,0E0,0E0,0E0,0E0],"parents":[2147483647,0,0,1,1,2,2,4,4,5,5,6,6],"right_children":[2,4,6,-1,8,10,12,-1,-1,-1,-1,-1,-1],"split_conditions":[7.9958336E1,2.022E3,2.018E3,1.5469766E-2,6E0,2.86E1,6.893063E1,5.2353363E-3,-4.767604E-3,-1.2091722E-2,-2.5627047E-3,2.7262068E-3,-5.2050296E-3],"split_indices":[0,2,2,0,41,30,6,0,0,0,0,0,0],"split_type":[0,0,0,0,0,0,0,0,0,0,0,0,0],"sum_hessian":[2.7992807E2,8.7032036E1,1.9289603E2,5.583621E1,3.1195827E1,6.1523117E1,1.3137291E2,9.71124E0,2.1484587E1,4.630806E1,1.5215057E1,6.067235E1,7.0700554E1],"tree_param":{"num_deleted":"0","num_feature":"65","num_nodes":"13","size_leaf_vector":"1"}},{"base_weights":[3.3393332E-3,7.996592E-1,-4.9522045E-1,1.3926249E0,-3.1236932E-1,-1.0129634E0,-2.180052E-1,-1.81232E-3,1.4925966E-2,-5.1738024E-3,7.18256E-3,-1.3243129E-2,-6.4019253E-4,-4.241698E-3,5.1369667E-3],"categories":[],"categories_nodes":[],"categories_segments":[],"categories_sizes":[],"default_left":[0,0,0,0,0,0,0,0,0,0,0,0,0,0,0],"id":13,"left_children":[1,3,5,7,9,11,13,-1,-1,-1,-1,-1,-1,-1,-1],"loss_changes":[1.1187961E2,7.197898E1,2.465319E1,1.143364E1,8.517011E0,1.7689869E1,1.7436905E1,0E0,0E0,0E0,0E0,0E0,0E0,0E0,0E0],"parents":[2147483647,0,0,1,1,2,2,3,3,4,4,5,5,6,6],"right_children":[2,4,6,8,10,12,14,-1,-1,-1,-1,-1,-1,-1,-1],"split_conditions":[-2.065706E0,2.022E3,2.018E3,2.019E3,-1.179E2,-1.185E2,1.52E1,-1.81232E-3,1.4925966E-2,-5.1738024E-3,7.18256E-3,-1.3243129E-2,-6.4019253E-4,-4.241698E-3,5.1369667E-3],"split_indices":[42,2,2,2,8,8,14,0,0,0,0,0,0,0,0],"split_type":[0,0,0,0,0,0,0,0,0,0,0,0,0,0,0],"sum_hessian":[2.7980588E2,1.0749945E2,1.7230641E2,6.994855E1,3.7550907E1,5.916062E1,1.1314579E2,4.1292257E0,6.581932E1,3.173601E1,5.8148994E0,4.4247433E1,1.4913191E1,8.860165E1,2.4544142E1],"tree_param":{"num_deleted":"0","num_feature":"65","num_nodes":"15","size_leaf_vector":"1"}},{"base_weights":[3.3243452E-3,7.935517E-1,-4.9007484E-1,1.2446901E0,1.08312406E-1,-6.385604E-1,4.339994E-1,6.589837E-4,1.3029648E-2,-1.1149174E-2,4.121592E-3,-2.555234E-3,-9.979678E-3,-9.868798E-4,1.2277595E-2],"categories":[],"categories_nodes":[],"categories_segments":[],"categories_sizes":[],"default_left":[0,0,0,0,0,0,0,0,0,0,0,0,0,0,0],"id":14,"left_children":[1,3,5,7,9,11,13,-1,-1,-1,-1,-1,-1,-1,-1],"loss_changes":[1.0981866E2,3.3333282E1,2.406966E1,4.3921127E0,1.6841179E1,2.0367302E1,1.0523083E1,0E0,0E0,0E0,0E0,0E0,0E0,0E0,0E0],"parents":[2147483647,0,0,1,1,2,2,3,3,4,4,5,5,6,6],"right_children":[2,4,6,8,10,12,14,-1,-1,-1,-1,-1,-1,-1,-1],"split_conditions":[-2.065706E0,2.2E2,3.0666666E1,-1.4572917E2,3.9208333E0,2.320177E1,1.6666667E-3,6.589837E-4,1.3029648E-2,-1.1149174E-2,4.121592E-3,-2.555234E-3,-9.979678E-3,-9.868798E-4,1.2277595E-2],"split_indices":[42,57,30,40,11,45,53,0,0,0,0,0,0,0,0],"split_type":[0,0,0,0,0,0,0,0,0,0,0,0,0,0,0],"sum_hessian":[2.7966287E2,1.0726273E2,1.7240015E2,6.4187454E1,4.307528E1,1.4879921E2,2.3600939E1,3.124073E0,6.106338E1,8.039685E0,3.5035595E1,7.285997E1,7.593925E1,1.464706E1,8.953878E0],"tree_param":{"num_deleted":"0","num_feature":"65","num_nodes":"15","size_leaf_vector":"1"}},{"base_weights":[3.3190001E-3,7.8725475E-1,-4.8491162E-1,1.3774719E0,-3.1271225E-1,-9.96109E-1,-2.1105736E-1,-1.8170819E-3,1.4771919E-2,6.67816E-4,-8.840079E-3,-1.3028275E-2,-6.0239655E-4,2.8215104E-3,-5.589049E-3],"categories":[],"categories_nodes":[],"categories_segments":[],"categories_sizes":[],"default_left":[0,0,0,0,0,0,0,0,0,0,0,0,0,0,0],"id":15,"left_children":[1,3,5,7,9,11,13,-1,-1,-1,-1,-1,-1,-1,-1],"loss_changes":[1.0775721E2,7.0577415E1,2.4078E1,1.1230194E1,8.415834E0,1.7216934E1,1.975734E1,0E0,0E0,0E0,0E0,0E0,0E0,0E0,0E0],"parents":[2147483647,0,0,1,1,2,2,3,3,4,4,5,5,6,6],"right_children":[2,4,6,8,10,12,14,-1,-1,-1,-1,-1,-1,-1,-1],"split_conditions":[-2.065706E0,2.022E3,2.018E3,2.019E3,9.5025E2,-1.185E2,6.7027214E1,-1.8170819E-3,1.4771919E-2,6.67816E-4,-8.840079E-3,-1.3028275E-2,-6.0239655E-4,2.8215104E-3,-5.589049E-3],"split_indices":[42,2,2,2,20,8,6,0,0,0,0,0,0,0,0],"split_type":[0,0,0,0,0,0,0,0,0,0,0,0,0,0,0],"sum_hessian":[2.7954306E2,1.0704768E2,1.7249538E2,6.950214E1,3.7545547E1,5.9252583E1,1.132428E2,4.128499E0,6.5373634E1,2.3090414E1,1.44551325E1,4.4331448E1,1.4921137E1,4.691355E1,6.632925E1],"tree_param":{"num_deleted":"0","num_feature":"65","num_nodes":"15","size_leaf_vector":"1"}},{"base_weights":[3.2553514E-3,9.1537404E-1,-4.0642387E-1,1.5145278E-2,-1.547035E-1,-9.443583E-1,-1.4850211E-1,-6.6674785E-3,2.704299E-3,-1.2491269E-2,-7.582251E-5,2.6909846E-3,-5.0466014E-3],"categories":[],"categories_nodes":[],"categories_segments":[],"categories_sizes":[],"default_left":[0,0,0,0,0,0,0,0,0,0,0,0,0],"id":16,"left_children":[1,3,5,-1,7,9,11,-1,-1,-1,-1,-1,-1],"loss_changes":[1.051424E2,5.614688E1,2.679982E1,0E0,7.191955E0,1.7902817E1,1.983229E1,0E0,0E0,0E0,0E0,0E0,0E0],"parents":[2147483647,0,0,1,1,2,2,4,4,5,5,6,6],"right_children":[2,4,6,-1,8,10,12,-1,-1,-1,-1,-1,-1],"split_conditions":[7.9958336E1,2.022E3,2.018E3,1.5145278E-2,1.7133333E2,-1.185E2,6.893063E1,-6.6674785E-3,2.704299E-3,-1.2491269E-2,-7.582251E-5,2.6909846E-3,-5.0466014E-3],"split_indices":[0,2,2,0,16,8,6,0,0,0,0,0,0],"split_type":[0,0,0,0,0,0,0,0,0,0,0,0,0],"sum_hessian":[2.7937753E2,8.620794E1,1.931696E2,5.4998207E1,3.1209736E1,6.174005E1,1.3142955E2,1.3899909E1,1.7309826E1,4.6332806E1,1.5407244E1,6.0609016E1,7.0820526E1],"tree_param":{"num_deleted":"0","num_feature":"65","num_nodes":"13","size_leaf_vector":"1"}},{"base_weights":[3.2195984E-3,7.7606016E-1,-4.7562686E-1,1.3621854E0,-3.079673E-1,-9.754821E-1,-2.0748185E-1,-1.7472175E-3,1.4612851E-2,-5.100625E-3,7.105459E-3,-1.2749981E-2,-5.9598486E-4,2.7700544E-3,-5.4844283E-3],"categories":[],"categories_nodes":[],"categories_segments":[],"categories_sizes":[],"default_left":[0,0,0,0,0,0,0,0,0,0,0,0,0,0,0],"id":17,"left_children":[1,3,5,7,9,11,13,-1,-1,-1,-1,-1,-1,-1,-1],"loss_changes":[1.0407042E2,6.8773834E1,2.3070995E1,1.09184265E1,8.301577E0,1.6480755E1,1.903051E1,0E0,0E0,0E0,0E0,0E0,0E0,0E0,0E0],"parents":[2147483647,0,0,1,1,2,2,3,3,4,4,5,5,6,6],"right_children":[2,4,6,8,10,12,14,-1,-1,-1,-1,-1,-1,-1,-1],"split_conditions":[-2.065706E0,2.022E3,2.018E3,2.019E3,-1.179E2,-1.185E2,6.7027214E1,-1.7472175E-3,1.4612851E-2,-5.100625E-3,7.105459E-3,-1.2749981E-2,-5.9598486E-4,2.7700544E-3,-5.4844283E-3],"split_indices":[42,2,2,2,8,8,6,0,0,0,0,0,0,0,0],"split_type":[0,0,0,0,0,0,0,0,0,0,0,0,0,0,0],"sum_hessian":[2.792193E2,1.06580925E2,1.7263837E2,6.901075E1,3.7570175E1,5.9355167E1,1.1328321E2,4.1340437E0,6.487671E1,3.1766266E1,5.8039093E0,4.4432552E1,1.4922614E1,4.6870422E1,6.641279E1],"tree_param":{"num_deleted":"0","num_feature":"65","num_nodes":"15","size_leaf_vector":"1"}},{"base_weights":[3.1941796E-3,7.9519236E-1,-4.3265486E-1,1.4650613E0,-3.0470303E-1,-9.557123E-1,-1.5873118E-1,5.118843E-3,1.5062315E-2,6.994305E-4,-8.681425E-3,-1.2532098E-2,-3.2747403E-4,3.374598E-3,-5.2727726E-3],"categories":[],"categories_nodes":[],"categories_segments":[],"categories_sizes":[],"default_left":[0,0,0,0,0,0,0,0,0,0,0,0,0,0,0],"id":18,"left_children":[1,3,5,7,9,11,13,-1,-1,-1,-1,-1,-1,-1,-1],"loss_changes":[9.701058E1,7.3946106E1,2.5821705E1,1.6687012E0,8.205997E0,1.701231E1,2.215388E1,0E0,0E0,0E0,0E0,0E0,0E0,0E0,0E0],"parents":[2147483647,0,0,1,1,2,2,3,3,4,4,5,5,6,6],"right_children":[2,4,6,8,10,12,14,-1,-1,-1,-1,-1,-1,-1,-1],"split_conditions":[4.7153845E0,2.022E3,2.018E3,5.244588E1,9.5025E2,-1.185E2,6.7027214E1,5.118843E-3,1.5062315E-2,6.994305E-4,-8.681425E-3,-1.2532098E-2,-3.2747403E-4,3.374598E-3,-5.2727726E-3],"split_indices":[22,2,2,39,20,8,6,0,0,0,0,0,0,0,0],"split_type":[0,0,0,0,0,0,0,0,0,0,0,0,0,0,0],"sum_hessian":[2.7903726E2,9.8757225E1,1.8028004E2,6.1170547E1,3.7586674E1,6.1107075E1,1.1917297E2,3.088921E0,5.8081627E1,2.3101637E1,1.4485037E1,4.5941143E1,1.5165932E1,5.0826805E1,6.834617E1],"tree_param":{"num_deleted":"0","num_feature":"65","num_nodes":"15","size_leaf_vector":"1"}},{"base_weights":[3.1639975E-3,7.6495177E-1,-4.663163E-1,1.3465275E0,-3.0175233E-1,-6.116521E-1,4.3969867E-1,-1.7037466E-3,1.4451772E-2,-5.0105415E-3,7.0474767E-3,-1.1103567E-2,-3.4904878E-3,1.0127185E-2,-2.7383803E-3],"categories":[],"categories_nodes":[],"categories_segments":[],"categories_sizes":[],"default_left":[0,0,0,0,0,0,0,0,0,0,0,0,0,0,0],"id":19,"left_children":[1,3,5,7,9,11,13,-1,-1,-1,-1,-1,-1,-1,-1],"loss_changes":[1.004434E2,6.6838524E1,2.314967E1,1.0643997E1,8.096285E0,1.9277912E1,1.033658E1,0E0,0E0,0E0,0E0,0E0,0E0,0E0,0E0],"parents":[2147483647,0,0,1,1,2,2,3,3,4,4,5,5,6,6],"right_children":[2,4,6,8,10,12,14,-1,-1,-1,-1,-1,-1,-1,-1],"split_conditions":[-2.065706E0,2.022E3,3.0666666E1,2.019E3,-1.179E2,2.018E3,2.8411874E2,-1.7037466E-3,1.4451772E-2,-5.0105415E-3,7.0474767E-3,-1.1103567E-2,-3.4904878E-3,1.0127185E-2,-2.7383803E-3],"split_indices":[42,2,30,2,8,2,39,0,0,0,0,0,0,0,0],"split_type":[0,0,0,0,0,0,0,0,0,0,0,0,0,0,0],"sum_hessian":[2.7884976E2,1.0608494E2,1.7276482E2,6.8484375E1,3.7600563E1,1.4916228E2,2.3602541E1,4.1374345E0,6.434694E1,3.1804905E1,5.795657E0,5.0338047E1,9.8824234E1,1.2857652E1,1.0744889E1],"tree_param":{"num_deleted":"0","num_feature":"65","num_nodes":"15","size_leaf_vector":"1"}},{"base_weights":[3.1705573E-3,7.593024E-1,-4.614963E-1,1.3385763E0,-2.9856116E-1,-6.052612E-1,4.3592438E-1,-1.6896498E-3,1.4370545E-2,-4.4502444E-3,1.0315181E-2,-2.3435985E-3,-9.529619E-3,1.0049396E-2,-2.712338E-3],"categories":[],"categories_nodes":[],"categories_segments":[],"categories_sizes":[],"default_left":[0,0,0,0,0,0,0,0,0,0,0,0,0,0,0],"id":20,"left_children":[1,3,5,7,9,11,13,-1,-1,-1,-1,-1,-1,-1,-1],"loss_changes":[9.8610054E1,6.586127E1,2.2692078E1,1.0517593E1,7.98173E0,1.9153809E1,1.0165025E1,0E0,0E0,0E0,0E0,0E0,0E0,0E0,0E0],"parents":[2147483647,0,0,1,1,2,2,3,3,4,4,5,5,6,6],"right_children":[2,4,6,8,10,12,14,-1,-1,-1,-1,-1,-1,-1,-1],"split_conditions":[-2.065706E0,2.022E3,3.0666666E1,2.019E3,-1.17E2,2.320177E1,2.8411874E2,-1.6896498E-3,1.4370545E-2,-4.4502444E-3,1.0315181E-2,-2.3435985E-3,-9.529619E-3,1.0049396E-2,-2.712338E-3],"split_indices":[42,2,30,2,8,45,39,0,0,0,0,0,0,0,0],"split_type":[0,0,0,0,0,0,0,0,0,0,0,0,0,0,0],"sum_hessian":[2.786636E2,1.05825066E2,1.7283853E2,6.820916E1,3.761591E1,1.4925392E2,2.3584614E1,4.1385717E0,6.407059E1,3.448407E1,3.1318395E0,7.302755E1,7.622637E1,1.2835459E1,1.0749156E1],"tree_param":{"num_deleted":"0","num_feature":"65","num_nodes":"15","size_leaf_vector":"1"}},{"base_weights":[3.2002612E-3,7.537547E-1,-4.56716E-1,2.5628275E-1,1.4057591E0,-5.9892553E-1,4.321923E-1,1.1624478E-2,-2.13752E-3,4.4180835E-3,1.46303205E-2,-2.3197473E-3,-9.427334E-3,-8.983775E-4,1.2130652E-2],"categories":[],"categories_nodes":[],"categories_segments":[],"categories_sizes":[],"default_left":[0,0,0,0,0,0,0,0,0,0,0,0,0,0,0],"id":21,"left_children":[1,3,5,7,9,11,13,-1,-1,-1,-1,-1,-1,-1,-1],"loss_changes":[9.681612E1,3.4203716E1,2.2243073E1,2.6514338E1,1.8874207E0,1.8748814E1,1.0123119E1,0E0,0E0,0E0,0E0,0E0,0E0,0E0,0E0],"parents":[2147483647,0,0,1,1,2,2,3,3,4,4,5,5,6,6],"right_children":[2,4,6,8,10,12,14,-1,-1,-1,-1,-1,-1,-1,-1],"split_conditions":[-2.065706E0,1.614564E1,3.0666666E1,4.1613925E-1,5.315786E0,2.320177E1,1.6666667E-3,1.1624478E-2,-2.13752E-3,4.4180835E-3,1.46303205E-2,-2.3197473E-3,-9.427334E-3,-8.983775E-4,1.2130652E-2],"split_indices":[42,3,30,48,13,45,53,0,0,0,0,0,0,0,0],"split_type":[0,0,0,0,0,0,0,0,0,0,0,0,0,0,0],"sum_hessian":[2.784729E2,1.0556256E2,1.7291035E2,6.0667225E1,4.4895332E1,1.4934416E2,2.3566193E1,2.021748E1,4.044975E1,3.0065615E0,4.188877E1,7.305078E1,7.629338E1,1.4654381E1,8.911811E0],"tree_param":{"num_deleted":"0","num_feature":"65","num_nodes":"15","size_leaf_vector":"1"}},{"base_weights":[3.278821E-3,8.8073164E-1,-3.8417196E-1,1.2749155E0,2.3142475E-1,-8.5329525E-2,-7.028919E-1,1.4176386E-2,7.524053E-3,-7.920587E-4,1.3192826E-2,-2.6350722E-3,4.1035605E-3,-8.02837E-3,4.9811206E-3],"categories":[],"categories_nodes":[],"categories_segments":[],"categories_sizes":[],"default_left":[0,0,0,0,0,0,0,0,0,0,0,0,0,0,0],"id":22,"left_children":[1,3,5,7,9,11,13,-1,-1,-1,-1,-1,-1,-1,-1],"loss_changes":[9.528833E1,2.1678581E1,1.8459574E1,2.9006653E0,1.1476576E1,9.071375E0,1.1677288E1,0E0,0E0,0E0,0E0,0E0,0E0,0E0,0E0],"parents":[2147483647,0,0,1,1,2,2,3,3,4,4,5,5,6,6],"right_children":[2,4,6,8,10,12,14,-1,-1,-1,-1,-1,-1,-1,-1],"split_conditions":[7.9958336E1,2.22E2,2.320177E1,5.902359E2,4.685029E0,1.5118862E1,3.0666666E1,1.4176386E-2,7.524053E-3,-7.920587E-4,1.3192826E-2,-2.6350722E-3,4.1035605E-3,-8.02837E-3,4.9811206E-3],"split_indices":[0,57,45,21,25,14,30,0,0,0,0,0,0,0,0],"split_type":[0,0,0,0,0,0,0,0,0,0,0,0,0,0,0],"sum_hessian":[2.782895E2,8.485248E1,1.9343703E2,5.2199493E1,3.265298E1,1.0048586E2,9.295116E1,3.9654716E1,1.254478E1,2.6121384E1,6.5315976E0,7.426073E1,2.6225142E1,8.6116264E1,6.8348966E0],"tree_param":{"num_deleted":"0","num_feature":"65","num_nodes":"15","size_leaf_vector":"1"}},{"base_weights":[3.3709928E-3,7.4385655E-1,-4.481416E-1,2.5264186E-1,1.3919973E0,-5.878969E-1,4.271618E-1,1.1531175E-2,-2.122995E-3,4.457714E-3,1.4483981E-2,-2.2863613E-3,-9.241275E-3,-8.980524E-4,1.2025566E-2],"categories":[],"categories_nodes":[],"categories_segments":[],"categories_sizes":[],"default_left":[0,0,0,0,0,0,0,0,0,0,0,0,0,0,0],"id":23,"left_children":[1,3,5,7,9,11,13,-1,-1,-1,-1,-1,-1,-1,-1],"loss_changes":[9.366017E1,3.3431194E1,2.1539772E1,2.6028105E1,1.7839584E0,1.7966953E1,9.944866E0,0E0,0E0,0E0,0E0,0E0,0E0,0E0,0E0],"parents":[2147483647,0,0,1,1,2,2,3,3,4,4,5,5,6,6],"right_children":[2,4,6,8,10,12,14,-1,-1,-1,-1,-1,-1,-1,-1],"split_conditions":[-2.065706E0,1.614564E1,3.0666666E1,4.1613925E-1,9.125E0,2.320177E1,1.6666667E-3,1.1531175E-2,-2.122995E-3,4.457714E-3,1.4483981E-2,-2.2863613E-3,-9.241275E-3,-8.980524E-4,1.2025566E-2],"split_indices":[42,3,30,48,30,45,53,0,0,0,0,0,0,0,0],"split_type":[0,0,0,0,0,0,0,0,0,0,0,0,0,0,0],"sum_hessian":[2.7813867E2,1.0510988E2,1.7302881E2,6.058406E1,4.4525818E1,1.49489E2,2.3539804E1,2.0125618E1,4.0458443E1,3.0055685E0,4.152025E1,7.3081635E1,7.640737E1,1.465397E1,8.885834E0],"tree_param":{"num_deleted":"0","num_feature":"65","num_nodes":"15","size_leaf_vector":"1"}},{"base_weights":[3.4479126E-3,8.694474E-1,-3.7676695E-1,1.4546979E-2,-1.3902314E-1,-8.8660085E-1,-1.31679E-1,-6.450938E-3,2.8093557E-3,-1.1775253E-2,8.759882E-5,2.678622E-3,-4.71142E-3],"categories":[],"categories_nodes":[],"categories_segments":[],"categories_sizes":[],"default_left":[0,0,0,0,0,0,0,0,0,0,0,0,0],"id":24,"left_children":[1,3,5,-1,7,9,11,-1,-1,-1,-1,-1,-1],"loss_changes":[9.2173744E1,5.0609802E1,2.4191309E1,0E0,7.040801E0,1.6416084E1,1.8104359E1,0E0,0E0,0E0,0E0,0E0,0E0],"parents":[2147483647,0,0,1,1,2,2,4,4,5,5,6,6],"right_children":[2,4,6,-1,8,10,12,-1,-1,-1,-1,-1,-1],"split_conditions":[7.9958336E1,2.022E3,2.018E3,1.4546979E-2,1.7133333E2,-1.185E2,6.893063E1,-6.450938E-3,2.8093557E-3,-1.1775253E-2,8.759882E-5,2.678622E-3,-4.71142E-3],"split_indices":[0,2,2,0,16,8,6,0,0,0,0,0,0],"split_type":[0,0,0,0,0,0,0,0,0,0,0,0,0],"sum_hessian":[2.7794226E2,8.4406456E1,1.9353578E2,5.31305E1,3.1275959E1,6.198228E1,1.3155351E2,1.3940677E1,1.7335281E1,4.6543896E1,1.5438387E1,6.0526245E1,7.102726E1],"tree_param":{"num_deleted":"0","num_feature":"65","num_nodes":"13","size_leaf_vector":"1"}},{"base_weights":[3.4139678E-3,8.63465E-1,-3.729874E-1,1.447378E-2,-1.3772045E-1,-8.7749565E-1,-1.3036485E-1,4.559264E-3,-4.8496076E-3,-1.1652473E-2,8.677762E-5,2.6534796E-3,-4.662374E-3],"categories":[],"categories_nodes":[],"categories_segments":[],"categories_sizes":[],"default_left":[0,0,0,0,0,0,0,0,0,0,0,0,0],"id":25,"left_children":[1,3,5,-1,7,9,11,-1,-1,-1,-1,-1,-1],"loss_changes":[9.055408E1,4.998025E1,2.3702932E1,0E0,6.875555E0,1.6078178E1,1.7742855E1,0E0,0E0,0E0,0E0,0E0,0E0],"parents":[2147483647,0,0,1,1,2,2,4,4,5,5,6,6],"right_children":[2,4,6,-1,8,10,12,-1,-1,-1,-1,-1,-1],"split_conditions":[7.9958336E1,2.022E3,2.018E3,1.447378E-2,6.521739E0,-1.185E2,6.893063E1,4.559264E-3,-4.8496076E-3,-1.1652473E-2,8.677762E-5,2.6534796E-3,-4.662374E-3],"split_indices":[0,2,2,0,41,8,6,0,0,0,0,0,0],"split_type":[0,0,0,0,0,0,0,0,0,0,0,0,0],"sum_hessian":[2.77731E2,8.415306E1,1.9357793E2,5.2871563E1,3.1281504E1,6.201256E1,1.3156535E2,1.1429121E1,1.9852383E1,4.657436E1,1.54382E1,6.0498367E1,7.106699E1],"tree_param":{"num_deleted":"0","num_feature":"65","num_nodes":"13","size_leaf_vector":"1"}},{"base_weights":[3.3926696E-3,7.291741E-1,-4.357259E-1,2.4785972E-1,1.3712028E0,-5.7339174E-1,4.275494E-1,1.1378336E-2,-2.078257E-3,4.769536E-3,1.4281939E-2,-2.2117344E-3,-9.0287775E-3,-8.359513E-4,1.1957256E-2],"categories":[],"categories_nodes":[],"categories_segments":[],"categories_sizes":[],"default_left":[0,0,0,0,0,0,0,0,0,0,0,0,0,0,0],"id":26,"left_children":[1,3,5,7,9,11,13,-1,-1,-1,-1,-1,-1,-1,-1],"loss_changes":[8.908063E1,3.2218678E1,2.0941814E1,2.5152649E1,1.6082916E0,1.7280567E1,9.729633E0,0E0,0E0,0E0,0E0,0E0,0E0,0E0,0E0],"parents":[2147483647,0,0,1,1,2,2,3,3,4,4,5,5,6,6],"right_children":[2,4,6,8,10,12,14,-1,-1,-1,-1,-1,-1,-1,-1],"split_conditions":[-2.065706E0,1.614564E1,3.0666666E1,4.1613925E-1,6.177242E0,2.320177E1,1.6666667E-3,1.1378336E-2,-2.078257E-3,4.769536E-3,1.4281939E-2,-2.2117344E-3,-9.0287775E-3,-8.359513E-4,1.1957256E-2],"split_indices":[42,3,30,48,13,45,53,0,0,0,0,0,0,0,0],"split_type":[0,0,0,0,0,0,0,0,0,0,0,0,0,0,0],"sum_hessian":[2.77512E2,1.0436142E2,1.7315056E2,6.043828E1,4.3923138E1,1.4962567E2,2.3524897E1,1.9959505E1,4.047877E1,3.1928537E0,4.0730286E1,7.312588E1,7.6499794E1,1.4660786E1,8.864111E0],"tree_param":{"num_deleted":"0","num_feature":"65","num_nodes":"15","size_leaf_vector":"1"}},{"base_weights":[3.470691E-3,8.5266566E-1,-3.6596113E-1,1.4338913E-2,-1.3427714E-1,-8.641704E-1,-1.2629977E-1,-6.346792E-3,2.813384E-3,-1.1482622E-2,1.0946583E-4,2.6385414E-3,-4.5705438E-3],"categories":[],"categories_nodes":[],"categories_segments":[],"categories_sizes":[],"default_left":[0,0,0,0,0,0,0,0,0,0,0,0,0],"id":27,"left_children":[1,3,5,-1,7,9,11,-1,-1,-1,-1,-1,-1],"loss_changes":[8.762005E1,4.8761166E1,2.3130146E1,0E0,6.895251E0,1.5686508E1,1.7230194E1,0E0,0E0,0E0,0E0,0E0,0E0],"parents":[2147483647,0,0,1,1,2,2,4,4,5,5,6,6],"right_children":[2,4,6,-1,8,10,12,-1,-1,-1,-1,-1,-1],"split_conditions":[7.9958336E1,2.022E3,2.018E3,1.4338913E-2,1.7133333E2,-1.185E2,6.893063E1,-6.346792E-3,2.813384E-3,-1.1482622E-2,1.0946583E-4,2.6385414E-3,-4.5705438E-3],"split_indices":[0,2,2,0,16,8,6,0,0,0,0,0,0],"split_type":[0,0,0,0,0,0,0,0,0,0,0,0,0],"sum_hessian":[2.7729944E2,8.3667946E1,1.9363148E2,5.237226E1,3.1295687E1,6.2045403E1,1.3158609E2,1.3960333E1,1.7335354E1,4.6604065E1,1.5441338E1,6.0464817E1,7.112127E1],"tree_param":{"num_deleted":"0","num_feature":"65","num_nodes":"13","size_leaf_vector":"1"}},{"base_weights":[3.4377584E-3,7.1942854E-1,-4.2746806E-1,1.2873459E0,-2.853206E-1,-8.9390916E-1,-1.769755E-1,-1.7011331E-3,1.3856756E-2,8.2120195E-4,-8.379287E-3,-1.1728246E-2,-3.9759267E-4,-5.6844126E-3,1.332374E-3],"categories":[],"categories_nodes":[],"categories_segments":[],"categories_sizes":[],"default_left":[0,0,0,0,0,0,0,0,0,0,0,0,0,0,0],"id":28,"left_children":[1,3,5,7,9,11,13,-1,-1,-1,-1,-1,-1,-1,-1],"loss_changes":[8.609885E1,6.0194828E1,2.019791E1,9.861481E0,7.9229884E0,1.4396488E1,1.39921055E1,0E0,0E0,0E0,0E0,0E0,0E0,0E0,0E0],"parents":[2147483647,0,0,1,1,2,2,3,3,4,4,5,5,6,6],"right_children":[2,4,6,8,10,12,14,-1,-1,-1,-1,-1,-1,-1,-1],"split_conditions":[-2.065706E0,2.022E3,2.018E3,2.019E3,9.5025E2,-1.185E2,1.5368055E1,-1.7011331E-3,1.3856756E-2,8.2120195E-4,-8.379287E-3,-1.1728246E-2,-3.9759267E-4,-5.6844126E-3,1.332374E-3],"split_indices":[42,2,2,2,20,8,54,0,0,0,0,0,0,0,0],"split_type":[0,0,0,0,0,0,0,0,0,0,0,0,0,0,0],"sum_hessian":[2.770696E2,1.03847534E2,1.7322209E2,6.616669E1,3.7680855E1,5.962536E1,1.13596725E2,4.135754E0,6.203093E1,2.3143589E1,1.4537265E1,4.4666725E1,1.4958633E1,4.985322E1,6.3743504E1],"tree_param":{"num_deleted":"0","num_feature":"65","num_nodes":"15","size_leaf_vector":"1"}},{"base_weights":[3.3719814E-3,8.418438E-1,-3.5913706E-1,1.4203313E-2,-1.3041152E-1,-8.46702E-1,-1.2442609E-1,4.556047E-3,-4.729055E-3,-1.12501895E-2,1.12549744E-4,2.609925E-3,-4.507881E-3],"categories":[],"categories_nodes":[],"categories_segments":[],"categories_sizes":[],"default_left":[0,0,0,0,0,0,0,0,0,0,0,0,0],"id":29,"left_children":[1,3,5,-1,7,9,11,-1,-1,-1,-1,-1,-1],"loss_changes":[8.4746475E1,4.7518356E1,2.2171154E1,0E0,6.7002597E0,1.5076389E1,1.679397E1,0E0,0E0,0E0,0E0,0E0,0E0],"parents":[2147483647,0,0,1,1,2,2,4,4,5,5,6,6],"right_children":[2,4,6,-1,8,10,12,-1,-1,-1,-1,-1,-1],"split_conditions":[7.9958336E1,2.022E3,2.018E3,1.4203313E-2,6.521739E0,-1.185E2,6.893063E1,4.556047E-3,-4.729055E-3,-1.12501895E-2,1.12549744E-4,2.609925E-3,-4.507881E-3],"split_indices":[0,2,2,0,41,8,6,0,0,0,0,0,0],"split_type":[0,0,0,0,0,0,0,0,0,0,0,0,0],"sum_hessian":[2.7681915E2,8.315712E1,1.9366205E2,5.1847332E1,3.1309792E1,6.208516E1,1.3157689E2,1.1427235E1,1.9882557E1,4.6643093E1,1.5442064E1,6.0421803E1,7.115508E1],"tree_param":{"num_deleted":"0","num_feature":"65","num_nodes":"13","size_leaf_vector":"1"}},{"base_weights":[3.352556E-3,8.3625215E-1,-3.5556978E-1,1.2238775E0,2.1192926E-1,-4.6593747E-1,4.2977047E-1,2.9000407E-3,1.2832285E-2,5.847472E-3,-5.997551E-3,-1.6507917E-3,-7.5284075E-3,9.867575E-3,-2.593238E-3],"categories":[],"categories_nodes":[],"categories_segments":[],"categories_sizes":[],"default_left":[0,0,0,0,0,0,0,0,0,0,0,0,0,0,0],"id":30,"left_children":[1,3,5,7,9,11,13,-1,-1,-1,-1,-1,-1,-1,-1],"loss_changes":[8.3277855E1,2.0042717E1,1.7074795E1,2.4849472E0,1.0440967E1,1.4651157E1,9.662833E0,0E0,0E0,0E0,0E0,0E0,0E0,0E0,0E0],"parents":[2147483647,0,0,1,1,2,2,3,3,4,4,5,5,6,6],"right_children":[2,4,6,8,10,12,14,-1,-1,-1,-1,-1,-1,-1,-1],"split_conditions":[7.9958336E1,2.22E2,3.0666666E1,-1.0173611E-1,9.76719E0,2.320177E1,2.8411874E2,2.9000407E-3,1.2832285E-2,5.847472E-3,-5.997551E-3,-1.6507917E-3,-7.5284075E-3,9.867575E-3,-2.593238E-3],"split_indices":[0,57,30,61,36,45,39,0,0,0,0,0,0,0,0],"split_type":[0,0,0,0,0,0,0,0,0,0,0,0,0,0,0],"sum_hessian":[2.765767E2,8.289176E1,1.9368494E2,5.0547714E1,3.2344048E1,1.7017598E2,2.3508955E1,3.3722599E0,4.7175453E1,2.235546E1,9.988588E0,8.383677E1,8.633921E1,1.27617855E1,1.07471695E1],"tree_param":{"num_deleted":"0","num_feature":"65","num_nodes":"15","size_leaf_vector":"1"}},{"base_weights":[3.3768828E-3,7.0558757E-1,-4.1600615E-1,1.2710857E0,-2.834937E-1,-5.499946E-1,4.2611766E-1,-1.6074212E-3,1.3689238E-2,-4.7855624E-3,7.030428E-3,-1.0162419E-2,-3.0481438E-3,9.792913E-3,-2.5686747E-3],"categories":[],"categories_nodes":[],"categories_segments":[],"categories_sizes":[],"default_left":[0,0,0,0,0,0,0,0,0,0,0,0,0,0,0],"id":31,"left_children":[1,3,5,7,9,11,13,-1,-1,-1,-1,-1,-1,-1,-1],"loss_changes":[8.198455E1,5.858203E1,1.9901514E1,9.523254E0,7.780422E0,1.693015E1,9.503803E0,0E0,0E0,0E0,0E0,0E0,0E0,0E0,0E0],"parents":[2147483647,0,0,1,1,2,2,3,3,4,4,5,5,6,6],"right_children":[2,4,6,8,10,12,14,-1,-1,-1,-1,-1,-1,-1,-1],"split_conditions":[-2.065706E0,2.022E3,3.0666666E1,2.019E3,-1.179E2,2.018E3,2.8411874E2,-1.6074212E-3,1.3689238E-2,-4.7855624E-3,7.030428E-3,-1.0162419E-2,-3.0481438E-3,9.792913E-3,-2.5686747E-3],"split_indices":[42,2,30,2,8,2,39,0,0,0,0,0,0,0,0],"split_type":[0,0,0,0,0,0,0,0,0,0,0,0,0,0,0],"sum_hessian":[2.7639334E2,1.0309301E2,1.7330032E2,6.54102E1,3.7682804E1,1.4981111E2,2.3489218E1,4.142539E0,6.1267666E1,3.1891903E1,5.7909017E0,5.0545776E1,9.9265335E1,1.2738234E1,1.0750983E1],"tree_param":{"num_deleted":"0","num_feature":"65","num_nodes":"15","size_leaf_vector":"1"}},{"base_weights":[3.3849988E-3,8.255989E-1,-3.488117E-1,1.4022272E-2,-1.2993445E-1,-8.2621545E-1,-1.18950516E-1,-6.2401127E-3,2.8090032E-3,-1.1713556E-2,-3.930624E-3,2.6085742E-3,-4.4023762E-3],"categories":[],"categories_nodes":[],"categories_segments":[],"categories_sizes":[],"default_left":[0,0,0,0,0,0,0,0,0,0,0,0,0],"id":32,"left_children":[1,3,5,-1,7,9,11,-1,-1,-1,-1,-1,-1],"loss_changes":[8.0541466E1,4.6139053E1,2.1270555E1,0E0,6.7328453E0,8.975716E0,1.6296875E1,0E0,0E0,0E0,0E0,0E0,0E0],"parents":[2147483647,0,0,1,1,2,2,4,4,5,5,6,6],"right_children":[2,4,6,-1,8,10,12,-1,-1,-1,-1,-1,-1],"split_conditions":[7.9958336E1,2.022E3,2.018E3,1.4022272E-2,1.7133333E2,7.5E2,6.893063E1,-6.2401127E-3,2.8090032E-3,-1.1713556E-2,-3.930624E-3,2.6085742E-3,-4.4023762E-3],"split_indices":[0,2,2,0,16,63,6,0,0,0,0,0,0],"split_type":[0,0,0,0,0,0,0,0,0,0,0,0,0],"sum_hessian":[2.7613657E2,8.2408134E1,1.9372844E2,5.110232E1,3.1305809E1,6.211858E1,1.3160986E2,1.397743E1,1.7328379E1,3.3623123E1,2.8495457E1,6.0398346E1,7.121152E1],"tree_param":{"num_deleted":"0","num_feature":"65","num_nodes":"13","size_leaf_vector":"1"}},{"base_weights":[3.3371693E-3,6.963455E-1,-4.08242E-1,1.259142E0,-2.7909467E-1,-8.5608816E-1,-1.6765627E-1,-1.547502E-3,1.3566865E-2,8.323471E-4,-8.233205E-3,-1.1273894E-2,-2.6662523E-4,2.7393564E-3,-4.762332E-3],"categories":[],"categories_nodes":[],"categories_segments":[],"categories_sizes":[],"default_left":[0,0,0,0,0,0,0,0,0,0,0,0,0,0,0],"id":33,"left_children":[1,3,5,7,9,11,13,-1,-1,-1,-1,-1,-1,-1,-1],"loss_changes":[7.926112E1,5.7193024E1,1.8641777E1,9.290428E0,7.700019E0,1.3625774E1,1.5755012E1,0E0,0E0,0E0,0E0,0E0,0E0,0E0,0E0],"parents":[2147483647,0,0,1,1,2,2,3,3,4,4,5,5,6,6],"right_children":[2,4,6,8,10,12,14,-1,-1,-1,-1,-1,-1,-1,-1],"split_conditions":[-2.065706E0,2.022E3,2.018E3,2.019E3,9.5025E2,-1.185E2,6.7027214E1,-1.547502E-3,1.3566865E-2,8.323471E-4,-8.233205E-3,-1.1273894E-2,-2.6662523E-4,2.7393564E-3,-4.762332E-3],"split_indices":[42,2,2,2,20,8,6,0,0,0,0,0,0,0,0],"split_type":[0,0,0,0,0,0,0,0,0,0,0,0,0,0,0],"sum_hessian":[2.7589044E2,1.02541435E2,1.73349E2,6.484004E1,3.7701393E1,5.9686066E1,1.1366293E2,4.146772E0,6.069327E1,2.314152E1,1.45598755E1,4.4704266E1,1.4981799E1,4.6800663E1,6.686227E1],"tree_param":{"num_deleted":"0","num_feature":"65","num_nodes":"15","size_leaf_vector":"1"}},{"base_weights":[3.2829645E-3,8.153908E-1,-3.4238088E-1,1.3897501E-2,-1.2617356E-1,-8.097848E-1,-1.17201865E-1,-6.156865E-3,2.8113574E-3,-1.0808498E-2,2.4228856E-4,-2.6771289E-3,4.7724554E-3],"categories":[],"categories_nodes":[],"categories_segments":[],"categories_sizes":[],"default_left":[0,0,0,0,0,0,0,0,0,0,0,0,0],"id":34,"left_children":[1,3,5,-1,7,9,11,-1,-1,-1,-1,-1,-1],"loss_changes":[7.7927315E1,4.4996243E1,2.0400097E1,0E0,6.61685E0,1.4300922E1,1.1990284E1,0E0,0E0,0E0,0E0,0E0,0E0],"parents":[2147483647,0,0,1,1,2,2,4,4,5,5,6,6],"right_children":[2,4,6,-1,8,10,12,-1,-1,-1,-1,-1,-1],"split_conditions":[7.9958336E1,2.022E3,2.018E3,1.3897501E-2,1.7133333E2,-1.185E2,1.52E1,-6.156865E-3,2.8113574E-3,-1.0808498E-2,2.4228856E-4,-2.6771289E-3,4.7724554E-3],"split_indices":[0,2,2,0,16,8,14,0,0,0,0,0,0],"split_type":[0,0,0,0,0,0,0,0,0,0,0,0,0],"sum_hessian":[2.7560712E2,8.187943E1,1.9372769E2,5.056097E1,3.1318466E1,6.2142456E1,1.3158524E2,1.399154E1,1.7326925E1,4.6676155E1,1.5466301E1,1.05438416E2,2.6146822E1],"tree_param":{"num_deleted":"0","num_feature":"65","num_nodes":"13","size_leaf_vector":"1"}},{"base_weights":[3.2682172E-3,6.872865E-1,-4.0074065E-1,1.2476786E0,-2.751645E-1,-8.821224E-2,-7.322985E-1,-1.4838249E-3,1.3449293E-2,-4.177236E-3,1.0225739E-2,-2.4114563E-3,6.9456664E-3,-1.1611951E-2,-4.3615806E-3],"categories":[],"categories_nodes":[],"categories_segments":[],"categories_sizes":[],"default_left":[0,0,0,0,0,0,0,0,0,0,0,0,0,0,0],"id":35,"left_children":[1,3,5,7,9,11,13,-1,-1,-1,-1,-1,-1,-1,-1],"loss_changes":[7.664544E1,5.5887947E1,1.8003698E1,9.060844E0,7.5898986E0,1.1049064E1,1.0222572E1,0E0,0E0,0E0,0E0,0E0,0E0,0E0,0E0],"parents":[2147483647,0,0,1,1,2,2,3,3,4,4,5,5,6,6],"right_children":[2,4,6,8,10,12,14,-1,-1,-1,-1,-1,-1,-1,-1],"split_conditions":[-2.065706E0,2.022E3,2.320177E1,2.019E3,-1.17E2,5.3399518E-2,2.018E3,-1.4838249E-3,1.3449293E-2,-4.177236E-3,1.0225739E-2,-2.4114563E-3,6.9456664E-3,-1.1611951E-2,-4.3615806E-3],"split_indices":[42,2,45,2,8,48,2,0,0,0,0,0,0,0,0],"split_type":[0,0,0,0,0,0,0,0,0,0,0,0,0,0,0],"sum_hessian":[2.753531E2,1.0198441E2,1.7336867E2,6.42678E1,3.7716614E1,8.989714E1,8.347153E1,4.15115E0,6.0116646E1,3.459446E1,3.122155E0,7.578314E1,1.4113998E1,3.2900715E1,5.0570812E1],"tree_param":{"num_deleted":"0","num_feature":"65","num_nodes":"15","size_leaf_vector":"1"}},{"base_weights":[3.2707495E-3,8.0554616E-1,-3.3599898E-1,2.7808663E-1,1.3616421E-2,-4.437086E-1,4.3122005E-1,1.3034898E-2,-7.9184E-4,1.2832564E-4,-6.377642E-3,5.0447106E-5,1.0173508E-2],"categories":[],"categories_nodes":[],"categories_segments":[],"categories_sizes":[],"default_left":[0,0,0,0,0,0,0,0,0,0,0,0,0],"id":36,"left_children":[1,3,5,7,-1,9,11,-1,-1,-1,-1,-1,-1],"loss_changes":[7.541723E1,2.3775211E1,1.6283766E1,1.6045979E1,0E0,1.5180504E1,6.1099687E0,0E0,0E0,0E0,0E0,0E0,0E0],"parents":[2147483647,0,0,1,1,2,2,3,3,5,5,6,6],"right_children":[2,4,6,8,-1,10,12,-1,-1,-1,-1,-1,-1],"split_conditions":[7.9958336E1,1.614564E1,3.0666666E1,1.6145454E1,1.3616421E-2,2.0912616E2,1.4849609E1,1.3034898E-2,-7.9184E-4,1.2832564E-4,-6.377642E-3,5.0447106E-5,1.0173508E-2],"split_indices":[0,3,30,3,0,27,14,0,0,0,0,0,0],"split_type":[0,0,0,0,0,0,0,0,0,0,0,0,0],"sum_hessian":[2.750836E2,8.1346985E1,1.937366E2,4.2518272E1,3.882871E1,1.7025607E2,2.3480528E1,1.0302004E1,3.221627E1,5.1061382E1,1.1919469E2,1.4179343E1,9.301185E0],"tree_param":{"num_deleted":"0","num_feature":"65","num_nodes":"13","size_leaf_vector":"1"}},{"base_weights":[3.3564875E-3,8.004089E-1,-3.3255297E-1,1.3719797E-2,-1.2130442E-1,-7.899543E-1,-1.1223575E-1,-6.057823E-3,2.8202792E-3,-1.0574521E-2,3.1839102E-4,2.5965916E-3,-4.2639566E-3],"categories":[],"categories_nodes":[],"categories_segments":[],"categories_sizes":[],"default_left":[0,0,0,0,0,0,0,0,0,0,0,0,0],"id":37,"left_children":[1,3,5,-1,7,9,11,-1,-1,-1,-1,-1,-1],"loss_changes":[7.4123024E1,4.340888E1,1.9539392E1,0E0,6.4895406E0,1.3916431E1,1.5605459E1,0E0,0E0,0E0,0E0,0E0,0E0],"parents":[2147483647,0,0,1,1,2,2,4,4,5,5,6,6],"right_children":[2,4,6,-1,8,10,12,-1,-1,-1,-1,-1,-1],"split_conditions":[7.9958336E1,2.022E3,2.018E3,1.3719797E-2,1.7133333E2,-1.185E2,6.893063E1,-6.057823E-3,2.8202792E-3,-1.0574521E-2,3.1839102E-4,2.5965916E-3,-4.2639566E-3],"split_indices":[0,2,2,0,16,8,6,0,0,0,0,0,0],"split_type":[0,0,0,0,0,0,0,0,0,0,0,0,0],"sum_hessian":[2.748555E2,8.108134E1,1.9377417E2,4.974504E1,3.1336294E1,6.215286E1,1.316213E2,1.4008052E1,1.7328243E1,4.6673607E1,1.5479252E1,6.0351795E1,7.126951E1],"tree_param":{"num_deleted":"0","num_feature":"65","num_nodes":"13","size_leaf_vector":"1"}},{"base_weights":[3.3285066E-3,6.745991E-1,-3.898979E-1,1.23194E0,-2.6969108E-1,-5.200661E-1,4.2938718E-1,-1.3863642E-3,1.3287902E-2,8.873938E-4,-8.080702E-3,-1.8826533E-3,-8.308044E-3,-6.8769895E-4,1.1813615E-2],"categories":[],"categories_nodes":[],"categories_segments":[],"categories_sizes":[],"default_left":[0,0,0,0,0,0,0,0,0,0,0,0,0,0,0],"id":38,"left_children":[1,3,5,7,9,11,13,-1,-1,-1,-1,-1,-1,-1,-1],"loss_changes":[7.300495E1,5.4100857E1,1.8823544E1,8.736084E0,7.5473623E0,1.5407364E1,9.2437725E0,0E0,0E0,0E0,0E0,0E0,0E0,0E0,0E0],"parents":[2147483647,0,0,1,1,2,2,3,3,4,4,5,5,6,6],"right_children":[2,4,6,8,10,12,14,-1,-1,-1,-1,-1,-1,-1,-1],"split_conditions":[-2.065706E0,2.022E3,3.0666666E1,2.019E3,9.5025E2,2.320177E1,1.6666667E-3,-1.3863642E-3,1.3287902E-2,8.873938E-4,-8.080702E-3,-1.8826533E-3,-8.308044E-3,-6.8769895E-4,1.1813615E-2],"split_indices":[42,2,30,2,20,45,53,0,0,0,0,0,0,0,0],"split_type":[0,0,0,0,0,0,0,0,0,0,0,0,0,0,0],"sum_hessian":[2.7457794E2,1.0116508E2,1.7341286E2,6.3425392E1,3.7739685E1,1.4995345E2,2.3459417E1,4.157601E0,5.926779E1,2.3157536E1,1.458215E1,7.3295586E1,7.665786E1,1.4657727E1,8.80169E0],"tree_param":{"num_deleted":"0","num_feature":"65","num_nodes":"15","size_leaf_vector":"1"}},{"base_weights":[3.3277276E-3,7.9076076E-1,-3.2636708E-1,1.3604978E-2,-1.1772214E-1,-7.780774E-1,-1.0881472E-1,5.244324E-3,-4.1597243E-3,-1.0425389E-2,3.393619E-4,2.5797847E-3,-4.1836165E-3],"categories":[],"categories_nodes":[],"categories_segments":[],"categories_sizes":[],"default_left":[0,0,0,0,0,0,0,0,0,0,0,0,0],"id":39,"left_children":[1,3,5,-1,7,9,11,-1,-1,-1,-1,-1,-1],"loss_changes":[7.172721E1,4.2364033E1,1.9053875E1,0E0,6.4133162E0,1.3595421E1,1.5164304E1,0E0,0E0,0E0,0E0,0E0,0E0],"parents":[2147483647,0,0,1,1,2,2,4,4,5,5,6,6],"right_children":[2,4,6,-1,8,10,12,-1,-1,-1,-1,-1,-1],"split_conditions":[7.9958336E1,2.022E3,2.018E3,1.3604978E-2,6E0,-1.185E2,6.893063E1,5.244324E-3,-4.1597243E-3,-1.0425389E-2,3.393619E-4,2.5797847E-3,-4.1836165E-3],"split_indices":[0,2,2,0,41,8,6,0,0,0,0,0,0],"split_type":[0,0,0,0,0,0,0,0,0,0,0,0,0],"sum_hessian":[2.7429153E2,8.053817E1,1.9375337E2,4.9191277E1,3.134689E1,6.214447E1,1.316089E2,9.70118E0,2.164571E1,4.666307E1,1.54814005E1,6.0310925E1,7.129797E1],"tree_param":{"num_deleted":"0","num_feature":"65","num_nodes":"13","size_leaf_vector":"1"}},{"base_weights":[3.316136E-3,6.6597354E-1,-3.8266423E-1,2.2456075E-1,1.2873056E0,-5.112745E-1,4.2760104E-1,1.07263215E-2,-1.9165658E-3,4.0787957E-3,1.3457572E-2,-2.0179805E-5,-6.9929413E-3,9.704956E-3,-2.409398E-3],"categories":[],"categories_nodes":[],"categories_segments":[],"categories_sizes":[],"default_left":[0,0,0,0,0,0,0,0,0,0,0,0,0,0,0],"id":40,"left_children":[1,3,5,7,9,11,13,-1,-1,-1,-1,-1,-1,-1,-1],"loss_changes":[7.059382E1,2.7572964E1,1.8394379E1,2.159799E1,1.6092148E0,1.4454998E1,9.103106E0,0E0,0E0,0E0,0E0,0E0,0E0,0E0,0E0],"parents":[2147483647,0,0,1,1,2,2,3,3,4,4,5,5,6,6],"right_children":[2,4,6,8,10,12,14,-1,-1,-1,-1,-1,-1,-1,-1],"split_conditions":[-2.065706E0,1.614564E1,3.0666666E1,4.1613925E-1,6.177242E0,2.0912616E2,2.8411874E2,1.07263215E-2,-1.9165658E-3,4.0787957E-3,1.3457572E-2,-2.0179805E-5,-6.9929413E-3,9.704956E-3,-2.409398E-3],"split_indices":[42,3,30,48,13,27,39,0,0,0,0,0,0,0,0],"split_type":[0,0,0,0,0,0,0,0,0,0,0,0,0,0,0],"sum_hessian":[2.7400574E2,1.0058844E2,1.7341728E2,5.960482E1,4.098362E1,1.4998047E2,2.3436817E1,1.9103346E1,4.0501476E1,3.051454E0,3.7932167E1,4.071459E1,1.09265884E2,1.2684551E1,1.0752266E1],"tree_param":{"num_deleted":"0","num_feature":"65","num_nodes":"15","size_leaf_vector":"1"}},{"base_weights":[3.390714E-3,6.84014E-1,-3.4815916E-1,1.1088823E0,1.1682069E-1,3.457747E-2,-6.0334045E-1,5.1987665E-3,1.2523992E-2,4.8982445E-3,-7.143517E-3,4.2739008E-3,-4.0219096E-3,6.450509E-3,-7.1048E-3],"categories":[],"categories_nodes":[],"categories_segments":[],"categories_sizes":[],"default_left":[0,0,0,0,0,0,0,0,0,0,0,0,0,0,0],"id":41,"left_children":[1,3,5,7,9,11,13,-1,-1,-1,-1,-1,-1,-1,-1],"loss_changes":[6.597757E1,2.2502026E1,1.777996E1,3.877777E0,1.3165946E1,1.2813533E1,1.5057312E1,0E0,0E0,0E0,0E0,0E0,0E0,0E0,0E0],"parents":[2147483647,0,0,1,1,2,2,3,3,4,4,5,5,6,6],"right_children":[2,4,6,8,10,12,14,-1,-1,-1,-1,-1,-1,-1,-1],"split_conditions":[4.7153845E0,2.2E2,6.5500534E1,1.7158842E2,9.76719E0,1.4307994E0,8.3847186E2,5.1987665E-3,1.2523992E-2,4.8982445E-3,-7.143517E-3,4.2739008E-3,-4.0219096E-3,6.450509E-3,-7.1048E-3],"split_indices":[22,57,6,39,36,34,20,0,0,0,0,0,0,0,0],"split_type":[0,0,0,0,0,0,0,0,0,0,0,0,0,0,0],"sum_hessian":[2.7374646E2,9.291374E1,1.8083273E2,5.257573E1,4.033801E1,7.2682915E1,1.0814982E2,1.120634E1,4.1369392E1,2.812644E1,1.2211569E1,3.8278336E1,3.4404583E1,8.151207E0,9.999861E1],"tree_param":{"num_deleted":"0","num_feature":"65","num_nodes":"15","size_leaf_vector":"1"}},{"base_weights":[3.4204551E-3,7.766743E-1,-3.1735614E-1,1.345763E-2,-1.17244676E-1,-7.620086E-1,-1.0331242E-1,-3.3632223E-3,6.7727165E-3,-1.022935E-2,3.8237922E-4,2.5735362E-3,-4.0741046E-3],"categories":[],"categories_nodes":[],"categories_segments":[],"categories_sizes":[],"default_left":[0,0,0,0,0,0,0,0,0,0,0,0,0],"id":42,"left_children":[1,3,5,-1,7,9,11,-1,-1,-1,-1,-1,-1],"loss_changes":[6.834182E1,4.125442E1,1.8456358E1,0E0,5.8575773E0,1.3220253E1,1.4650418E1,0E0,0E0,0E0,0E0,0E0,0E0],"parents":[2147483647,0,0,1,1,2,2,4,4,5,5,6,6],"right_children":[2,4,6,-1,8,10,12,-1,-1,-1,-1,-1,-1],"split_conditions":[7.9958336E1,2.022E3,2.018E3,1.345763E-2,2.9541667E0,-1.185E2,6.893063E1,-3.3632223E-3,6.7727165E-3,-1.022935E-2,3.8237922E-4,2.5735362E-3,-4.0741046E-3],"split_indices":[0,2,2,0,46,8,6,0,0,0,0,0,0],"split_type":[0,0,0,0,0,0,0,0,0,0,0,0,0],"sum_hessian":[2.7353177E2,7.978452E1,1.9374725E2,4.844066E1,3.1343863E1,6.2126396E1,1.3162086E2,2.5021267E1,6.322594E0,4.66406E1,1.5485796E1,6.028062E1,7.134024E1],"tree_param":{"num_deleted":"0","num_feature":"65","num_nodes":"13","size_leaf_vector":"1"}},{"base_weights":[3.4172186E-3,6.5318215E-1,-3.7205872E-1,1.2071154E0,-2.6483914E-1,-4.987546E-1,4.2684075E-1,-1.3341116E-3,1.3040706E-2,-4.547091E-3,6.9771567E-3,-9.2796795E-3,-2.7370327E-3,-6.508193E-4,1.1715239E-2],"categories":[],"categories_nodes":[],"categories_segments":[],"categories_sizes":[],"default_left":[0,0,0,0,0,0,0,0,0,0,0,0,0,0,0],"id":43,"left_children":[1,3,5,7,9,11,13,-1,-1,-1,-1,-1,-1,-1,-1],"loss_changes":[6.714936E1,5.1577694E1,1.7869318E1,8.367996E0,7.3997383E0,1.43342285E1,9.020617E0,0E0,0E0,0E0,0E0,0E0,0E0,0E0,0E0],"parents":[2147483647,0,0,1,1,2,2,3,3,4,4,5,5,6,6],"right_children":[2,4,6,8,10,12,14,-1,-1,-1,-1,-1,-1,-1,-1],"split_conditions":[-2.065706E0,2.022E3,3.0666666E1,2.019E3,-1.179E2,2.018E3,1.6666667E-3,-1.3341116E-3,1.3040706E-2,-4.547091E-3,6.9771567E-3,-9.2796795E-3,-2.7370327E-3,-6.508193E-4,1.1715239E-2],"split_indices":[42,2,30,2,8,2,53,0,0,0,0,0,0,0,0],"split_type":[0,0,0,0,0,0,0,0,0,0,0,0,0,0,0],"sum_hessian":[2.732388E2,9.97979E1,1.7344089E2,6.2045055E1,3.7752842E1,1.500245E2,2.3416388E1,4.1594486E0,5.788561E1,3.1973476E1,5.7793674E0,5.053046E1,9.949405E1,1.4650903E1,8.765486E0],"tree_param":{"num_deleted":"0","num_feature":"65","num_nodes":"15","size_leaf_vector":"1"}},{"base_weights":[3.4432334E-3,7.6768273E-1,-3.1151992E-1,1.3351141E-2,-1.1322462E-1,-7.475625E-1,-1.0162677E-1,-5.920908E-3,2.8552902E-3,-1.0060391E-2,4.3905035E-4,2.550383E-3,-4.0207556E-3],"categories":[],"categories_nodes":[],"categories_segments":[],"categories_sizes":[],"default_left":[0,0,0,0,0,0,0,0,0,0,0,0,0],"id":44,"left_children":[1,3,5,-1,7,9,11,-1,-1,-1,-1,-1,-1],"loss_changes":[6.617711E1,4.025741E1,1.7743282E1,0E0,6.347555E0,1.2954712E1,1.4310791E1,0E0,0E0,0E0,0E0,0E0,0E0],"parents":[2147483647,0,0,1,1,2,2,4,4,5,5,6,6],"right_children":[2,4,6,-1,8,10,12,-1,-1,-1,-1,-1,-1],"split_conditions":[7.9958336E1,2.022E3,2.018E3,1.3351141E-2,1.7133333E2,-1.185E2,6.893063E1,-5.920908E-3,2.8552902E-3,-1.0060391E-2,4.3905035E-4,2.550383E-3,-4.0207556E-3],"split_indices":[0,2,2,0,16,8,6,0,0,0,0,0,0],"split_type":[0,0,0,0,0,0,0,0,0,0,0,0,0],"sum_hessian":[2.7293423E2,7.923582E1,1.9369841E2,4.7879135E1,3.135668E1,6.210881E1,1.315896E2,1.4026863E1,1.7329817E1,4.6614414E1,1.5494396E1,6.0235138E1,7.135446E1],"tree_param":{"num_deleted":"0","num_feature":"65","num_nodes":"13","size_leaf_vector":"1"}},{"base_weights":[3.416792E-3,7.628502E-1,-3.084902E-1,1.3298435E-2,-1.12177566E-1,-7.404166E-1,-1.00623235E-1,-5.861817E-3,2.829435E-3,-9.964888E-3,4.349476E-4,2.526428E-3,-3.97976E-3],"categories":[],"categories_nodes":[],"categories_segments":[],"categories_sizes":[],"default_left":[0,0,0,0,0,0,0,0,0,0,0,0,0],"id":45,"left_children":[1,3,5,-1,7,9,11,-1,-1,-1,-1,-1,-1],"loss_changes":[6.50515E1,3.9816494E1,1.740453E1,0E0,6.2263575E0,1.2708664E1,1.4028057E1,0E0,0E0,0E0,0E0,0E0,0E0],"parents":[2147483647,0,0,1,1,2,2,4,4,5,5,6,6],"right_children":[2,4,6,-1,8,10,12,-1,-1,-1,-1,-1,-1],"split_conditions":[7.9958336E1,2.022E3,2.018E3,1.3298435E-2,1.7133333E2,-1.185E2,6.893063E1,-5.861817E-3,2.829435E-3,-9.964888E-3,4.349476E-4,2.526428E-3,-3.97976E-3],"split_indices":[0,2,2,0,16,8,6,0,0,0,0,0,0],"split_type":[0,0,0,0,0,0,0,0,0,0,0,0,0],"sum_hessian":[2.7263306E2,7.895269E1,1.9368037E2,4.759361E1,3.1359083E1,6.2093792E1,1.3158658E2,1.40366125E1,1.732247E1,4.660021E1,1.5493584E1,6.020783E1,7.137875E1],"tree_param":{"num_deleted":"0","num_feature":"65","num_nodes":"13","size_leaf_vector":"1"}},{"base_weights":[3.3908605E-3,6.625079E-1,-3.3224913E-1,1.3029476E0,-2.5962606E-1,-7.629703E-1,-1.0653025E-1,5.360244E-3,1.3426135E-2,1.8161271E-3,-6.8261377E-3,-1.126827E-2,-3.2012179E-3,3.216256E-3,-4.204817E-3],"categories":[],"categories_nodes":[],"categories_segments":[],"categories_sizes":[],"default_left":[0,0,0,0,0,0,0,0,0,0,0,0,0,0,0],"id":46,"left_children":[1,3,5,7,9,11,13,-1,-1,-1,-1,-1,-1,-1,-1],"loss_changes":[6.068743E1,5.500001E1,1.759082E1,9.470062E-1,7.3598785E0,9.684357E0,1.6323545E1,0E0,0E0,0E0,0E0,0E0,0E0,0E0,0E0],"parents":[2147483647,0,0,1,1,2,2,3,3,4,4,5,5,6,6],"right_children":[2,4,6,8,10,12,14,-1,-1,-1,-1,-1,-1,-1,-1],"split_conditions":[4.7153845E0,2.022E3,2.018E3,1.9116718E0,9.340278E2,7.5E2,6.7027214E1,5.360244E-3,1.3426135E-2,1.8161271E-3,-6.8261377E-3,-1.126827E-2,-3.2012179E-3,3.216256E-3,-4.204817E-3],"split_indices":[22,2,2,13,20,63,6,0,0,0,0,0,0,0,0],"split_type":[0,0,0,0,0,0,0,0,0,0,0,0,0,0,0],"sum_hessian":[2.723282E2,9.1557396E1,1.8077078E2,5.378778E1,3.776962E1,6.1340145E1,1.1943064E2,3.3588758E0,5.0428905E1,1.876529E1,1.9004328E1,3.2825394E1,2.8514751E1,5.051527E1,6.891537E1],"tree_param":{"num_deleted":"0","num_feature":"65","num_nodes":"15","size_leaf_vector":"1"}},{"base_weights":[3.3624165E-3,7.538259E-1,-3.027774E-1,1.3195615E-2,-1.0879342E-1,-7.2622293E-1,-9.902847E-2,5.2230195E-3,-4.0155947E-3,-9.793757E-3,4.7507457E-4,2.4806606E-3,-3.907938E-3],"categories":[],"categories_nodes":[],"categories_segments":[],"categories_sizes":[],"default_left":[0,0,0,0,0,0,0,0,0,0,0,0,0],"id":47,"left_children":[1,3,5,-1,7,9,11,-1,-1,-1,-1,-1,-1],"loss_changes":[6.2952343E1,3.8886818E1,1.671962E1,0E0,6.190164E0,1.2399666E1,1.3521027E1,0E0,0E0,0E0,0E0,0E0,0E0],"parents":[2147483647,0,0,1,1,2,2,4,4,5,5,6,6],"right_children":[2,4,6,-1,8,10,12,-1,-1,-1,-1,-1,-1],"split_conditions":[7.9958336E1,2.022E3,2.018E3,1.3195615E-2,6E0,-1.185E2,6.893063E1,5.2230195E-3,-4.0155947E-3,-9.793757E-3,4.7507457E-4,2.4806606E-3,-3.907938E-3],"split_indices":[0,2,2,0,41,8,6,0,0,0,0,0,0],"split_type":[0,0,0,0,0,0,0,0,0,0,0,0,0],"sum_hessian":[2.720141E2,7.838956E1,1.9362454E2,4.7021503E1,3.1368052E1,6.2067383E1,1.3155716E2,9.691892E0,2.1676159E1,4.6565933E1,1.5501448E1,6.0150154E1,7.140701E1],"tree_param":{"num_deleted":"0","num_feature":"65","num_nodes":"13","size_leaf_vector":"1"}},{"base_weights":[3.3529797E-3,6.33651E-1,-3.5586658E-1,1.1835412E0,-2.5582218E-1,-4.804685E-1,4.300695E-1,-1.1791285E-3,1.2800567E-2,9.441132E-4,-7.81364E-3,-1.6126282E-3,-7.8015462E-3,9.651745E-3,-2.2815962E-3],"categories":[],"categories_nodes":[],"categories_segments":[],"categories_sizes":[],"default_left":[0,0,0,0,0,0,0,0,0,0,0,0,0,0,0],"id":48,"left_children":[1,3,5,7,9,11,13,-1,-1,-1,-1,-1,-1,-1,-1],"loss_changes":[6.1969543E1,4.8899757E1,1.7280106E1,7.8856506E0,7.2117987E0,1.4315182E1,8.809423E0,0E0,0E0,0E0,0E0,0E0,0E0,0E0,0E0],"parents":[2147483647,0,0,1,1,2,2,3,3,4,4,5,5,6,6],"right_children":[2,4,6,8,10,12,14,-1,-1,-1,-1,-1,-1,-1,-1],"split_conditions":[-2.065706E0,2.022E3,3.0666666E1,2.019E3,9.5025E2,2.320177E1,2.8411874E2,-1.1791285E-3,1.2800567E-2,9.441132E-4,-7.81364E-3,-1.6126282E-3,-7.8015462E-3,9.651745E-3,-2.2815962E-3],"split_indices":[42,2,30,2,20,45,39,0,0,0,0,0,0,0,0],"split_type":[0,0,0,0,0,0,0,0,0,0,0,0,0,0,0],"sum_hessian":[2.7170255E2,9.835745E1,1.7334508E2,6.0576954E1,3.77805E1,1.4995927E2,2.3385807E1,4.1669135E0,5.641004E1,2.3163889E1,1.461661E1,7.335962E1,7.659966E1,1.264212E1,1.0743686E1],"tree_param":{"num_deleted":"0","num_feature":"65","num_nodes":"15","size_leaf_vector":"1"}},{"base_weights":[3.341471E-3,7.451697E-1,-2.9724932E-1,1.3097104E-2,-1.0534209E-1,-7.1572655E-1,-9.598408E-2,-5.757173E-3,2.866713E-3,-9.660001E-3,4.855075E-4,2.465172E-3,-3.8367682E-3],"categories":[],"categories_nodes":[],"categories_segments":[],"categories_sizes":[],"default_left":[0,0,0,0,0,0,0,0,0,0,0,0,0],"id":49,"left_children":[1,3,5,-1,7,9,11,-1,-1,-1,-1,-1,-1],"loss_changes":[6.096002E1,3.798815E1,1.6317776E1,0E0,6.1348057E0,1.2102875E1,1.31532135E1,0E0,0E0,0E0,0E0,0E0,0E0],"parents":[2147483647,0,0,1,1,2,2,4,4,5,5,6,6],"right_children":[2,4,6,-1,8,10,12,-1,-1,-1,-1,-1,-1],"split_conditions":[7.9958336E1,2.022E3,2.018E3,1.3097104E-2,1.7133333E2,-1.185E2,6.893063E1,-5.757173E-3,2.866713E-3,-9.660001E-3,4.855075E-4,2.465172E-3,-3.8367682E-3],"split_indices":[0,2,2,0,16,8,6,0,0,0,0,0,0],"split_type":[0,0,0,0,0,0,0,0,0,0,0,0,0],"sum_hessian":[2.7138623E2,7.783015E1,1.9355609E2,4.6454994E1,3.137515E1,6.202843E1,1.3152765E2,1.404909E1,1.7326061E1,4.652817E1,1.5500259E1,6.0109623E1,7.141803E1],"tree_param":{"num_deleted":"0","num_feature":"65","num_nodes":"13","size_leaf_vector":"1"}}]},"name":"gbtree"},"learner_model_param":{"base_score":"5.8481234E-1","boost_from_average":"1","num_class":"0","num_feature":"65","num_target":"1"},"objective":{"name":"binary:logistic","reg_loss_param":{"scale_pos_weight":"1"}}},"version":[2,0,3]}