{"learner":{"attributes":{"scikit_learn":"{\"_estimator_type\": \"classifier\"}"},"feature_names":["air_temperature_yesterday_low","tasmin","rel_hum","relative_humidity","min_air_temp_snc_last_reset","TEMP_MEAN","RH","tasmax","avg_wnd_dir_10m_pst10mts","WindSpeed","pcp","avg_rel_hum_pst1hr","PRECIP_TOTAL","Wetness","CURRENT_AIR_TEMPERATURE1","snw_dpth_wtr_equiv","SnowWaterEquivalent","precipitation","WSPD_SCLR","ATMOSPHERIC_PRESSURE","MEASURED_WIND_SPEED1","air_temperature_yesterday_high","AirTemperature","max_air_temp_snc_last_reset","mean_sea_level","HUMIDITY","ONE_DAY_PRECIPITATION","dwpt_temp","SolarRadiationWm","dew_point","MIN_TEMP","WindDirection","temperature","mslp","WIND_DIRECTION_STD_DEVIATION1","RELATIVE_HUMIDITY1","MAX_TEMP","avg_wnd_spd_10m_pst10mts","pcpn_amt_pst1hr","pcpn_amt_pst24hrs","SWE","Rainmm","wind_direction","rnfl_amt_pst1hr","wind_speed","GustSpeedms","SnowDepth","Precipitation","WindSpeedms","total_precipitation","Elevation (m)","DEW_POINT","Pressurembar","SNOW_ON_THE_GROUND","snwfl_amt_pst1hr","snw_dpth","DewPtC","air_temperature","Snow_WE","Longitude","avg_air_temp_pst1hr","RelativeHumidity","Latitude","stn_pres","HEIGHT_OF_SNOW","wind_gust_speed","DayOfYear","tendency_amount","BAR_PRESS","TempC","WDIR_VECT","MEASURED_WIND_DIRECTION1","cum_pcpn_amt","air_temp","ONE_DAY_RAIN","rnfl_amt_pst24hrs","air_temp_1","SolarRadiation","MINIMUM_AIR_TEMPERATURE","STANDARD_SNOW","Month","Year"],"feature_types":["float","float","float","float","float","float","float","float","float","float","float","float","float","float","float","float","float","float","float","float","float","float","float","float","float","float","float","float","float","float","float","float","float","float","float","float","float","float","float","float","float","float","float","float","float","float","float","float","float","float","float","float","float","float","float","float","float","float","float","float","float","float","float","float","float","float","int","float","float","float","float","float","float","float","float","float","float","float","float","float","int","int"],"gradient_booster":{"model":{"gbtree_model_param":{"num_parallel_tree":"1","num_trees":"200"},"iteration_indptr":[0,1,2,3,4,5,6,7,8,9,10,11,12,13,14,15,16,17,18,19,20,21,22,23,24,25,26,27,28,29,30,31,32,33,34,35,36,37,38,39,40,41,42,43,44,45,46,47,48,49,50,51,52,53,54,55,56,57,58,59,60,61,62,63,64,65,66,67,68,69,70,71,72,73,74,75,76,77,78,79,80,81,82,83,84,85,86,87,88,89,90,91,92,93,94,95,96,97,98,99,100,101,102,103,104,105,106,107,108,109,110,111,112,113,114,115,116,117,118,119,120,121,122,123,124,125,126,127,128,129,130,131,132,133,134,135,136,137,138,139,140,141,142,143,144,145,146,147,148,149,150,151,152,153,154,155,156,157,158,159,160,161,162,163,164,165,166,167,168,169,170,171,172,173,174,175,176,177,178,179,180,181,182,183,184,185,186,187,188,189,190,191,192,193,194,195,196,197,198,199,200],"tree_info":[0,0,0,0,0,0,0,0,0,0,0,0,0,0,0,0,0,0,0,0,0,0,0,0,0,0,0,0,0,0,0,0,0,0,0,0,0,0,0,0,0,0,0,0,0,0,0,0,0,0,0,0,0,0,0,0,0,0,0,0,0,0,0,0,0,0,0,0,0,0,0,0,0,0,0,0,0,0,0,0,0,0,0,0,0,0,0,0,0,0,0,0,0,0,0,0,0,0,0,0,0,0,0,0,0,0,0,0,0,0,0,0,0,0,0,0,0,0,0,0,0,0,0,0,0,0,0,0,0,0,0,0,0,0,0,0,0,0,0,0,0,0,0,0,0,0,0,0,0,0,0,0,0,0,0,0,0,0,0,0,0,0,0,0,0,0,0,0,0,0,0,0,0,0,0,0,0,0,0,0,0,0,0,0,0,0,0,0,0,0,0,0,0,0,0,0,0,0,0,0],"trees":[{"base_weights":[9.071546E-3,5.626171E-1,-3.7113318E-1,9.932971E-1,3.7283216E-2,2.4589328E-1,-7.669987E-1,1.5984876E0,4.6858138E-1,-3.284816E-1,8.206035E-1,2.7051035E-2,1.1103091E0,-4.9008644E-1,-1.1582866E0,2.1015285E-1,8.1184125E-1,1.2159365E0,-2.8800264E-1,6.1286265E-1,-8.1232876E-1,1.4919516E-1,-1.543956E-2,8.3234173E-1,-1.8506727E-1,-1.1599641E-2,1.8187554E-1,-8.105562E-1,7.867925E-2,-1.2550157E0,-3.3242162E-2,-4.424147E-2,1.4533667E-1,6.6219354E-1,2.0875633E-1,-1.2732778E-1,3.8749188E-1,1.1628113E-1,-4.424147E-2,-9.377665E-2,-1.1678919E0,-1.664879E-2,1.9568369E-1,-5.418098E-1,3.1957483E-1,7.96129E-2,-1.0747341E0,-3.126788E-1,9.012776E-2,-7.094088E-2,-1.3316984E0,1.1040952E-1,-2.0248953E-2,-6.823399E-2,1.0685511E-1,5.1728588E-2,-6.823399E-2,-1.3659048E-1,-4.424147E-2,4.1924056E-2,-9.347179E-1,8.3234173E-1,-3.9806407E-2,-4.424147E-2,5.332793E-2,-4.3230914E-3,-1.2495412E0,5.667306E-2,-9.475425E-1,-1.4011979E-1,-6.823399E-2,-4.4935234E-3,-1.2829737E-1,-2.0248953E-2,1.462275E-1,-5.946095E-2,-1.3703337E-1,-1.19812265E-1,-4.424147E-2],"categories":[],"categories_nodes":[],"categories_segments":[],"categories_sizes":[],"default_left":[0,0,0,0,0,0,0,0,0,0,0,0,0,0,0,0,0,0,0,0,0,0,0,0,0,0,0,0,0,0,0,0,0,0,0,0,0,0,0,0,0,0,0,0,0,0,0,0,0,0,0,0,0,0,0,0,0,0,0,0,0,0,0,0,0,0,0,0,0,0,0,0,0,0,0,0,0,0,0],"id":0,"left_children":[1,3,5,7,9,11,13,15,17,19,21,23,25,27,29,-1,31,33,35,37,39,-1,-1,41,43,-1,-1,45,47,49,-1,-1,-1,51,-1,-1,53,-1,-1,55,57,-1,-1,59,61,63,65,67,-1,-1,69,-1,-1,-1,-1,-1,-1,-1,-1,-1,71,73,-1,-1,-1,-1,75,-1,77,-1,-1,-1,-1,-1,-1,-1,-1,-1,-1],"loss_changes":[4.461409E1,1.9490406E1,3.088766E1,1.4299206E1,1.1707283E1,9.405271E0,7.7543335E0,6.838089E0,1.5501809E1,1.321799E1,8.735111E0,7.127787E0,8.94328E0,8.57757E0,2.0668907E0,0E0,8.730669E0,5.2164555E0,9.893874E0,6.3477197E0,4.7132196E0,0E0,0E0,1.0090296E1,6.137856E0,0E0,0E0,7.1320496E0,5.9944563E0,2.0480347E-1,0E0,0E0,0E0,3.9777675E0,0E0,0E0,7.3932085E0,0E0,0E0,2.991325E0,1.1971874E0,0E0,0E0,7.861461E0,5.6121235E0,2.0804527E0,4.124899E0,7.664735E0,0E0,0E0,7.9624176E-2,0E0,0E0,0E0,0E0,0E0,0E0,0E0,0E0,0E0,4.3892326E0,5.963253E0,0E0,0E0,0E0,0E0,7.5011826E-1,0E0,4.557619E-1,0E0,0E0,0E0,0E0,0E0,0E0,0E0,0E0,0E0,0E0],"parents":[2147483647,0,0,1,1,2,2,3,3,4,4,5,5,6,6,7,7,8,8,9,9,10,10,11,11,12,12,13,13,14,14,16,16,17,17,18,18,19,19,20,20,23,23,24,24,27,27,28,28,29,29,33,33,36,36,39,39,40,40,43,43,44,44,45,45,46,46,47,47,50,50,60,60,61,61,66,66,68,68],"right_children":[2,4,6,8,10,12,14,16,18,20,22,24,26,28,30,-1,32,34,36,38,40,-1,-1,42,44,-1,-1,46,48,50,-1,-1,-1,52,-1,-1,54,-1,-1,56,58,-1,-1,60,62,64,66,68,-1,-1,70,-1,-1,-1,-1,-1,-1,-1,-1,-1,72,74,-1,-1,-1,-1,76,-1,78,-1,-1,-1,-1,-1,-1,-1,-1,-1,-1],"split_conditions":[1.3253012E-2,6.1864655E1,6.543661E1,6.3039093E0,-1.2661909E0,3.1461538E1,6.7257867E0,7.04E2,1.0124167E3,3.2898335E1,6.888158E0,6.5626264E-1,7.905028E0,1.075E1,4.9365772E1,2.1015285E-1,1.8751933E2,1.8834782E2,2.0618519E1,3.9E-1,1.6666668E-2,1.4919516E-1,-1.543956E-2,3.8530517E-1,6.552571E0,-1.1599641E-2,1.8187554E-1,1.9384375E2,1.4775952E1,2.8673836E-5,-3.3242162E-2,-4.424147E-2,1.4533667E-1,3.829427E0,2.0875633E-1,-1.2732778E-1,1.8202174E2,1.1628113E-1,-4.424147E-2,1.3845872E1,4.581818E0,-1.664879E-2,1.9568369E-1,1.168179E1,7.7135234E0,7.1789317E0,3.9120173E0,5.75E2,9.012776E-2,-7.094088E-2,1.88275E2,1.1040952E-1,-2.0248953E-2,-6.823399E-2,1.0685511E-1,5.1728588E-2,-6.823399E-2,-1.3659048E-1,-4.424147E-2,4.1924056E-2,3.81225E1,4.659091E0,-3.9806407E-2,-4.424147E-2,5.332793E-2,-4.3230914E-3,1.476718E2,5.667306E-2,5.487597E1,-1.4011979E-1,-6.823399E-2,-4.4935234E-3,-1.2829737E-1,-2.0248953E-2,1.462275E-1,-5.946095E-2,-1.3703337E-1,-1.19812265E-1,-4.424147E-2],"split_indices":[1,25,6,29,16,36,29,50,33,34,15,48,1,30,34,0,31,42,57,49,26,0,0,48,29,0,0,70,0,46,0,0,0,58,0,0,42,0,0,0,26,0,0,76,29,9,69,50,0,0,15,0,0,0,0,0,0,0,0,0,35,15,0,0,0,0,71,0,11,0,0,0,0,0,0,0,0,0,0],"split_type":[0,0,0,0,0,0,0,0,0,0,0,0,0,0,0,0,0,0,0,0,0,0,0,0,0,0,0,0,0,0,0,0,0,0,0,0,0,0,0,0,0,0,0,0,0,0,0,0,0,0,0,0,0,0,0,0,0,0,0,0,0,0,0,0,0,0,0,0,0,0,0,0,0,0,0,0,0,0,0],"sum_hessian":[2.0999094E2,8.530882E1,1.2468212E2,4.6388084E1,3.8920734E1,4.88772E1,7.580492E1,2.0591784E1,2.57963E1,2.6927717E1,1.1993017E1,3.9825867E1,9.051333E0,4.5709236E1,3.0095684E1,1.154045E1,9.051333E0,1.2671867E1,1.31244335E1,9.051333E0,1.7876385E1,6.7885003E0,5.204517E0,7.6936336E0,3.2132233E1,3.6205335E0,5.4308004E0,2.8964268E1,1.6744967E1,2.6475151E1,3.6205335E0,3.1679668E0,5.883367E0,8.82505E0,3.8468168E0,4.9782333E0,8.1462E0,5.883367E0,3.1679668E0,6.3359337E0,1.154045E1,4.5256667E0,3.1679668E0,1.8781517E1,1.3350718E1,6.7885003E0,2.2175768E1,1.1766734E1,4.9782333E0,4.5256667E0,2.1949484E1,5.6570835E0,3.1679668E0,3.1679668E0,4.9782333E0,3.1679668E0,3.1679668E0,8.372483E0,3.1679668E0,5.4308004E0,1.3350718E1,7.6936336E0,5.6570835E0,3.1679668E0,3.6205335E0,3.3942502E0,1.8781517E1,4.9782333E0,6.7885003E0,1.8781517E1,3.1679668E0,4.0731E0,9.277617E0,3.1679668E0,4.5256667E0,3.8468168E0,1.4934701E1,3.6205335E0,3.1679668E0],"tree_param":{"num_deleted":"0","num_feature":"82","num_nodes":"79","size_leaf_vector":"1"}},{"base_weights":[-3.2098026E-3,4.503141E-1,-3.2048127E-1,1.7167842E0,2.8692955E-1,2.8598884E-1,-7.570023E-1,9.271948E-2,2.0481539E-1,-1.0465931E-1,7.752073E-1,6.8534327E-1,-3.2804203E-1,-9.066778E-1,1.03407025E-1,9.1914736E-2,-2.8282577E-1,-2.9405776E-1,1.1215782E0,1.0234491E0,-5.3606075E-1,3.7789223E-1,-7.4851847E-1,3.4435667E-2,-9.9085486E-1,6.830166E-1,-9.3881294E-2,-5.5724002E-2,-1.0976781E-1,-1.19261466E-1,4.9544353E-2,-6.2215835E-2,1.4530183E0,1.5068235E0,2.0890191E-2,-1.1639259E-1,2.4003379E-2,-1.698658E-2,1.0340186E-1,-9.937163E-1,4.8914957E-3,-1.051052E0,-1.7775123E-3,-4.303048E-2,1.5002604E-1,4.9152023E-1,-4.5949224E-1,1.8011901E0,3.4178074E-2,1.8935312E0,6.761875E-2,-6.3191175E-2,9.501696E-2,-1.3070881E-1,-2.083946E-2,-3.9493135E-1,-1.1495333E0,-3.071389E-2,1.00190856E-1,-7.247345E-2,3.7962586E-2,2.0735054E-1,4.9083095E-2,2.1671017E-1,9.3641624E-2,-1.2086318E-1,6.6697665E-2,-1.2180366E-1,-1.388209E-2],"categories":[],"categories_nodes":[],"categories_segments":[],"categories_sizes":[],"default_left":[0,0,0,0,0,0,0,0,0,0,0,0,0,0,0,0,0,0,0,0,0,0,0,0,0,0,0,0,0,0,0,0,0,0,0,0,0,0,0,0,0,0,0,0,0,0,0,0,0,0,0,0,0,0,0,0,0,0,0,0,0,0,0,0,0,0,0,0,0],"id":1,"left_children":[1,3,5,7,9,11,13,-1,-1,15,17,19,21,23,25,-1,27,29,31,33,35,37,39,-1,41,43,-1,45,-1,-1,-1,-1,47,49,51,-1,-1,-1,-1,53,-1,55,-1,-1,-1,57,59,61,-1,63,-1,-1,-1,-1,-1,65,67,-1,-1,-1,-1,-1,-1,-1,-1,-1,-1,-1,-1],"loss_changes":[2.9895807E1,1.7204086E1,3.257837E1,6.0538864E-1,1.4794628E1,1.2948426E1,9.282917E0,0E0,0E0,8.210223E0,1.3057941E1,1.3665729E1,6.5530787E0,6.7527313E0,7.5706244E0,0E0,6.9504004E0,7.1181417E0,1.6026348E1,1.2190754E1,3.954775E0,3.2484589E0,2.7027473E0,0E0,3.337925E0,7.8792276E0,0E0,7.005884E0,0E0,0E0,0E0,0E0,8.007057E0,4.180992E0,6.1926017E0,0E0,0E0,0E0,0E0,2.294114E0,0E0,3.0318527E0,0E0,0E0,0E0,5.8150663E0,4.3200407E0,4.9539566E0,0E0,8.629112E-1,0E0,0E0,0E0,0E0,0E0,8.20598E0,3.0423622E0,0E0,0E0,0E0,0E0,0E0,0E0,0E0,0E0,0E0,0E0,0E0,0E0],"parents":[2147483647,0,0,1,1,2,2,3,3,4,4,5,5,6,6,9,9,10,10,11,11,12,12,13,13,14,14,16,16,17,17,18,18,19,19,20,20,21,21,22,22,24,24,25,25,27,27,32,32,33,33,34,34,39,39,41,41,45,45,46,46,47,47,49,49,55,55,56,56],"right_children":[2,4,6,8,10,12,14,-1,-1,16,18,20,22,24,26,-1,28,30,32,34,36,38,40,-1,42,44,-1,46,-1,-1,-1,-1,48,50,52,-1,-1,-1,-1,54,-1,56,-1,-1,-1,58,60,62,-1,64,-1,-1,-1,-1,-1,66,68,-1,-1,-1,-1,-1,-1,-1,-1,-1,-1,-1,-1],"split_conditions":[6.543661E1,8.615341E0,1.3253012E-2,7.0609375E2,2.0782291E1,2.4375E-1,2.885E1,9.271948E-2,2.0481539E-1,5.541667E-1,1.4643263E1,9.329079E0,6.3686394E1,7.990292E2,1.0142824E3,9.1914736E-2,6.3375E1,4.5292206E0,4.66875E1,4.4270832E-2,7.227083E0,1.34509325E1,1.0154717E2,3.4435667E-2,5.183491E1,1.8207777E1,-9.3881294E-2,1.7420355E1,-1.0976781E-1,-1.19261466E-1,4.9544353E-2,-6.2215835E-2,9.109196E0,3.4746048E1,1.9438148E2,-1.1639259E-1,2.4003379E-2,-1.698658E-2,1.0340186E-1,8.521414E1,4.8914957E-3,2.8852174E0,-1.7775123E-3,-4.303048E-2,1.5002604E-1,1.6298153E1,5.9311237E1,1.1580612E1,3.4178074E-2,1.01817413E3,6.761875E-2,-6.3191175E-2,9.501696E-2,-1.3070881E-1,-2.083946E-2,1.2626175E1,2.63136E2,-3.071389E-2,1.00190856E-1,-7.247345E-2,3.7962586E-2,2.0735054E-1,4.9083095E-2,2.1671017E-1,9.3641624E-2,-1.2086318E-1,6.6697665E-2,-1.2180366E-1,-1.388209E-2],"split_indices":[6,32,1,15,5,49,36,0,0,15,69,29,35,19,68,0,3,15,6,41,37,22,24,0,34,32,0,32,0,0,0,0,15,13,31,0,0,0,0,6,0,1,0,0,0,60,35,55,0,33,0,0,0,0,0,60,71,0,0,0,0,0,0,0,0,0,0,0,0],"split_type":[0,0,0,0,0,0,0,0,0,0,0,0,0,0,0,0,0,0,0,0,0,0,0,0,0,0,0,0,0,0,0,0,0,0,0,0,0,0,0,0,0,0,0,0,0,0,0,0,0,0,0,0,0,0,0,0,0,0,0,0,0,0,0,0,0,0,0,0,0],"sum_hessian":[2.0576523E2,8.452359E1,1.2124163E2,8.5718155E0,7.5951775E1,5.0887344E1,7.035429E1,3.6566937E0,4.9151216E0,4.258507E1,3.3366707E1,3.0763311E1,2.0124033E1,5.9883305E1,1.04709835E1,5.695843E0,3.6889225E1,8.200958E0,2.5165749E1,2.422068E1,6.542632E0,7.5498805E0,1.2574152E1,3.580423E0,5.630288E1,6.9503427E0,3.5206406E0,2.9684464E1,7.204763E0,3.596768E0,4.6041903E0,3.879293E0,2.1286455E1,1.6002327E1,8.218352E0,3.3404593E0,3.202173E0,4.518654E0,3.031227E0,9.428804E0,3.145347E0,5.29473E1,3.3555808E0,3.1426356E0,3.807707E0,1.2510762E1,1.71737E1,1.5735376E1,5.5510793E0,1.004582E1,5.9565077E0,5.015237E0,3.2031152E0,6.2646027E0,3.1642022E0,7.563899E0,4.53834E1,5.0331225E0,7.47764E0,1.3152542E1,4.0211587E0,1.2545756E1,3.1896203E0,6.829542E0,3.2162778E0,4.204204E0,3.359695E0,4.2310577E1,3.072823E0],"tree_param":{"num_deleted":"0","num_feature":"82","num_nodes":"69","size_leaf_vector":"1"}},{"base_weights":[-6.656828E-2,2.9963514E-1,-3.2799748E-1,7.392835E-1,-7.4353546E-2,-4.397141E-1,7.0208377E-1,9.3745315E-1,-5.9000384E-2,5.168222E-1,-4.0335566E-1,-6.758366E-1,-2.5794107E-2,-2.3635644E-2,1.1954106E0,6.5097976E-1,1.8308136E-1,1.1213177E0,-1.6982396E-1,-6.163762E-1,7.5980134E-2,1.150662E-1,-7.8953356E-1,-3.8902843E-1,6.880767E-1,1.6299114E-1,5.1308274E-2,1.1372982E0,1.8318823E-1,1.6366167E-1,1.6637383E-2,-9.3542285E-2,3.687408E-2,-8.233536E-1,3.1568687E-2,9.473791E-2,-7.960116E-2,-8.8439184E-1,2.0145794E-2,2.4821861E-1,-8.610582E-1,-5.1119965E-2,1.3228412E0,2.0602118E-2,1.7265552E-1,5.2759385E-1,-9.3311734E-2,-9.671951E-1,3.123572E-3,-1.1075261E0,-5.5549514E-1,1.1620617E-1,-5.2238566E-1,-3.3421651E-3,-1.0770432E0,2.892364E-2,1.788444E-1,1.10179245E-1,-7.582179E-3,-1.2811843E-1,-5.1371366E-2,-1.2282679E-1,-3.0690698E-2,-7.928648E-2,3.9318938E-2,1.6015815E-2,-1.1302965E-1,-1.3250782E-1,-4.985557E-2],"categories":[],"categories_nodes":[],"categories_segments":[],"categories_sizes":[],"default_left":[0,0,0,0,0,0,0,0,0,0,0,0,0,0,0,0,0,0,0,0,0,0,0,0,0,0,0,0,0,0,0,0,0,0,0,0,0,0,0,0,0,0,0,0,0,0,0,0,0,0,0,0,0,0,0,0,0,0,0,0,0,0,0,0,0,0,0,0,0],"id":2,"left_children":[1,3,5,7,9,11,13,15,-1,17,19,21,23,-1,25,27,-1,29,31,33,-1,35,37,39,41,-1,-1,43,45,-1,-1,-1,-1,47,-1,-1,-1,49,-1,51,53,-1,55,-1,-1,57,-1,59,-1,61,63,-1,65,-1,67,-1,-1,-1,-1,-1,-1,-1,-1,-1,-1,-1,-1,-1,-1],"loss_changes":[1.9745083E1,1.4195799E1,1.4142778E1,1.0990631E1,9.423784E0,1.0642437E1,5.906237E0,7.731781E0,0E0,7.4038777E0,8.149722E0,6.332453E0,1.0810342E1,0E0,1.5731316E0,6.150997E0,0E0,4.340357E0,4.0578876E0,5.4213295E0,0E0,8.031408E0,5.8948708E0,8.511437E0,1.1388876E1,0E0,0E0,7.0599403E0,6.4284883E0,0E0,0E0,0E0,0E0,2.7554922E0,0E0,0E0,0E0,3.4715042E0,0E0,9.42002E0,2.8367777E0,0E0,4.0452385E0,0E0,0E0,4.393255E0,0E0,2.0482788E0,0E0,2.732994E0,5.832271E0,0E0,3.2843857E0,0E0,1.163476E0,0E0,0E0,0E0,0E0,0E0,0E0,0E0,0E0,0E0,0E0,0E0,0E0,0E0,0E0],"parents":[2147483647,0,0,1,1,2,2,3,3,4,4,5,5,6,6,7,7,9,9,10,10,11,11,12,12,14,14,15,15,17,17,18,18,19,19,21,21,22,22,23,23,24,24,27,27,28,28,33,33,37,37,39,39,40,40,42,42,45,45,47,47,49,49,50,50,52,52,54,54],"right_children":[2,4,6,8,10,12,14,16,-1,18,20,22,24,-1,26,28,-1,30,32,34,-1,36,38,40,42,-1,-1,44,46,-1,-1,-1,-1,48,-1,-1,-1,50,-1,52,54,-1,56,-1,-1,58,-1,60,-1,62,64,-1,66,-1,68,-1,-1,-1,-1,-1,-1,-1,-1,-1,-1,-1,-1,-1,-1],"split_conditions":[1.3253012E-2,2E-2,1.4941176E1,1.2041667E1,3.340871E1,2.0671186E1,-1.199E2,3.1498287E-2,-5.9000384E-2,4.319157E0,2.4797752E2,1.7842424E1,5.7261124E1,-2.3635644E-2,4.2091837E0,3.4166667E0,1.8308136E-1,8.076087E0,1.5620095E1,7.858714E0,7.5980134E-2,3.3388317E1,5.0523335E1,1.0160529E2,2.7856662E0,1.6299114E-1,5.1308274E-2,6.757706E-1,3.628537E1,1.6366167E-1,1.6637383E-2,-9.3542285E-2,3.687408E-2,2.4251138E2,3.1568687E-2,9.473791E-2,-7.960116E-2,1.6888622E1,2.0145794E-2,2.7114458E1,1.87E2,-5.1119965E-2,9.2121716E2,2.0602118E-2,1.7265552E-1,1.01216565E3,-9.3311734E-2,1.7830754E2,3.123572E-3,1.01855E2,6.2572584E0,1.1620617E-1,1.01256494E3,-3.3421651E-3,5.5998334E2,2.892364E-2,1.788444E-1,1.10179245E-1,-7.582179E-3,-1.2811843E-1,-5.1371366E-2,-1.2282679E-1,-3.0690698E-2,-7.928648E-2,3.9318938E-2,1.6015815E-2,-1.1302965E-1,-1.3250782E-1,-4.985557E-2],"split_indices":[1,26,30,51,34,7,59,67,0,45,28,21,35,0,55,51,0,51,13,9,0,13,34,24,45,0,0,64,13,0,0,0,0,31,0,0,0,7,0,21,66,0,19,0,0,33,0,71,0,24,45,0,68,0,38,0,0,0,0,0,0,0,0,0,0,0,0,0,0],"split_type":[0,0,0,0,0,0,0,0,0,0,0,0,0,0,0,0,0,0,0,0,0,0,0,0,0,0,0,0,0,0,0,0,0,0,0,0,0,0,0,0,0,0,0,0,0,0,0,0,0,0,0,0,0,0,0,0,0,0,0,0,0,0,0,0,0,0,0,0,0],"sum_hessian":[2.0421799E2,8.5002495E1,1.1921549E2,3.8622475E1,4.638002E1,1.0806817E2,1.1147318E1,3.3868187E1,4.754286E0,1.6378687E1,3.0001335E1,6.8410385E1,3.9657787E1,4.0203757E0,7.1269426E0,2.695366E1,6.914529E0,8.373744E0,8.004942E0,2.5754702E1,4.2466335E0,8.596817E0,5.9813564E1,2.65855E1,1.3072288E1,3.5057554E0,3.621187E0,1.2513428E1,1.4440231E1,4.975221E0,3.3985226E0,3.0014036E0,5.0035386E0,2.1170202E1,4.584499E0,4.4717846E0,4.1250324E0,5.468651E1,5.1270585E0,1.1514672E1,1.5070828E1,4.5917125E0,8.480575E0,5.3723903E0,7.1410375E0,1.1438553E1,3.0016785E0,1.8007479E1,3.162723E0,3.1171412E1,2.3515095E1,5.0353594E0,6.479313E0,3.357998E0,1.1712831E1,3.1372702E0,5.3433046E0,5.437965E0,6.000588E0,9.561741E0,8.445739E0,2.6622334E1,4.549079E0,1.8940306E1,4.57479E0,3.3992648E0,3.080048E0,7.2945814E0,4.4182496E0],"tree_param":{"num_deleted":"0","num_feature":"82","num_nodes":"69","size_leaf_vector":"1"}},{"base_weights":[-1.4158736E-2,1.6077746E-1,-5.5891E-1,1.1517215E0,7.3201805E-2,4.9679548E-1,-7.160228E-1,1.0315165E-2,1.5057905E0,-1.0305872E-1,6.192022E-1,1.0392759E-1,-1.4363855E-2,4.2290125E-2,-8.15094E-1,1.9599454E-1,6.739049E-2,-3.1485823E-1,4.6850628E-1,9.992692E-1,-1.5872227E-1,-4.8370716E-1,-1.0722673E0,-9.639699E-2,-7.013229E-1,7.073417E-1,-7.450967E-2,5.586247E-1,1.6144006E0,-8.247581E-2,4.7209325E-1,9.6342735E-2,-1.0186198E0,-1.1971424E0,-4.1688275E-2,2.9610485E-1,-5.015383E-1,-1.1914953E0,-3.0072817E-1,-3.6008526E-2,1.0164424E0,1.0634135E0,-2.8396426E-2,2.0560436E-1,5.9363533E-2,4.6305144E-3,7.923874E-2,1.01436816E-1,-5.1976066E-2,-1.24508575E-1,-3.7426516E-2,-1.2779653E-1,-6.0881466E-2,1.11559354E-1,6.391752E-3,1.1801111E-2,-8.654564E-2,-1.3094567E-1,-6.289027E-2,-9.3655266E-2,2.2428034E-2,1.2417569E-1,-1.8212264E-2,1.14685735E-2,1.510735E-1],"categories":[],"categories_nodes":[],"categories_segments":[],"categories_sizes":[],"default_left":[0,0,0,0,0,0,0,0,0,0,0,0,0,0,0,0,0,0,0,0,0,0,0,0,0,0,0,0,0,0,0,0,0,0,0,0,0,0,0,0,0,0,0,0,0,0,0,0,0,0,0,0,0,0,0,0,0,0,0,0,0,0,0,0,0],"id":3,"left_children":[1,3,5,7,9,11,13,-1,15,17,19,-1,-1,-1,21,-1,-1,23,25,27,29,31,33,35,37,39,-1,41,43,-1,45,47,49,51,-1,53,55,57,59,-1,61,63,-1,-1,-1,-1,-1,-1,-1,-1,-1,-1,-1,-1,-1,-1,-1,-1,-1,-1,-1,-1,-1,-1,-1],"loss_changes":[1.9938475E1,1.3664755E1,8.790122E0,4.595665E0,1.4175666E1,2.6430147E0,5.385391E0,0E0,2.265644E0,1.3670459E1,1.07810135E1,0E0,0E0,0E0,3.0130024E0,0E0,0E0,6.864127E0,9.397753E0,5.677355E0,5.706196E0,6.2816677E0,1.3432369E0,8.673777E0,5.4325514E0,8.972504E0,0E0,6.9673862E0,3.1079216E0,0E0,9.3638563E-1,6.4517384E0,1.059557E0,9.5638275E-2,0E0,5.2296395E0,6.133855E0,3.4238815E-2,6.073797E0,0E0,5.759308E0,4.075186E0,0E0,0E0,0E0,0E0,0E0,0E0,0E0,0E0,0E0,0E0,0E0,0E0,0E0,0E0,0E0,0E0,0E0,0E0,0E0,0E0,0E0,0E0,0E0],"parents":[2147483647,0,0,1,1,2,2,3,3,4,4,5,5,6,6,8,8,9,9,10,10,14,14,17,17,18,18,19,19,20,20,21,21,22,22,23,23,24,24,25,25,27,27,28,28,30,30,31,31,32,32,33,33,35,35,36,36,37,37,38,38,40,40,41,41],"right_children":[2,4,6,8,10,12,14,-1,16,18,20,-1,-1,-1,22,-1,-1,24,26,28,30,32,34,36,38,40,-1,42,44,-1,46,48,50,52,-1,54,56,58,60,-1,62,64,-1,-1,-1,-1,-1,-1,-1,-1,-1,-1,-1,-1,-1,-1,-1,-1,-1,-1,-1,-1,-1,-1,-1],"split_conditions":[6.9833336E1,1.29E2,5.194394E1,1.4E1,2.0433436E-1,1.385E1,7.928571E0,1.0315165E-2,1.614564E1,1.52E1,9.494302E0,1.0392759E-1,-1.4363855E-2,4.2290125E-2,6.32E2,1.9599454E-1,6.739049E-2,6.962927E0,6.3306274E0,7.9389668E0,1.634066E1,8.927341E2,9.767391E1,2.0604706E1,2.1539188E2,9.625E0,-7.450967E-2,6.509002E1,2.5716617E2,-8.247581E-2,1.0972269E1,6.909272E1,8.1875E0,3.1145832E-1,-4.1688275E-2,3.902439E0,4.095938E0,6.2478046E0,8.802695E2,-3.6008526E-2,1.7E0,1.5767202E1,-2.8396426E-2,2.0560436E-1,5.9363533E-2,4.6305144E-3,7.923874E-2,1.01436816E-1,-5.1976066E-2,-1.24508575E-1,-3.7426516E-2,-1.2779653E-1,-6.0881466E-2,1.11559354E-1,6.391752E-3,1.1801111E-2,-8.654564E-2,-1.3094567E-1,-6.289027E-2,-9.3655266E-2,2.2428034E-2,1.2417569E-1,-1.8212264E-2,1.14685735E-2,1.510735E-1],"split_indices":[3,66,25,40,39,7,5,0,5,0,29,0,0,0,50,0,0,29,64,29,0,52,15,13,28,30,0,25,77,0,29,35,29,17,0,40,15,20,52,0,26,13,0,0,0,0,0,0,0,0,0,0,0,0,0,0,0,0,0,0,0,0,0,0,0],"split_type":[0,0,0,0,0,0,0,0,0,0,0,0,0,0,0,0,0,0,0,0,0,0,0,0,0,0,0,0,0,0,0,0,0,0,0,0,0,0,0,0,0,0,0,0,0,0,0,0,0,0,0,0,0,0,0,0,0,0,0,0,0,0,0,0,0],"sum_hessian":[2.0728224E2,1.5743117E2,4.9851074E1,1.1796719E1,1.4563446E2,6.177808E0,4.3673267E1,3.3038256E0,8.492892E0,1.107071E2,3.4927357E1,3.0075183E0,3.1702898E0,3.2333984E0,4.043987E1,4.6165385E0,3.876354E0,8.110274E1,2.9604357E1,2.3272623E1,1.1654734E1,1.8929134E1,2.1510733E1,5.261174E1,2.8491E1,2.5084848E1,4.519508E0,1.467118E1,8.601444E0,5.5195565E0,6.135177E0,9.47476E0,9.454375E0,1.7373762E1,4.1369705E0,2.6859411E1,2.575233E1,1.192505E1,1.6565948E1,5.5957904E0,1.9489058E1,9.0107975E0,5.660382E0,5.295907E0,3.3055375E0,3.125206E0,3.0099711E0,3.5454435E0,5.9293165E0,6.3058214E0,3.1485536E0,1.4244665E1,3.129096E0,5.089979E0,2.1769432E1,9.779324E0,1.5973006E1,8.760631E0,3.16442E0,7.1377363E0,9.428212E0,1.6374777E1,3.1142807E0,3.289806E0,5.720992E0],"tree_param":{"num_deleted":"0","num_feature":"82","num_nodes":"65","size_leaf_vector":"1"}},{"base_weights":[-4.161771E-2,-2.1946974E-1,4.7500956E-1,8.664558E-1,-3.0339575E-1,2.6926799E-2,8.958019E-1,1.4039731E-1,1.8730786E-3,2.975307E-1,-4.7575113E-1,-5.246667E-1,6.327444E-1,1.3677667E0,3.339633E-1,5.6968857E-2,1.6214962E-1,3.8253067E-3,-5.908999E-1,-9.684134E-1,3.668657E-2,1.403961E-1,-3.0847264E-2,1.746166E-1,6.610564E-2,-5.3041425E-2,8.0761313E-1,5.6286085E-1,-4.0655738E-1,7.6560956E-1,-3.2729656E-1,-1.4536777E-1,-7.0870346E-1,-4.2261012E-2,-1.2623915E-1,-2.9592847E-2,1.501413E-1,1.20220065E-1,1.200286E-1,-7.2966325E-1,5.7554808E-2,9.817476E-2,3.602661E-2,2.0712204E-1,-8.379344E-1,1.05349675E-1,-4.214765E-1,-8.227627E-1,-2.0195007E-2,6.1001208E-2,-6.602525E-2,-6.0784942E-3,-9.9878184E-2,-5.1948782E-2,8.207316E-2,-1.1900332E-1,-1.5458313E-2,-7.2122015E-2,5.5253126E-2,-4.3539274E-2,-1.02234356E-1,5.367151E-2,-7.838633E-2],"categories":[],"categories_nodes":[],"categories_segments":[],"categories_sizes":[],"default_left":[0,0,0,0,0,0,0,0,0,0,0,0,0,0,0,0,0,0,0,0,0,0,0,0,0,0,0,0,0,0,0,0,0,0,0,0,0,0,0,0,0,0,0,0,0,0,0,0,0,0,0,0,0,0,0,0,0,0,0,0,0,0,0],"id":4,"left_children":[1,3,5,7,9,11,13,-1,-1,15,17,19,21,23,25,27,-1,29,31,33,-1,-1,-1,-1,-1,-1,35,37,39,41,43,45,47,-1,-1,-1,-1,-1,49,51,-1,-1,-1,53,55,-1,57,59,61,-1,-1,-1,-1,-1,-1,-1,-1,-1,-1,-1,-1,-1,-1],"loss_changes":[1.874554E1,1.4080019E1,9.83184E0,5.0479193E0,1.4794217E1,9.135995E0,6.6831665E0,0E0,0E0,1.0146517E1,6.094658E0,6.027202E0,9.876308E0,2.6725655E0,6.002805E0,6.851199E0,0E0,5.889284E0,4.566599E0,1.046526E0,0E0,0E0,0E0,0E0,0E0,0E0,7.48226E0,3.7975311E0,5.280803E0,2.6590633E-1,4.6168203E0,7.01911E0,5.488926E0,0E0,0E0,0E0,0E0,0E0,3.9723058E0,2.09347E0,0E0,0E0,0E0,4.3309574E0,1.8670835E0,0E0,5.320588E0,4.2027206E0,5.0941024E0,0E0,0E0,0E0,0E0,0E0,0E0,0E0,0E0,0E0,0E0,0E0,0E0,0E0,0E0],"parents":[2147483647,0,0,1,1,2,2,3,3,4,4,5,5,6,6,9,9,10,10,11,11,12,12,13,13,14,14,15,15,17,17,18,18,19,19,26,26,27,27,28,28,29,29,30,30,31,31,32,32,38,38,39,39,43,43,44,44,46,46,47,47,48,48],"right_children":[2,4,6,8,10,12,14,-1,-1,16,18,20,22,24,26,28,-1,30,32,34,-1,-1,-1,-1,-1,-1,36,38,40,42,44,46,48,-1,-1,-1,-1,-1,50,52,-1,-1,-1,54,56,-1,58,60,62,-1,-1,-1,-1,-1,-1,-1,-1,-1,-1,-1,-1,-1,-1],"split_conditions":[2.0079166E1,7.505449E0,6.289308E-4,3.0181434E0,1.2675325E0,1.7841667E2,7.480392E-2,1.4039731E-1,1.8730786E-3,2.4564375E2,5.5401043E1,6.5416665E0,5.01E1,2.1966667E1,6.7625E0,2E-2,1.6214962E-1,2.39E1,1.14619885E-4,1.7120103E2,3.668657E-2,1.403961E-1,-3.0847264E-2,1.746166E-1,6.610564E-2,-5.3041425E-2,3.0675E1,8.335374E0,3.4782607E-2,5.333102E1,5.077381E0,4.771035E1,2.2966635E2,-4.2261012E-2,-1.2623915E-1,-2.9592847E-2,1.501413E-1,1.20220065E-1,5.9311237E1,-1.1757576E-1,5.7554808E-2,9.817476E-2,3.602661E-2,1.8144896E1,-2.3101851E-2,1.05349675E-1,1.1544944E1,8.170309E0,6E-2,6.1001208E-2,-6.602525E-2,-6.0784942E-3,-9.9878184E-2,-5.1948782E-2,8.207316E-2,-1.1900332E-1,-1.5458313E-2,-7.2122015E-2,5.5253126E-2,-4.3539274E-2,-1.02234356E-1,5.367151E-2,-7.838633E-2],"split_indices":[32,5,41,0,75,42,41,0,0,31,61,44,62,32,44,26,0,36,46,71,0,0,0,0,0,0,36,0,43,11,55,11,70,0,0,0,0,0,35,58,0,0,0,14,67,0,30,69,17,0,0,0,0,0,0,0,0,0,0,0,0,0,0],"split_type":[0,0,0,0,0,0,0,0,0,0,0,0,0,0,0,0,0,0,0,0,0,0,0,0,0,0,0,0,0,0,0,0,0,0,0,0,0,0,0,0,0,0,0,0,0,0,0,0,0,0,0,0,0,0,0,0,0,0,0,0,0,0,0],"sum_hessian":[2.0188026E2,1.506078E2,5.127245E1,1.0135801E1,1.40472E2,2.5346306E1,2.5926146E1,5.8012404E0,4.3345604E0,3.1147673E1,1.0932433E2,1.3336997E1,1.200931E1,1.3310443E1,1.2615703E1,2.7241056E1,3.9066164E0,2.1354212E1,8.797012E1,8.847202E0,4.4897943E0,6.330536E0,5.6787734E0,7.7109003E0,5.599542E0,4.423423E0,8.19228E0,1.2922812E1,1.4318244E1,6.0722127E0,1.5281999E1,1.8863289E1,6.9106834E1,3.9503994E0,4.896803E0,3.3837054E0,4.808574E0,4.586396E0,8.336416E0,1.0967165E1,3.3510792E0,3.0329585E0,3.0392542E0,7.7575545E0,7.524444E0,3.0040758E0,1.5859214E1,5.9118233E1,9.988598E0,5.254824E0,3.0815923E0,3.498275E0,7.4688897E0,3.6219678E0,4.135587E0,4.476465E0,3.0479789E0,1.2325627E1,3.5335863E0,2.1183786E1,3.793445E1,5.948097E0,4.0405006E0],"tree_param":{"num_deleted":"0","num_feature":"82","num_nodes":"63","size_leaf_vector":"1"}},{"base_weights":[1.1504661E-2,2.4710506E-1,-3.238759E-1,-6.9358814E-1,3.144532E-1,1.617774E-1,-6.772772E-1,1.1055475E-2,-1.17968075E-1,4.9159658E-1,-1.5906443E-1,-1.8818562E-1,1.0394866E0,-9.1313696E-1,-1.5912068E-1,1.3842063E0,3.7140533E-1,-4.667495E-1,6.5811086E-1,2.5398108E-1,-6.291717E-1,1.6524425E-1,-1.8066198E-2,-1.0053393E0,-2.2035275E-2,5.228966E-2,-5.825503E-1,1.5988874E-1,7.677459E-2,6.2812483E-1,-7.311668E-2,3.170567E-1,-1.0563024E0,-1.8011093E-2,1.3044557E-1,-2.2528718E-1,9.149399E-2,-9.2271197E-1,7.352104E-3,-1.1043664E0,-2.1986648E-2,-1.03834294E-1,6.088051E-3,1.3590324E-1,9.147751E-1,1.7125364E-1,-8.6599186E-2,-8.291261E-2,8.6323464E-1,-1.2807572E-1,-4.6983622E-2,-9.311066E-2,3.652278E-2,-3.1499404E-2,-1.22671895E-1,-5.5250224E-2,-1.2169728E0,-4.0721405E-2,8.545148E-2,1.0602087E-1,-5.552633E-3,-3.737489E-2,5.798753E-2,9.6199075E-3,1.4193489E-1,-5.6582328E-2,-1.2955213E-1],"categories":[],"categories_nodes":[],"categories_segments":[],"categories_sizes":[],"default_left":[0,0,0,0,0,0,0,0,0,0,0,0,0,0,0,0,0,0,0,0,0,0,0,0,0,0,0,0,0,0,0,0,0,0,0,0,0,0,0,0,0,0,0,0,0,0,0,0,0,0,0,0,0,0,0,0,0,0,0,0,0,0,0,0,0,0,0],"id":5,"left_children":[1,3,5,7,9,11,13,-1,-1,15,17,19,21,23,25,27,29,31,33,35,37,-1,-1,39,-1,-1,41,-1,-1,43,45,47,49,-1,-1,51,-1,53,-1,55,-1,-1,-1,57,59,61,-1,-1,63,-1,-1,-1,-1,-1,-1,-1,65,-1,-1,-1,-1,-1,-1,-1,-1,-1,-1],"loss_changes":[1.6500055E1,7.9870706E0,1.4900487E1,3.454855E0,9.734785E0,1.1592956E1,5.9743614E0,0E0,0E0,8.500446E0,8.377651E0,5.497508E0,8.323827E0,1.9630108E0,5.177712E0,4.357338E-2,8.652717E0,1.1380474E1,5.2164845E0,4.7617846E0,2.9541698E0,0E0,0E0,2.0830517E0,0E0,0E0,3.2551382E0,0E0,0E0,6.6361027E0,5.6716094E0,7.6208944E0,1.2244234E0,0E0,0E0,4.14912E0,0E0,1.4507141E0,0E0,9.623375E-1,0E0,0E0,0E0,7.6886845E0,4.307184E0,5.2554207E0,0E0,0E0,3.2590332E0,0E0,0E0,0E0,0E0,0E0,0E0,0E0,3.4187126E-1,0E0,0E0,0E0,0E0,0E0,0E0,0E0,0E0,0E0,0E0],"parents":[2147483647,0,0,1,1,2,2,3,3,4,4,5,5,6,6,9,9,10,10,11,11,12,12,13,13,14,14,15,15,16,16,17,17,18,18,19,19,20,20,23,23,26,26,29,29,30,30,31,31,32,32,35,35,37,37,39,39,43,43,44,44,45,45,48,48,56,56],"right_children":[2,4,6,8,10,12,14,-1,-1,16,18,20,22,24,26,28,30,32,34,36,38,-1,-1,40,-1,-1,42,-1,-1,44,46,48,50,-1,-1,52,-1,54,-1,56,-1,-1,-1,58,60,62,-1,-1,64,-1,-1,-1,-1,-1,-1,-1,66,-1,-1,-1,-1,-1,-1,-1,-1,-1,-1],"split_conditions":[2.3480227E1,9.898825E2,1.3253012E-2,1.60596E1,6.3875E1,6.863909E0,1.9646154E1,1.1055475E-2,-1.17968075E-1,4.7986784E0,9.0680615E2,9.759384E0,3.1578946E-1,1.8950768E1,5.1055103E1,1.709091E1,1.01619026E2,1.7149553E2,1.8642075E2,1.9798848E2,2.8250525E1,1.6524425E-1,-1.8066198E-2,7.3929825E0,-2.2035275E-2,5.228966E-2,3.2578735E1,1.5988874E-1,7.677459E-2,1.9159235E1,6.1031666E1,-2.8491753E-1,-1.182E2,-1.8011093E-2,1.3044557E-1,1.5671783E1,9.149399E-2,5.4809523E0,7.352104E-3,3.0234074E1,-2.1986648E-2,-1.03834294E-1,6.088051E-3,1.9762633E2,1.198732E1,5.4687702E1,-8.6599186E-2,-8.291261E-2,1.5098405E0,-1.2807572E-1,-4.6983622E-2,-9.311066E-2,3.652278E-2,-3.1499404E-2,-1.22671895E-1,-5.5250224E-2,4.94E1,-4.0721405E-2,8.545148E-2,1.0602087E-1,-5.552633E-3,-3.737489E-2,5.798753E-2,9.6199075E-3,1.4193489E-1,-5.6582328E-2,-1.2955213E-1],"split_indices":[13,68,1,57,3,20,7,0,0,0,63,0,74,22,11,36,24,28,71,31,21,0,0,10,0,0,65,0,0,5,25,16,59,0,0,55,0,37,0,65,0,0,0,71,1,61,0,0,48,0,0,0,0,0,0,0,62,0,0,0,0,0,0,0,0,0,0],"split_type":[0,0,0,0,0,0,0,0,0,0,0,0,0,0,0,0,0,0,0,0,0,0,0,0,0,0,0,0,0,0,0,0,0,0,0,0,0,0,0,0,0,0,0,0,0,0,0,0,0,0,0,0,0,0,0,0,0,0,0,0,0,0,0,0,0,0,0],"sum_hessian":[2.0680685E2,1.21628006E2,8.517885E1,7.5048313E0,1.1412317E2,3.610485E1,4.9074E1,3.1184852E0,4.386346E0,8.302519E1,3.109798E1,2.637437E1,9.730478E0,3.319959E1,1.5874411E1,8.604738E0,7.4420456E1,2.2903223E1,8.194757E0,1.3381304E1,1.2993067E1,6.2409625E0,3.4895163E0,2.8901897E1,4.2976933E0,5.9905443E0,9.883866E0,5.2001405E0,3.404598E0,4.6913834E1,2.750662E1,1.0030267E1,1.2872955E1,3.8818552E0,4.3129025E0,8.138872E0,5.242432E0,8.943806E0,4.049261E0,2.5305552E1,3.5963452E0,5.426259E0,4.457607E0,1.7808342E1,2.910549E1,2.1625486E1,5.881134E0,3.069891E0,6.960376E0,8.453674E0,4.419281E0,3.4447396E0,4.6941323E0,3.6611702E0,5.282635E0,5.2894406E0,2.0016111E1,1.0389457E1,7.418885E0,2.5231075E1,3.874416E0,9.302946E0,1.2322539E1,3.4184167E0,3.5419593E0,3.0377004E0,1.697841E1],"tree_param":{"num_deleted":"0","num_feature":"82","num_nodes":"67","size_leaf_vector":"1"}},{"base_weights":[2.3796283E-2,1.4432594E-1,-5.951406E-1,6.552019E-1,2.2882318E-2,4.4970583E-2,-8.0373603E-1,-6.9989264E-2,8.238381E-1,-1.3247709E-1,6.667901E-1,-1.1271675E0,-2.7800655E-1,1.029826E0,2.4863728E-3,-2.7019137E-1,3.126931E-1,8.9140993E-1,2.824343E-2,-1.2164861E-1,-5.4750353E-2,-9.0508056E-1,9.807452E-2,4.0854698E-1,1.4243895E0,1.7417818E-2,-5.536664E-1,9.8175234E-1,2.1457989E-2,1.9912701E-2,1.115911E0,-4.6504073E-2,6.077317E-2,-3.4810062E-2,-1.156021E-1,1.11387394E-1,-4.3582186E-2,6.263891E-2,1.8032366E-1,7.1232855E-1,-2.4979891E-1,7.735469E-2,-8.546595E-1,1.9154904E-2,1.4421897E-1,-9.9115334E-2,4.6982422E-1,1.5441065E-1,2.2831513E-2,1.3313904E-1,-3.9416845E-3,-7.201399E-2,2.9439854E-3,-5.9823353E-2,8.816187E-2,-1.01589195E-1,-8.838847E-3,9.716642E-2,-3.4066033E-2],"categories":[],"categories_nodes":[],"categories_segments":[],"categories_sizes":[],"default_left":[0,0,0,0,0,0,0,0,0,0,0,0,0,0,0,0,0,0,0,0,0,0,0,0,0,0,0,0,0,0,0,0,0,0,0,0,0,0,0,0,0,0,0,0,0,0,0,0,0,0,0,0,0,0,0,0,0,0,0],"id":6,"left_children":[1,3,5,7,9,-1,11,-1,13,15,17,19,21,23,-1,25,27,29,31,-1,-1,33,-1,35,37,39,41,43,45,-1,47,-1,-1,-1,-1,-1,-1,-1,-1,49,51,53,55,-1,-1,-1,57,-1,-1,-1,-1,-1,-1,-1,-1,-1,-1,-1,-1],"loss_changes":[1.5001044E1,1.0417524E1,7.50663E0,7.9483414E0,1.3782602E1,0E0,4.394392E0,0E0,4.771559E0,6.8966846E0,3.8150835E0,2.045002E-1,1.02591715E1,5.092634E0,0E0,6.972382E0,5.184743E0,2.8510733E0,2.5694854E0,0E0,0E0,7.7792025E-1,0E0,6.675309E0,3.029007E0,8.229689E0,8.240837E0,2.6636271E0,9.380984E0,0E0,5.2400093E0,0E0,0E0,0E0,0E0,0E0,0E0,0E0,0E0,5.7777624E0,4.2316647E0,8.578114E0,3.5206814E0,0E0,0E0,0E0,6.1426153E0,0E0,0E0,0E0,0E0,0E0,0E0,0E0,0E0,0E0,0E0,0E0,0E0],"parents":[2147483647,0,0,1,1,2,2,3,3,4,4,6,6,8,8,9,9,10,10,11,11,12,12,13,13,15,15,16,16,17,17,18,18,21,21,23,23,24,24,25,25,26,26,27,27,28,28,30,30,39,39,40,40,41,41,42,42,46,46],"right_children":[2,4,6,8,10,-1,12,-1,14,16,18,20,22,24,-1,26,28,30,32,-1,-1,34,-1,36,38,40,42,44,46,-1,48,-1,-1,-1,-1,-1,-1,-1,-1,50,52,54,56,-1,-1,-1,58,-1,-1,-1,-1,-1,-1,-1,-1,-1,-1,-1,-1],"split_conditions":[4.1252247E1,2.0435184E1,4.4506173E0,3.8833334E0,3.11E1,4.4970583E-2,-1.204E2,-6.9989264E-2,6.1029167E0,1.3368984E-1,6.1296296E0,2.2345833E2,1.4735585E2,9.7366667E-1,2.4863728E-3,1.1281589E-3,4.626087E0,8.630952E-1,4.932866E0,-1.2164861E-1,-5.4750353E-2,6.61875E1,9.807452E-2,6.523365E1,3.857875E0,1.6731152E2,3.7661712E0,1.7055919E2,8.499496E2,1.9912701E-2,6.591954E0,-4.6504073E-2,6.077317E-2,-3.4810062E-2,-1.156021E-1,1.11387394E-1,-4.3582186E-2,6.263891E-2,1.8032366E-1,5.7199073E0,4.9210506E1,7.631138E0,2.2489583E2,1.9154904E-2,1.4421897E-1,-9.9115334E-2,5.07E1,1.5441065E-1,2.2831513E-2,1.3313904E-1,-3.9416845E-3,-7.201399E-2,2.9439854E-3,-5.9823353E-2,8.816187E-2,-1.01589195E-1,-8.838847E-3,9.716642E-2,-3.4066033E-2],"split_indices":[13,21,0,44,36,0,59,0,45,39,55,42,8,48,0,47,44,15,20,0,0,40,0,35,20,71,20,71,52,0,15,0,0,0,0,0,0,0,0,51,25,1,71,0,0,0,62,0,0,0,0,0,0,0,0,0,0,0,0],"split_type":[0,0,0,0,0,0,0,0,0,0,0,0,0,0,0,0,0,0,0,0,0,0,0,0,0,0,0,0,0,0,0,0,0,0,0,0,0,0,0,0,0,0,0,0,0,0,0,0,0,0,0,0,0,0,0,0,0,0,0],"sum_hessian":[1.9893433E2,1.6715077E2,3.1783558E1,3.1258934E1,1.3589183E2,5.0970025E0,2.6686554E1,3.110871E0,2.8148064E1,1.1011742E2,2.5774412E1,1.581381E1,1.0872744E1,2.2148819E1,5.999244E0,8.4400894E1,2.5716526E1,1.877425E1,7.0001636E0,1.2750519E1,3.063292E0,7.4448857E0,3.4278586E0,9.393409E0,1.2755409E1,4.2360836E1,4.204006E1,7.0801597E0,1.8636366E1,5.059499E0,1.371475E1,3.8880196E0,3.1121438E0,3.0538461E0,4.3910394E0,4.944194E0,4.4492154E0,4.960359E0,7.7950506E0,1.13024645E1,3.1058369E1,1.3816748E1,2.8223312E1,3.1279619E0,3.9521978E0,5.347878E0,1.3288487E1,8.752639E0,4.9621115E0,5.7753787E0,5.5270863E0,1.0981887E1,2.0076483E1,7.6482925E0,6.1684546E0,2.3047985E1,5.175327E0,8.084078E0,5.204409E0],"tree_param":{"num_deleted":"0","num_feature":"82","num_nodes":"59","size_leaf_vector":"1"}},{"base_weights":[-1.0962986E-2,5.0224936E-1,-1.739147E-1,8.5152406E-1,1.6114493E-1,2.13835E-1,-3.9527112E-1,8.667867E-3,1.065891E0,-1.4453502E-1,8.492532E-1,-2.2570047E-1,5.3202635E-1,-2.2182216E-1,-7.393619E-1,1.4876574E-2,1.2431263E0,-4.568113E-1,7.059355E-2,2.8365655E-2,1.1724309E-1,-5.010719E-1,6.0599066E-2,-4.6582428E-1,8.458231E-1,-2.9743934E-1,8.2205705E-2,7.143595E-2,-1.0436933E0,1.6919531E-1,8.25351E-1,-1.1819469E-1,2.1340136E-1,-7.77006E-1,2.739721E-2,2.994417E-2,-1.0247799E-1,1.0348889E0,-4.0590826E-2,-3.8325348E-1,6.896603E-2,9.352856E-2,-5.956625E-2,-1.1802657E0,-9.328558E-3,1.6009336E-2,1.1428689E-1,6.5436475E-2,-3.0163923E-2,-9.990846E-1,-7.395815E-4,1.3554311E0,4.4210452E-1,-2.0181268E-2,-6.719246E-1,-5.3040802E-2,-1.2619533E-1,-2.4988523E-2,-1.2589072E-1,1.5879606E-1,3.9004583E-2,1.3571481E-1,-3.0696437E-2,-2.6681958E-2,8.882002E-2,-7.7465616E-2,1.933304E-2],"categories":[],"categories_nodes":[],"categories_segments":[],"categories_sizes":[],"default_left":[0,0,0,0,0,0,0,0,0,0,0,0,0,0,0,0,0,0,0,0,0,0,0,0,0,0,0,0,0,0,0,0,0,0,0,0,0,0,0,0,0,0,0,0,0,0,0,0,0,0,0,0,0,0,0,0,0,0,0,0,0,0,0,0,0,0,0],"id":7,"left_children":[1,3,5,7,9,11,13,-1,15,17,19,21,23,25,27,-1,29,31,-1,-1,-1,33,-1,35,37,39,-1,41,43,-1,45,-1,47,49,-1,-1,-1,51,-1,53,-1,-1,-1,55,-1,-1,-1,-1,-1,57,-1,59,61,63,65,-1,-1,-1,-1,-1,-1,-1,-1,-1,-1,-1,-1],"loss_changes":[1.6793747E1,5.6291456E0,1.3162413E1,3.7901783E0,5.532702E0,7.955019E0,5.6458626E0,0E0,2.8071918E0,5.279108E0,1.1400928E0,5.852232E0,1.0662607E1,5.466113E0,8.019043E0,0E0,1.4706688E0,7.181575E0,0E0,0E0,0E0,4.222395E0,0E0,3.938671E0,6.408436E0,5.551445E0,0E0,6.1600313E0,2.9367619E0,0E0,1.9022346E0,0E0,2.0725944E0,2.4002018E0,0E0,0E0,0E0,3.6313858E0,0E0,6.0723705E0,0E0,0E0,0E0,4.1563606E-1,0E0,0E0,0E0,0E0,0E0,1.8119802E0,0E0,2.5158978E0,6.7898784E0,6.2301397E0,3.0223913E0,0E0,0E0,0E0,0E0,0E0,0E0,0E0,0E0,0E0,0E0,0E0,0E0],"parents":[2147483647,0,0,1,1,2,2,3,3,4,4,5,5,6,6,8,8,9,9,10,10,11,11,12,12,13,13,14,14,16,16,17,17,21,21,23,23,24,24,25,25,27,27,28,28,30,30,32,32,33,33,37,37,39,39,43,43,49,49,51,51,52,52,53,53,54,54],"right_children":[2,4,6,8,10,12,14,-1,16,18,20,22,24,26,28,-1,30,32,-1,-1,-1,34,-1,36,38,40,-1,42,44,-1,46,-1,48,50,-1,-1,-1,52,-1,54,-1,-1,-1,56,-1,-1,-1,-1,-1,58,-1,60,62,64,66,-1,-1,-1,-1,-1,-1,-1,-1,-1,-1,-1,-1],"split_conditions":[6.5391304E1,4.347826E-2,6.477378E1,3.5625E1,2.0186905E2,9.15836E2,8.5893416E-1,8.667867E-3,4.866667E0,7.6444025E2,2.175926E1,2.6403785E-1,2.47E2,2.000592E-2,5.384783E0,1.4876574E-2,4.5979168E1,2.923077E-1,7.059355E-2,2.8365655E-2,1.1724309E-1,2.3008333E2,6.0599066E-2,2.4366667E1,4.8286285E0,2.10875E1,8.2205705E-2,2.5265713E1,4.9365772E1,1.6919531E-1,5.2208332E1,-1.1819469E-1,2.7280441E1,2.005E1,2.739721E-2,2.994417E-2,-1.0247799E-1,9.958333E0,-4.0590826E-2,8.607599E2,6.896603E-2,9.352856E-2,-5.956625E-2,7.231677E0,-9.328558E-3,1.6009336E-2,1.1428689E-1,6.5436475E-2,-3.0163923E-2,1.6923243E1,-7.395815E-4,3.017178E1,5.0750668E1,8.430162E2,5.43E1,-5.3040802E-2,-1.2619533E-1,-2.4988523E-2,-1.2589072E-1,1.5879606E-1,3.9004583E-2,1.3571481E-1,-3.0696437E-2,-2.6681958E-2,8.882002E-2,-7.7465616E-2,1.933304E-2],"split_indices":[2,74,6,3,31,19,10,0,44,72,13,10,50,46,76,0,3,26,0,0,0,71,0,36,48,32,0,55,34,0,3,0,21,32,0,0,0,55,0,52,0,0,0,0,0,0,0,0,0,7,0,21,35,52,62,0,0,0,0,0,0,0,0,0,0,0,0],"split_type":[0,0,0,0,0,0,0,0,0,0,0,0,0,0,0,0,0,0,0,0,0,0,0,0,0,0,0,0,0,0,0,0,0,0,0,0,0,0,0,0,0,0,0,0,0,0,0,0,0,0,0,0,0,0,0,0,0,0,0,0,0,0,0,0,0,0,0],"sum_hessian":[1.9876839E2,4.740026E1,1.5136813E2,2.268032E1,2.471994E1,5.5021324E1,9.63468E1,5.272561E0,1.7407759E1,1.7663288E1,7.0566506E0,2.3227104E1,3.179422E1,6.5150475E1,3.1196327E1,3.1171353E0,1.4290624E1,1.3258059E1,4.40523E0,3.248728E0,3.8079228E0,1.7748226E1,5.478878E0,7.490501E0,2.4303719E1,6.1416603E1,3.7338715E0,8.722682E0,2.2473644E1,5.418971E0,8.871653E0,6.001358E0,7.2567005E0,1.3086566E1,4.661661E0,3.3577247E0,4.1327763E0,2.1265013E1,3.0387053E0,5.706717E1,4.349434E0,3.6256618E0,5.09702E0,1.9438505E1,3.0351388E0,3.3522604E0,5.5193925E0,3.7637618E0,3.4929385E0,9.924564E0,3.162001E0,1.2966797E1,8.298217E0,2.575016E1,3.1317009E1,3.007305E0,1.64312E1,3.0607195E0,6.8638453E0,9.930072E0,3.036725E0,3.369878E0,4.928338E0,2.080703E1,4.943131E0,2.808696E1,3.2300503E0],"tree_param":{"num_deleted":"0","num_feature":"82","num_nodes":"67","size_leaf_vector":"1"}},{"base_weights":[-7.521615E-3,5.800328E-1,-1.1934358E-1,1.341486E-1,2.633237E-1,2.3585683E-1,-2.8123173E-1,5.12281E-1,-7.3600404E-2,-6.430975E-1,3.8183784E-1,-3.8750428E-1,3.7741977E-1,7.1993166E-1,-1.9082872E-2,-6.1612073E-3,-9.921605E-2,5.5827516E-1,-3.5763663E-1,5.1625527E-2,-5.336764E-1,1.4110117E-1,-6.643489E-2,-1.8467367E-2,1.0495478E0,-6.716842E-2,8.721103E-1,-9.149786E-2,1.3185977E-2,4.3716446E-1,-7.685547E-1,7.559642E-1,-6.6105825E-1,-4.7062147E-1,8.1010625E-2,1.4097165E-1,3.1590935E-2,-9.272392E-2,3.222712E-1,1.273819E-1,1.2522343E0,8.396882E-1,-8.209312E-2,-6.528256E-3,-1.166628E-1,1.2315202E-1,9.954779E-3,-4.333963E-1,-1.0402005E0,-1.0698334E-1,5.96345E-3,8.127431E-2,-2.1013087E-2,-3.4986652E-2,8.611605E-2,1.5124834E-1,4.8767827E-2,1.1796937E-1,2.3878587E-4,-5.3426255E-2,3.076138E-2,-1.1645057E-1,-1.7821072E-2],"categories":[],"categories_nodes":[],"categories_segments":[],"categories_sizes":[],"default_left":[0,0,0,0,0,0,0,0,0,0,0,0,0,0,0,0,0,0,0,0,0,0,0,0,0,0,0,0,0,0,0,0,0,0,0,0,0,0,0,0,0,0,0,0,0,0,0,0,0,0,0,0,0,0,0,0,0,0,0,0,0,0,0],"id":8,"left_children":[1,3,5,-1,7,9,11,13,-1,15,17,19,21,23,-1,-1,-1,25,27,29,31,-1,33,-1,35,37,39,-1,-1,41,43,45,47,49,-1,-1,-1,-1,51,53,55,57,-1,-1,-1,-1,-1,59,61,-1,-1,-1,-1,-1,-1,-1,-1,-1,-1,-1,-1,-1,-1],"loss_changes":[1.293743E1,7.2399216E0,9.5757065E0,0E0,6.218961E0,6.9585276E0,8.129674E0,2.9680324E0,0E0,1.5269864E0,6.135292E0,6.3630886E0,7.5956545E0,4.719186E0,0E0,0E0,0E0,7.344844E0,2.6778383E0,8.418803E0,1.2679323E1,0E0,4.772581E0,0E0,2.5334692E0,4.7641044E0,6.8580627E0,0E0,0E0,9.817617E0,2.3135443E0,2.1035352E0,5.419487E0,2.9601784E0,0E0,0E0,0E0,0E0,2.760759E0,3.624757E0,2.505474E0,4.0256414E0,0E0,0E0,0E0,0E0,0E0,3.4685535E0,2.4499664E0,0E0,0E0,0E0,0E0,0E0,0E0,0E0,0E0,0E0,0E0,0E0,0E0,0E0,0E0],"parents":[2147483647,0,0,1,1,2,2,4,4,5,5,6,6,7,7,9,9,10,10,11,11,12,12,13,13,17,17,18,18,19,19,20,20,22,22,24,24,25,25,26,26,29,29,30,30,31,31,32,32,33,33,38,38,39,39,40,40,41,41,47,47,48,48],"right_children":[2,4,6,-1,8,10,12,14,-1,16,18,20,22,24,-1,-1,-1,26,28,30,32,-1,34,-1,36,38,40,-1,-1,42,44,46,48,50,-1,-1,-1,-1,52,54,56,58,-1,-1,-1,-1,-1,60,62,-1,-1,-1,-1,-1,-1,-1,-1,-1,-1,-1,-1,-1,-1],"split_conditions":[5.5166668E1,-3.619154E-2,6.2374493E1,1.341486E-1,-1.176E2,4.66875E1,1.425E1,6.0014584E1,-7.3600404E-2,1.01613495E2,3.0246592E1,3.9195075E0,4.99E1,4.087318E1,-1.9082872E-2,-6.1612073E-3,-9.921605E-2,1.01422226E2,1.8648083E1,7.7895E2,1.0094442E2,1.4110117E-1,2.2869444E1,-1.8467367E-2,1.6420288E1,1.5484028E1,3.2855415E1,-9.149786E-2,1.3185977E-2,9.693544E2,3.2571913E-3,2.0210593E0,3.0309278E-1,7.007992E0,8.1010625E-2,1.4097165E-1,3.1590935E-2,-9.272392E-2,5.118266E1,-1.18E2,9.6156885E2,2.0706708E2,-8.209312E-2,-6.528256E-3,-1.166628E-1,1.2315202E-1,9.954779E-3,2.422973E0,1.9851389E1,-1.0698334E-1,5.96345E-3,8.127431E-2,-2.1013087E-2,-3.4986652E-2,8.611605E-2,1.5124834E-1,4.8767827E-2,1.1796937E-1,2.3878587E-4,-5.3426255E-2,3.076138E-2,-1.1645057E-1,-1.7821072E-2],"split_indices":[2,67,6,0,59,6,30,35,0,24,21,29,62,35,0,0,0,24,22,50,24,0,5,0,0,32,34,0,0,19,41,18,10,9,0,0,0,0,25,59,19,71,0,0,0,0,0,49,32,0,0,0,0,0,0,0,0,0,0,0,0,0,0],"split_type":[0,0,0,0,0,0,0,0,0,0,0,0,0,0,0,0,0,0,0,0,0,0,0,0,0,0,0,0,0,0,0,0,0,0,0,0,0,0,0,0,0,0,0,0,0,0,0,0,0,0,0,0,0,0,0,0,0,0,0,0,0,0,0],"sum_hessian":[1.9485869E2,3.0486116E1,1.6437257E2,8.004782E0,2.2481335E1,5.13181E1,1.1305447E2,1.8387842E1,4.093493E0,6.8241887E0,4.449391E1,9.770204E1,1.5352427E1,1.4176998E1,4.210844E0,3.0011837E0,3.8230047E0,3.612063E1,8.3732815E0,2.4561441E1,7.31406E1,3.9575639E0,1.1394862E1,3.9036016E0,1.02733965E1,1.2331366E1,2.3789265E1,3.5088596E0,4.864422E0,1.7025377E1,7.536063E0,6.1313114E0,6.700929E1,8.115687E0,3.2791755E0,6.272477E0,4.000919E0,3.412955E0,8.91841E0,8.490338E0,1.5298926E1,1.3150492E1,3.8748863E0,3.1445735E0,4.3914895E0,3.0474148E0,3.0838964E0,4.320766E1,2.380163E1,3.332378E0,4.783309E0,4.3679276E0,4.5504827E0,5.4614315E0,3.0289073E0,1.0683943E1,4.614983E0,9.061806E0,4.0886855E0,3.8276478E1,4.9311814E0,2.049513E1,3.306499E0],"tree_param":{"num_deleted":"0","num_feature":"82","num_nodes":"63","size_leaf_vector":"1"}},{"base_weights":[1.5342879E-2,-8.8077806E-2,5.8468765E-1,6.858504E-1,-1.603213E-1,3.450804E-2,8.299941E-1,1.3042301E-1,-1.7261218E-2,-2.8519284E-3,-5.701997E-1,5.085988E-1,-7.603162E-2,1.1380106E0,2.3518975E-1,-6.458274E-2,8.26791E-1,-1.22346E-1,-3.75707E-1,3.6818055E-3,8.5554115E-2,3.1657033E-2,1.4220748E0,-5.137548E-2,1.151824E-1,-2.6524016E-1,3.2651064E-1,1.5298603E-1,-2.0082299E-2,-8.026282E-2,-7.895576E-1,1.6173694E-1,7.529413E-2,-3.4622929E-1,6.34465E-2,2.2158671E-2,7.9953307E-1,-4.1006204E-1,7.754614E-2,5.3445557E-3,-1.1124989E-1,-6.20159E-2,7.4523524E-4,5.537454E-2,-2.9023638E-2,1.1759625E-1,-1.0421739E-2,6.3974194E-2,-7.570424E-2],"categories":[],"categories_nodes":[],"categories_segments":[],"categories_sizes":[],"default_left":[0,0,0,0,0,0,0,0,0,0,0,0,0,0,0,0,0,0,0,0,0,0,0,0,0,0,0,0,0,0,0,0,0,0,0,0,0,0,0,0,0,0,0,0,0,0,0,0,0],"id":9,"left_children":[1,3,5,7,9,11,13,-1,-1,15,17,19,-1,21,23,25,27,-1,29,-1,-1,-1,31,-1,-1,33,35,-1,-1,37,39,-1,-1,41,-1,43,45,47,-1,-1,-1,-1,-1,-1,-1,-1,-1,-1,-1],"loss_changes":[1.1456404E1,9.323285E0,4.0075483E0,7.7942166E0,9.778395E0,4.2549586E0,3.5138693E0,0E0,0E0,5.7113137E0,4.8831882E0,1.1190697E0,0E0,2.6621265E0,6.291433E0,8.228592E0,5.8871393E0,0E0,4.075131E0,0E0,0E0,0E0,3.9909363E-2,0E0,0E0,5.2563467E0,5.111692E0,0E0,0E0,6.2055945E0,3.8668346E0,0E0,0E0,6.2110753E0,0E0,3.9318202E0,4.8584156E0,6.2077723E0,0E0,0E0,0E0,0E0,0E0,0E0,0E0,0E0,0E0,0E0,0E0],"parents":[2147483647,0,0,1,1,2,2,3,3,4,4,5,5,6,6,9,9,10,10,11,11,13,13,14,14,15,15,16,16,18,18,22,22,25,25,26,26,29,29,30,30,33,33,35,35,36,36,37,37],"right_children":[2,4,6,8,10,12,14,-1,-1,16,18,20,-1,22,24,26,28,-1,30,-1,-1,-1,32,-1,-1,34,36,-1,-1,38,40,-1,-1,42,-1,44,46,48,-1,-1,-1,-1,-1,-1,-1,-1,-1,-1,-1],"split_conditions":[1.9104167E2,6.0461335E0,1.7388266E2,1.2457627E-1,6.509002E1,1.5354402E2,1.6885246E-1,1.3042301E-1,-1.7261218E-2,5.49E1,-2.538829E-3,8.571429E-2,-7.603162E-2,6.123309E1,1.2493716E1,1.4630675E1,1.6926476E1,-1.22346E-1,1.01529945E2,3.6818055E-3,8.5554115E-2,3.1657033E-2,-1.7653011E-1,-5.137548E-2,1.151824E-1,1.8778572E1,5.121739E2,1.5298603E-1,-2.0082299E-2,6.8904595E0,1.60852E2,1.6173694E-1,7.529413E-2,1.9798848E2,6.34465E-2,8.93375E2,7.058824E-2,7.3088236E0,7.754614E-2,5.3445557E-3,-1.1124989E-1,-6.20159E-2,7.4523524E-4,5.537454E-2,-2.9023638E-2,1.1759625E-1,-1.0421739E-2,6.3974194E-2,-7.570424E-2],"split_indices":[8,14,71,49,25,71,26,0,0,62,47,26,0,6,76,0,57,0,24,0,0,0,64,0,0,76,38,0,0,64,71,0,0,31,0,19,41,30,0,0,0,0,0,0,0,0,0,0,0],"split_type":[0,0,0,0,0,0,0,0,0,0,0,0,0,0,0,0,0,0,0,0,0,0,0,0,0,0,0,0,0,0,0,0,0,0,0,0,0,0,0,0,0,0,0,0,0,0,0,0,0],"sum_hessian":[1.9269078E2,1.637848E2,2.8905981E1,1.3258278E1,1.5052654E2,9.265577E0,1.9640404E1,7.4049664E0,5.8533115E0,1.0947484E2,4.1051693E1,6.0293484E0,3.2362292E0,1.2337987E1,7.3024178E0,1.027516E2,6.72323E0,8.20438E0,3.2847313E1,3.0237288E0,3.0056193E0,3.7136126E0,8.624373E0,4.2606964E0,3.0417213E0,6.812213E1,3.4629475E1,3.7017975E0,3.0214324E0,1.9861973E1,1.2985341E1,5.5789747E0,3.0453992E0,6.306074E1,5.0613904E0,2.1708586E1,1.2920887E1,1.4712516E1,5.1494565E0,3.8277965E0,9.157544E0,3.5112415E1,2.7948326E1,7.7493434E0,1.3959243E1,8.90894E0,4.011947E0,3.4451928E0,1.12673235E1],"tree_param":{"num_deleted":"0","num_feature":"82","num_nodes":"49","size_leaf_vector":"1"}},{"base_weights":[-6.1044477E-2,1.2891322E-1,-4.000922E-1,-5.1094018E-2,4.5054302E-1,-2.2557709E-1,-1.2197466E-1,1.6574739E-1,-3.1916746E-1,3.096313E-1,1.1472445E0,-3.23091E-1,6.252749E-2,1.2677173E-1,4.6727628E-2,3.1120518E-1,-5.530066E-1,-1.0377866E-1,5.93909E-1,1.4774111E-1,5.235933E-2,2.4007508E-1,-4.9048367E-1,-1.0379245E-1,1.0215362E-1,-3.5600867E-2,9.992981E-2,-8.4807336E-1,-8.261923E-3,4.3692985E-1,-6.0171133E-1,9.063346E-1,-6.079647E-2,8.6674607E-1,-4.5270856E-2,-6.387275E-1,4.544667E-2,-4.247091E-1,3.5000864E-1,-1.0666826E0,-1.0572146E-2,4.3163526E-1,-7.166095E-2,1.0155876E-1,-1.8577268E-2,-1.0164036E-1,1.9644792E-3,1.1718067E0,1.0464153E-2,-6.8027966E-2,4.2448312E-2,1.17655516E-1,3.5448227E-2,2.2445455E-2,-7.635548E-1,-6.422529E-2,3.247936E-2,-4.901229E-2,6.1546355E-2,-4.409055E-2,-1.2060713E-1,7.255084E-2,2.4360544E-3,1.4672111E-1,2.5292654E-2,-9.7329326E-2,-6.435357E-3],"categories":[],"categories_nodes":[],"categories_segments":[],"categories_sizes":[],"default_left":[0,0,0,0,0,0,0,0,0,0,0,0,0,0,0,0,0,0,0,0,0,0,0,0,0,0,0,0,0,0,0,0,0,0,0,0,0,0,0,0,0,0,0,0,0,0,0,0,0,0,0,0,0,0,0,0,0,0,0,0,0,0,0,0,0,0,0],"id":10,"left_children":[1,3,5,7,9,11,-1,13,15,17,19,21,-1,-1,23,25,27,29,31,-1,-1,33,35,37,-1,-1,-1,39,41,43,45,47,49,51,-1,53,-1,55,57,59,-1,61,-1,-1,-1,-1,-1,63,-1,-1,-1,-1,-1,-1,65,-1,-1,-1,-1,-1,-1,-1,-1,-1,-1,-1,-1],"loss_changes":[1.2545644E1,7.2651577E0,9.724009E0,4.7672276E0,4.06149E0,5.0856056E0,0E0,5.907407E0,5.5683103E0,4.6203694E0,7.087383E-1,5.15807E0,0E0,0E0,6.2827578E0,5.1971526E0,4.342926E0,4.7474527E0,4.786989E0,0E0,0E0,6.002537E0,6.1099825E0,5.59144E0,0E0,0E0,0E0,2.7344112E0,3.5868006E0,3.2747645E0,2.3627007E0,3.2237167E0,2.817086E0,7.141671E-1,0E0,4.085537E0,0E0,3.851749E0,3.8765469E0,6.4083195E-1,0E0,8.3363104E-1,0E0,0E0,0E0,0E0,0E0,2.8085175E0,0E0,0E0,0E0,0E0,0E0,0E0,4.624901E0,0E0,0E0,0E0,0E0,0E0,0E0,0E0,0E0,0E0,0E0,0E0,0E0],"parents":[2147483647,0,0,1,1,2,2,3,3,4,4,5,5,7,7,8,8,9,9,10,10,11,11,14,14,15,15,16,16,17,17,18,18,21,21,22,22,23,23,27,27,28,28,29,29,30,30,31,31,32,32,33,33,35,35,37,37,38,38,39,39,41,41,47,47,54,54],"right_children":[2,4,6,8,10,12,-1,14,16,18,20,22,-1,-1,24,26,28,30,32,-1,-1,34,36,38,-1,-1,-1,40,42,44,46,48,50,52,-1,54,-1,56,58,60,-1,62,-1,-1,-1,-1,-1,64,-1,-1,-1,-1,-1,-1,66,-1,-1,-1,-1,-1,-1,-1,-1,-1,-1,-1,-1],"split_conditions":[6.3875E1,2.0568452E2,1.02298E3,6.477378E1,1.7103645E1,5.49E1,-1.2197466E-1,8.845361E0,1.4313958E1,1.8820833E2,1.5367474E1,5.541667E-1,6.252749E-2,1.2677173E-1,4.7981804E1,1.1258211E1,1.5794898E1,1.1439733E1,2.4127109E-2,1.4774111E-1,5.235933E-2,7.1729675E1,2.2758825E1,2.1699621E1,1.0215362E-1,-3.5600867E-2,9.992981E-2,6.624167E1,1.0891757E1,-5.000885E0,8.173437E0,1.95375E1,3.5485E1,1.01248956E3,-4.5270856E-2,6.0461335E0,4.544667E-2,4.6875E-3,4.8414454E0,1.0134654E2,-1.0572146E-2,1.6666667E-3,-7.166095E-2,1.0155876E-1,-1.8577268E-2,-1.0164036E-1,1.9644792E-3,7.118644E-2,1.0464153E-2,-6.8027966E-2,4.2448312E-2,1.17655516E-1,3.5448227E-2,2.2445455E-2,9.0680615E2,-6.422529E-2,3.247936E-2,-4.901229E-2,6.1546355E-2,-4.409055E-2,-1.2060713E-1,7.255084E-2,2.4360544E-3,1.4672111E-1,2.5292654E-2,-9.7329326E-2,-6.435357E-3],"split_indices":[3,31,68,6,76,62,0,57,14,42,0,15,0,0,34,14,76,76,67,0,0,6,64,5,0,0,0,25,51,1,56,32,34,33,0,14,0,41,56,24,0,17,0,0,0,0,0,10,0,0,0,0,0,0,63,0,0,0,0,0,0,0,0,0,0,0,0],"split_type":[0,0,0,0,0,0,0,0,0,0,0,0,0,0,0,0,0,0,0,0,0,0,0,0,0,0,0,0,0,0,0,0,0,0,0,0,0,0,0,0,0,0,0,0,0,0,0,0,0,0,0,0,0,0,0,0,0,0,0,0,0,0,0,0,0,0,0],"sum_hessian":[1.92993E2,1.2408942E2,6.890359E1,8.0100525E1,4.398889E1,5.7859707E1,1.1043879E1,4.4492657E1,3.560787E1,3.7790066E1,6.1988263E0,5.246689E1,5.392819E0,3.3962674E0,4.109639E1,9.545282E0,2.6062584E1,1.5656537E1,2.2133528E1,3.1579885E0,3.0408378E0,1.1922232E1,4.0544655E1,3.637349E1,4.7229004E0,5.0911913E0,4.4540915E0,1.6544338E1,9.518246E0,7.564599E0,8.091938E0,1.4723251E1,7.4102774E0,6.1279597E0,5.7942724E0,3.532667E1,5.217986E0,2.13438E1,1.5029689E1,1.2443158E1,4.10118E0,6.112755E0,3.405491E0,3.5939343E0,3.970665E0,4.4717293E0,3.6202083E0,1.07138195E1,4.0094314E0,3.0785398E0,4.3317375E0,3.0104883E0,3.1174715E0,4.362415E0,3.0964256E1,1.6653269E1,4.6905313E0,3.405466E0,1.1624223E1,3.025135E0,9.418023E0,3.0968316E0,3.0159235E0,7.6558537E0,3.0579658E0,2.3517683E1,7.4465733E0],"tree_param":{"num_deleted":"0","num_feature":"82","num_nodes":"67","size_leaf_vector":"1"}},{"base_weights":[-3.3912305E-2,2.3608038E-1,-2.2952515E-1,4.006132E-1,-2.4710314E-1,4.4354532E-2,-4.3107116E-1,1.226849E-1,9.92335E-1,-7.4191296E-1,2.2003451E-1,-2.826731E-1,4.5773298E-1,-2.2660825E-2,-7.8277236E-1,8.2332814E-1,-1.8049395E-1,1.3319138E0,3.7229168E-1,-1.0535864E-1,-2.422176E-2,-5.0349016E-2,7.3119307E-1,-5.837812E-1,3.8435093E-1,7.7522254E-1,-4.382218E-2,-6.591897E-1,3.6306453E-1,-8.752838E-2,-9.762912E-1,5.3344164E-3,1.2068304E0,-3.6960092E-1,7.7284805E-2,6.866937E-2,1.4807616E-1,8.11114E-2,-1.5718898E-2,1.3266475E-1,-3.4115475E-3,-9.281504E-1,1.1357654E-1,9.412832E-2,-5.250891E-2,1.6238518E-1,1.9867119E-1,-9.5444724E-2,-1.9830156E-3,1.1405336E0,-1.6274442E-1,5.560965E-2,-6.961605E-2,-3.942841E-2,-1.1093252E0,1.4759828E-1,5.5742797E-2,5.46962E-2,-5.9833837E-1,-1.1959457E-2,-1.1735474E-1,-4.436632E-2,6.582072E-2,1.0418065E-1,-2.7946776E-1,2.645871E-2,1.6544251E-1,-8.59348E-2,3.14512E-1,-5.6749243E-2,-1.1890825E-1,3.3840172E-2,-9.014223E-2,1.8169237E-2,-6.298234E-2,1.1072115E-1,-3.9210144E-2],"categories":[],"categories_nodes":[],"categories_segments":[],"categories_sizes":[],"default_left":[0,0,0,0,0,0,0,0,0,0,0,0,0,0,0,0,0,0,0,0,0,0,0,0,0,0,0,0,0,0,0,0,0,0,0,0,0,0,0,0,0,0,0,0,0,0,0,0,0,0,0,0,0,0,0,0,0,0,0,0,0,0,0,0,0,0,0,0,0,0,0,0,0,0,0,0,0],"id":11,"left_children":[1,3,5,7,9,11,13,15,17,19,21,23,25,27,29,31,33,35,37,-1,-1,-1,39,41,43,45,-1,47,49,51,53,-1,55,57,-1,-1,-1,-1,-1,-1,-1,59,61,-1,-1,-1,63,-1,-1,65,67,-1,-1,-1,69,-1,-1,-1,71,-1,-1,-1,-1,-1,73,-1,-1,-1,75,-1,-1,-1,-1,-1,-1,-1,-1],"loss_changes":[9.882066E0,6.353371E0,6.0034328E0,9.592546E0,4.925448E0,6.465003E0,8.966397E0,8.928473E0,3.4492035E0,1.3386264E0,4.572797E0,5.6038513E0,6.3365717E0,7.597737E0,4.432066E0,3.6749592E0,5.634534E0,1.0859871E-1,1.9905181E0,0E0,0E0,0E0,3.2671046E0,4.6323795E0,5.0189705E0,7.4701385E0,0E0,2.1828976E0,8.078054E0,3.6813874E0,1.5886631E0,0E0,6.4665985E-1,5.659708E0,0E0,0E0,0E0,0E0,0E0,0E0,0E0,2.38513E0,2.4536412E0,0E0,0E0,0E0,4.5737495E0,0E0,0E0,3.1246986E0,4.390204E0,0E0,0E0,0E0,2.2180939E-1,0E0,0E0,0E0,6.2196097E0,0E0,0E0,0E0,0E0,0E0,1.3370996E0,0E0,0E0,0E0,4.963387E0,0E0,0E0,0E0,0E0,0E0,0E0,0E0,0E0],"parents":[2147483647,0,0,1,1,2,2,3,3,4,4,5,5,6,6,7,7,8,8,9,9,10,10,11,11,12,12,13,13,14,14,15,15,16,16,17,17,18,18,22,22,23,23,24,24,25,25,27,27,28,28,29,29,30,30,32,32,33,33,41,41,42,42,46,46,49,49,50,50,54,54,58,58,64,64,68,68],"right_children":[2,4,6,8,10,12,14,16,18,20,22,24,26,28,30,32,34,36,38,-1,-1,-1,40,42,44,46,-1,48,50,52,54,-1,56,58,-1,-1,-1,-1,-1,-1,-1,60,62,-1,-1,-1,64,-1,-1,66,68,-1,-1,-1,70,-1,-1,-1,72,-1,-1,-1,-1,-1,74,-1,-1,-1,76,-1,-1,-1,-1,-1,-1,-1,-1],"split_conditions":[-1.6886598E0,2.173913E-2,6.477378E1,1.1904762E-1,1.7774579E2,3.2232E1,1.0144395E2,4.7606956E1,7.98E2,5.907895E2,5E1,1.9586776E-1,6.2266396E1,1.88E2,3.9195075E0,4.03563E1,4.4444445E-1,1.0130569E2,8.767549E2,-1.0535864E-1,-2.422176E-2,-5.0349016E-2,2.019485E2,5.925837E1,1.7761989E-2,5.9E0,-4.382218E-2,9.186992E-2,6.32E2,5.9566566E1,5.4632867E-5,5.3344164E-3,2.3333333E-1,1.7453704E0,7.7284805E-2,6.866937E-2,1.4807616E-1,8.11114E-2,-1.5718898E-2,1.3266475E-1,-3.4115475E-3,4.97E1,6.2291665E0,9.412832E-2,-5.250891E-2,1.6238518E-1,3.4166667E0,-9.5444724E-2,-1.9830156E-3,7.959375E0,1.7896849E1,5.560965E-2,-6.961605E-2,-3.942841E-2,9.8145E2,1.4759828E-1,5.5742797E-2,5.46962E-2,-1.6031996E0,-1.1959457E-2,-1.1735474E-1,-4.436632E-2,6.582072E-2,1.0418065E-1,1.9316408E1,2.645871E-2,1.6544251E-1,-8.59348E-2,7.993285E0,-5.6749243E-2,-1.1890825E-1,3.3840172E-2,-9.014223E-2,1.8169237E-2,-6.298234E-2,1.1072115E-1,-3.9210144E-2],"split_indices":[1,17,6,38,71,65,24,35,50,72,62,10,61,66,29,35,75,24,63,0,0,0,71,61,47,44,0,41,50,35,46,0,39,51,0,0,0,0,0,0,0,62,44,0,0,0,51,0,0,9,7,0,0,0,68,0,0,0,64,0,0,0,0,0,22,0,0,0,56,0,0,0,0,0,0,0,0],"split_type":[0,0,0,0,0,0,0,0,0,0,0,0,0,0,0,0,0,0,0,0,0,0,0,0,0,0,0,0,0,0,0,0,0,0,0,0,0,0,0,0,0,0,0,0,0,0,0,0,0,0,0,0,0,0,0,0,0,0,0,0,0,0,0,0,0,0,0,0,0,0,0,0,0,0,0,0,0],"sum_hessian":[1.8508461E2,7.767188E1,1.0741273E2,5.8069164E1,1.9602722E1,4.586584E1,6.1546886E1,4.0332542E1,1.7736624E1,9.233762E0,1.0368959E1,2.5784033E1,2.0081806E1,2.8970058E1,3.2576828E1,1.1663246E1,2.8669294E1,1.071839E1,7.0182323E0,5.0041084E0,4.229654E0,4.2989573E0,6.0700016E0,1.7850676E1,7.9333572E0,1.4927032E1,5.154774E0,1.0663709E1,1.8306349E1,7.4094877E0,2.5167341E1,4.2564244E0,7.4068213E0,2.4434689E1,4.234607E0,3.061389E0,7.6570015E0,3.5468082E0,3.4714243E0,3.0013201E0,3.0686817E0,1.1728134E1,6.1225414E0,4.898531E0,3.0348268E0,5.303819E0,9.623214E0,6.9577765E0,3.7059321E0,6.914041E0,1.1392308E1,3.6431723E0,3.7663152E0,5.4198704E0,1.974747E1,4.336624E0,3.0701973E0,4.6022015E0,1.9832485E1,3.0770261E0,8.651109E0,3.1178722E0,3.0046692E0,3.0558121E0,6.5674014E0,3.116583E0,3.797458E0,4.306272E0,7.0860357E0,3.575113E0,1.6172358E1,4.819708E0,1.5012778E1,3.043181E0,3.5242202E0,3.072401E0,4.013635E0],"tree_param":{"num_deleted":"0","num_feature":"82","num_nodes":"77","size_leaf_vector":"1"}},{"base_weights":[-1.2745473E-2,3.684093E-1,-1.3134989E-1,6.087975E-1,4.5241777E-2,1.6457094E-2,-4.9138305E-1,8.0137753E-1,-6.587001E-3,5.1110715E-1,-3.597759E-1,-4.9697254E-2,1.1541895E-1,-5.814023E-1,2.3663975E-2,1.2319593E0,3.2207853E-1,1.0178596E-1,-7.20429E-4,1.907916E-2,-9.84893E-2,-2.8776598E-1,2.3417518E-1,2.9562429E-2,-6.7144537E-1,5.168373E-2,1.4624277E-1,-5.445644E-2,8.2274044E-1,5.611748E-3,-6.551073E-1,-2.7491876E-1,4.400243E-1,-7.8232634E-1,3.5508156E-2,1.3825229E-2,1.3096137E-1,3.6399361E-1,-4.5655215E-1,-8.240834E-1,1.4866826E-2,-5.562699E-1,4.2182293E-2,1.149746E0,2.0894752E-1,-8.8454866E-1,1.0998093E-2,1.3849024E-1,-2.9235098E-3,-1.0549203E-1,-1.2989024E-3,-2.9453626E-2,-1.0339325E-1,-9.9277675E-2,-2.1023916E-3,1.5305176E-1,4.0876884E-2,1.03102304E-1,-2.5180718E-3,8.21603E-3,-1.0070945E-1],"categories":[],"categories_nodes":[],"categories_segments":[],"categories_sizes":[],"default_left":[0,0,0,0,0,0,0,0,0,0,0,0,0,0,0,0,0,0,0,0,0,0,0,0,0,0,0,0,0,0,0,0,0,0,0,0,0,0,0,0,0,0,0,0,0,0,0,0,0,0,0,0,0,0,0,0,0,0,0,0,0],"id":12,"left_children":[1,3,5,7,9,11,13,15,-1,17,19,21,-1,23,-1,25,27,-1,-1,-1,-1,29,31,-1,33,-1,-1,-1,35,37,39,41,43,45,-1,-1,-1,47,49,51,-1,53,-1,55,57,59,-1,-1,-1,-1,-1,-1,-1,-1,-1,-1,-1,-1,-1,-1,-1],"loss_changes":[8.541138E0,3.4564667E0,7.672038E0,3.3837738E0,3.997234E0,7.8149276E0,2.8867388E0,3.7349367E0,0E0,2.5845666E0,4.1107693E0,6.7149253E0,0E0,3.1694994E0,0E0,9.239559E-1,5.146309E0,0E0,0E0,0E0,0E0,5.817487E0,4.880536E0,0E0,4.1960783E0,0E0,0E0,0E0,2.238904E0,5.298147E0,3.3770437E0,2.918709E0,5.1266766E0,2.959652E0,0E0,0E0,0E0,7.269805E0,3.6958072E0,1.9127073E0,0E0,2.3587003E0,0E0,1.5795326E0,5.0127506E0,3.4313087E0,0E0,0E0,0E0,0E0,0E0,0E0,0E0,0E0,0E0,0E0,0E0,0E0,0E0,0E0,0E0],"parents":[2147483647,0,0,1,1,2,2,3,3,4,4,5,5,6,6,7,7,9,9,10,10,11,11,13,13,15,15,16,16,21,21,22,22,24,24,28,28,29,29,30,30,31,31,32,32,33,33,37,37,38,38,39,39,41,41,43,43,44,44,45,45],"right_children":[2,4,6,8,10,12,14,16,-1,18,20,22,-1,24,-1,26,28,-1,-1,-1,-1,30,32,-1,34,-1,-1,-1,36,38,40,42,44,46,-1,-1,-1,48,50,52,-1,54,-1,56,58,60,-1,-1,-1,-1,-1,-1,-1,-1,-1,-1,-1,-1,-1,-1,-1],"split_conditions":[1.1666667E-1,5.676966E1,6.509002E1,3.006536E-2,2.4375E0,2.1885632E-2,1.0200709E2,1.9215385E1,-6.587001E-3,1.8736458E2,7.3828983E0,1.3293257E1,1.1541895E-1,4.89E1,2.3663975E-2,4.0958332E1,4.9747714E2,1.0178596E-1,-7.20429E-4,1.907916E-2,-9.84893E-2,2.5238667E1,3.2898335E1,2.9562429E-2,5.2546875E1,5.168373E-2,1.4624277E-1,-5.445644E-2,1.7268333E2,1.01738306E3,9.965769E0,1.1E1,4.647917E0,1.2575E1,3.5508156E-2,1.3825229E-2,1.3096137E-1,-1.0416667E-2,6.0434523E0,1.01229164E2,1.4866826E-2,2.186558E1,4.2182293E-2,5.8416668E1,1.4721941E0,1.0086485E2,1.0998093E-2,1.3849024E-1,-2.9235098E-3,-1.0549203E-1,-1.2989024E-3,-2.9453626E-2,-1.0339325E-1,-9.9277675E-2,-2.1023916E-3,1.5305176E-1,4.0876884E-2,1.03102304E-1,-2.5180718E-3,8.21603E-3,-1.0070945E-1],"split_indices":[75,35,25,41,15,46,24,73,0,70,29,69,0,62,0,3,72,0,0,0,0,21,34,0,34,0,0,0,8,68,9,15,44,51,0,0,0,47,44,24,0,5,0,3,18,24,0,0,0,0,0,0,0,0,0,0,0,0,0,0,0],"split_type":[0,0,0,0,0,0,0,0,0,0,0,0,0,0,0,0,0,0,0,0,0,0,0,0,0,0,0,0,0,0,0,0,0,0,0,0,0,0,0,0,0,0,0,0,0,0,0,0,0,0,0,0,0,0,0,0,0,0,0,0,0],"sum_hessian":[1.8686504E2,4.3847546E1,1.4301749E2,2.463727E1,1.9210276E1,1.02068756E2,4.094873E1,1.9020237E1,5.617031E0,8.812219E0,1.0398057E1,9.7363785E1,4.7049747E0,3.662187E1,4.3268614E0,9.192105E0,9.828133E0,3.9684606E0,4.8437586E0,5.8981194E0,4.499937E0,5.2946583E1,4.4417202E1,3.1972497E0,3.3424618E1,3.0306933E0,6.161412E0,3.5666294E0,6.261503E0,2.9984299E1,2.2962282E1,1.2692162E1,3.172504E1,3.0380896E1,3.043722E0,3.1362517E0,3.1252518E0,1.7007986E1,1.2976313E1,1.8952642E1,4.0096397E0,9.184844E0,3.5073175E0,6.815754E0,2.4909286E1,2.726601E1,3.1148865E0,4.0281477E0,1.2979838E1,4.937424E0,8.038889E0,6.061136E0,1.2891507E1,4.588224E0,4.5966196E0,3.798335E0,3.0174189E0,4.767142E0,2.0142145E1,3.1046195E0,2.416139E1],"tree_param":{"num_deleted":"0","num_feature":"82","num_nodes":"61","size_leaf_vector":"1"}},{"base_weights":[2.098344E-2,2.1136339E-1,-1.4573407E-1,1.0046212E-1,1.4435858E-1,4.2348772E-1,-2.7544042E-1,-1.4470976E-2,4.888699E-1,6.622165E-1,-2.9406756E-2,-4.742237E-1,2.1574482E-1,3.127748E-1,-2.308948E-1,2.4910572E-1,1.3025956E-1,1.1531522E0,1.3086255E-1,5.7295017E-2,-6.365794E-1,9.6636094E-2,-9.399787E-2,6.4468586E-1,-2.1205236E-1,-6.345761E-1,1.2110475E-1,4.5680907E-1,-6.2600344E-2,6.258302E-2,1.4168586E-1,-2.9890805E-2,5.938707E-2,4.5572722E-1,-1.0628299E-1,3.3511497E-2,-7.4190825E-1,5.606444E-1,-6.018016E-1,1.0750661E-1,1.5350181E-1,5.2791275E-2,-7.314675E-2,-1.4478377E-2,-8.5403347E-1,-6.778753E-1,6.132362E-1,9.881333E-1,-1.4306617E-1,-2.4118904E-2,9.7963475E-2,-1.0223744E0,-4.4355363E-1,1.1374692E-1,-9.060196E-4,1.8587088E-2,-1.1143535E-1,-3.550315E-2,6.801851E-2,-1.1312133E-1,-4.2086072E-2,-2.3362882E-2,-1.00362636E-1,-4.2701505E-2,9.961643E-2,1.5164311E-1,4.4774763E-2,6.0032893E-2,-6.6957876E-2,-2.4643248E-2,-1.1512654E-1,-4.426282E-3,-9.251581E-2],"categories":[],"categories_nodes":[],"categories_segments":[],"categories_sizes":[],"default_left":[0,0,0,0,0,0,0,0,0,0,0,0,0,0,0,0,0,0,0,0,0,0,0,0,0,0,0,0,0,0,0,0,0,0,0,0,0,0,0,0,0,0,0,0,0,0,0,0,0,0,0,0,0,0,0,0,0,0,0,0,0,0,0,0,0,0,0,0,0,0,0,0,0],"id":13,"left_children":[1,3,5,-1,7,9,11,13,15,17,-1,19,21,23,25,27,-1,29,31,33,35,-1,37,39,41,43,45,47,-1,-1,-1,-1,-1,49,-1,-1,51,53,55,-1,57,-1,-1,-1,59,61,63,65,67,-1,-1,69,71,-1,-1,-1,-1,-1,-1,-1,-1,-1,-1,-1,-1,-1,-1,-1,-1,-1,-1,-1,-1],"loss_changes":[5.8207984E0,4.403459E0,7.340819E0,0E0,4.388795E0,3.3727722E0,7.9421864E0,4.0227795E0,4.6110597E0,3.5607276E0,0E0,4.996172E0,5.629039E0,4.078699E0,4.929487E0,4.0623236E0,0E0,1.23888016E-1,1.7616384E0,6.895537E0,4.7630024E0,0E0,6.2458644E0,2.8178024E0,4.04496E0,1.603446E0,7.9191113E0,5.6774006E0,0E0,0E0,0E0,0E0,0E0,4.3607206E0,0E0,0E0,2.9025154E0,2.731911E0,4.4428477E0,0E0,2.318864E0,0E0,0E0,0E0,8.3166933E-1,8.8687205E-1,5.338543E0,1.9866829E0,3.9370768E0,0E0,0E0,1.7071648E0,4.0357184E0,0E0,0E0,0E0,0E0,0E0,0E0,0E0,0E0,0E0,0E0,0E0,0E0,0E0,0E0,0E0,0E0,0E0,0E0,0E0,0E0],"parents":[2147483647,0,0,1,1,2,2,4,4,5,5,6,6,7,7,8,8,9,9,11,11,12,12,13,13,14,14,15,15,17,17,18,18,19,19,20,20,22,22,23,23,24,24,25,25,26,26,27,27,33,33,36,36,37,37,38,38,40,40,44,44,45,45,46,46,47,47,48,48,51,51,52,52],"right_children":[2,4,6,-1,8,10,12,14,16,18,-1,20,22,24,26,28,-1,30,32,34,36,-1,38,40,42,44,46,48,-1,-1,-1,-1,-1,50,-1,-1,52,54,56,-1,58,-1,-1,-1,60,62,64,66,68,-1,-1,70,72,-1,-1,-1,-1,-1,-1,-1,-1,-1,-1,-1,-1,-1,-1,-1,-1,-1,-1,-1,-1],"split_conditions":[5.60625E1,4.0386284E1,5.324074E-1,1.0046212E-1,2.18E2,4.347826E-3,2.122445E2,1.4625301E1,2.1074055E1,1.6122536E1,-2.9406756E-2,3.9195075E0,7.1E0,9.394825E2,9.154582E2,1.0891757E1,1.3025956E-1,6.8210144E1,1.47375E1,6.666667E-2,7.97662E2,9.6636094E-2,1.0139508E2,8.767549E2,7.5117283E0,-3.3868503E-2,2.042647E1,2.07725E2,-6.2600344E-2,6.258302E-2,1.4168586E-1,-2.9890805E-2,5.938707E-2,1.28E1,-1.0628299E-1,3.3511497E-2,-3.7060042E-3,2.360115E2,3.6471224E0,1.0750661E-1,9.1764545E2,5.2791275E-2,-7.314675E-2,-1.4478377E-2,7.7819896E0,5.03E1,2.808E0,8.304498E-3,2.24E2,-2.4118904E-2,9.7963475E-2,2.4782608E0,6.25E0,1.1374692E-1,-9.060196E-4,1.8587088E-2,-1.1143535E-1,-3.550315E-2,6.801851E-2,-1.1312133E-1,-4.2086072E-2,-2.3362882E-2,-1.00362636E-1,-4.2701505E-2,9.961643E-2,1.5164311E-1,4.4774763E-2,6.0032893E-2,-6.6957876E-2,-2.4643248E-2,-1.1512654E-1,-4.426282E-3,-9.251581E-2],"split_indices":[3,61,15,0,66,54,71,60,60,13,0,29,0,19,19,51,0,2,73,17,52,0,24,63,0,47,7,70,0,0,0,0,0,36,0,0,67,71,45,0,63,0,0,0,9,62,45,49,66,0,0,51,44,0,0,0,0,0,0,0,0,0,0,0,0,0,0,0,0,0,0,0,0],"split_type":[0,0,0,0,0,0,0,0,0,0,0,0,0,0,0,0,0,0,0,0,0,0,0,0,0,0,0,0,0,0,0,0,0,0,0,0,0,0,0,0,0,0,0,0,0,0,0,0,0,0,0,0,0,0,0,0,0,0,0,0,0,0,0,0,0,0,0,0,0,0,0,0,0],"sum_hessian":[1.814214E2,8.457489E1,9.6846504E1,5.4975185E0,7.907737E1,1.7552341E1,7.929417E1,5.478015E1,2.4297216E1,1.3228408E1,4.323935E0,5.6473717E1,2.282045E1,2.1629642E1,3.315051E1,1.9776272E1,4.520946E0,6.2674685E0,6.9609394E0,1.336537E1,4.3108345E1,6.046868E0,1.6773582E1,1.3110148E1,8.519494E0,1.5067721E1,1.8082788E1,1.6369127E1,3.4071438E0,3.213927E0,3.0535412E0,3.7938533E0,3.1670861E0,1.0296144E1,3.0692267E0,4.002484E0,3.910586E1,7.2819266E0,9.491655E0,6.3539944E0,6.756154E0,3.5070083E0,5.012486E0,5.175842E0,9.89188E0,6.7487316E0,1.1334057E1,8.337323E0,8.031803E0,4.6500936E0,5.6460495E0,1.8906363E1,2.01995E1,3.1231492E0,4.1587777E0,3.9928854E0,5.49877E0,3.6031156E0,3.1530383E0,5.049397E0,4.8424826E0,3.5815525E0,3.1671793E0,3.018623E0,8.3154335E0,3.3024983E0,5.0348253E0,3.2719145E0,4.759889E0,3.1079586E0,1.5798403E1,1.1640471E1,8.559028E0],"tree_param":{"num_deleted":"0","num_feature":"82","num_nodes":"73","size_leaf_vector":"1"}},{"base_weights":[2.2856005E-2,5.2643406E-1,-8.7645106E-2,2.9572147E-1,1.1991153E0,-2.7767023E-1,1.0122262E-1,6.8202484E-1,-5.9475106E-1,1.4259273E-1,6.6383734E-2,-4.644542E-1,1.3335583E-1,-4.9333024E-1,2.2057016E-1,1.2025138E-2,1.125026E0,-1.0759576E-1,1.358934E-2,-1.0476388E-1,-3.2241204E-1,-5.3494793E-1,3.9321625E-1,-9.291626E-2,1.4228428E-2,3.4101403E-1,-5.1907235E-1,8.532342E-2,-6.283485E-2,1.3674103E-1,4.9548995E-2,-2.5295231E-2,-6.3023E-1,-1.1214461E-1,1.7302074E-2,6.4529884E-1,-3.955625E-2,1.10451065E-1,2.4827778E-1,1.2738331E-2,-8.8887356E-2,-3.444834E-1,5.625231E-1,3.3533294E-3,-8.273906E-1,2.7558178E-1,1.2659827E-1,3.3833373E-1,-3.983615E-2,3.6964547E-2,-6.4022265E-2,-2.0019988E-2,1.03560306E-1,-1.560624E-3,-1.07009485E-1,9.474332E-2,-2.9016757E-2,2.3267742E-2,1.0597779E-1],"categories":[],"categories_nodes":[],"categories_segments":[],"categories_sizes":[],"default_left":[0,0,0,0,0,0,0,0,0,0,0,0,0,0,0,0,0,0,0,0,0,0,0,0,0,0,0,0,0,0,0,0,0,0,0,0,0,0,0,0,0,0,0,0,0,0,0,0,0,0,0,0,0,0,0,0,0,0,0],"id":14,"left_children":[1,3,5,7,9,11,13,15,17,-1,-1,19,21,23,25,27,29,-1,-1,-1,31,33,35,-1,-1,37,39,-1,-1,-1,-1,41,43,-1,-1,45,-1,-1,47,-1,-1,49,51,-1,53,55,-1,57,-1,-1,-1,-1,-1,-1,-1,-1,-1,-1,-1],"loss_changes":[1.0080266E1,4.703354E0,5.3659744E0,9.210102E0,2.4168968E-2,5.774246E0,5.4537635E0,5.423068E0,3.0567625E0,0E0,0E0,3.9184256E0,4.3825946E0,3.7062159E0,5.8271217E0,5.0079393E0,1.0033007E0,0E0,0E0,0E0,3.894957E0,3.1628191E0,3.809415E0,0E0,0E0,3.630279E0,2.3312569E0,0E0,0E0,0E0,0E0,4.4717927E0,2.7708454E0,0E0,0E0,2.846758E0,0E0,0E0,3.0734103E0,0E0,0E0,3.4884706E0,3.2396467E0,0E0,3.1749878E0,4.0779996E0,0E0,3.1709461E0,0E0,0E0,0E0,0E0,0E0,0E0,0E0,0E0,0E0,0E0,0E0],"parents":[2147483647,0,0,1,1,2,2,3,3,4,4,5,5,6,6,7,7,8,8,11,11,12,12,13,13,14,14,15,15,16,16,20,20,21,21,22,22,25,25,26,26,31,31,32,32,35,35,38,38,41,41,42,42,44,44,45,45,47,47],"right_children":[2,4,6,8,10,12,14,16,18,-1,-1,20,22,24,26,28,30,-1,-1,-1,32,34,36,-1,-1,38,40,-1,-1,-1,-1,42,44,-1,-1,46,-1,-1,48,-1,-1,50,52,-1,54,56,-1,58,-1,-1,-1,-1,-1,-1,-1,-1,-1,-1,-1],"split_conditions":[5.6791668E1,1.1904762E-1,-1.204E2,5.5703706E-1,3.2105526E1,5.452694E-4,1.00115204E3,6.179167E0,7.072991E1,1.4259273E-1,6.6383734E-2,2.985E1,9.152685E2,3.2369564E1,9.05326E2,1.7287878E1,6.289308E-4,-1.0759576E-1,1.358934E-2,-1.0476388E-1,9.202454E-4,2.1113324E0,5.067026E0,-9.291626E-2,1.4228428E-2,4.49E2,3.1894266E1,8.532342E-2,-6.283485E-2,1.3674103E-1,4.9548995E-2,6.568708E1,3.0718958E1,-1.1214461E-1,1.7302074E-2,1.22056E0,-3.955625E-2,1.10451065E-1,8.62526E1,1.2738331E-2,-8.8887356E-2,1.7238889E0,2.5E-2,3.3533294E-3,5.3575317E1,6.523627E1,1.2659827E-1,2.5097836E2,-3.983615E-2,3.6964547E-2,-6.4022265E-2,-2.0019988E-2,1.03560306E-1,-1.560624E-3,-1.07009485E-1,9.474332E-2,-2.9016757E-2,2.3267742E-2,1.0597779E-1],"split_indices":[2,38,59,39,65,46,68,44,6,0,0,65,19,65,52,73,41,0,0,0,49,18,45,0,0,50,65,0,0,0,0,35,34,0,0,48,0,0,6,0,0,18,38,0,35,6,0,71,0,0,0,0,0,0,0,0,0,0,0],"split_type":[0,0,0,0,0,0,0,0,0,0,0,0,0,0,0,0,0,0,0,0,0,0,0,0,0,0,0,0,0,0,0,0,0,0,0,0,0,0,0,0,0,0,0,0,0,0,0,0,0,0,0,0,0,0,0,0,0,0,0],"sum_hessian":[1.7932094E2,3.1590761E1,1.4773016E2,2.4594938E1,6.995824E0,7.3405075E1,7.4325096E1,1.7316715E1,7.278223E0,3.745045E0,3.2507792E0,5.0380505E1,2.3024572E1,1.1901569E1,6.2423523E1,7.301297E0,1.0015417E1,4.1032114E0,3.1750119E0,8.618766E0,4.1761738E1,6.1498685E0,1.6874702E1,6.7863955E0,5.1151733E0,5.41454E1,8.278125E0,3.0121152E0,4.289182E0,6.3849773E0,3.6304398E0,2.1800907E1,1.996083E1,3.0440614E0,3.1058073E0,1.2925725E1,3.9489782E0,4.6826835E0,4.9462715E1,3.2508304E0,5.0272946E0,1.439715E1,7.403758E0,4.761298E0,1.5199532E1,9.005499E0,3.9202263E0,4.3834736E1,5.62798E0,4.143012E0,1.0254138E1,3.0550578E0,4.3487E0,3.7433321E0,1.14562E1,3.8083131E0,5.1971855E0,3.938873E1,4.4460073E0],"tree_param":{"num_deleted":"0","num_feature":"82","num_nodes":"59","size_leaf_vector":"1"}},{"base_weights":[2.5740087E-2,1.372927E-1,-3.881933E-1,7.13227E-2,9.5399797E-1,8.152998E-2,-5.356457E-1,1.1584659E-1,-7.1857727E-1,5.3167492E-2,1.304946E-1,-6.818912E-1,2.8060794E-2,9.2107184E-2,6.943441E-2,-1.1169421E-1,-1.4701282E-2,-8.469525E-1,3.159758E-2,3.1519848E-1,-6.593777E-2,-1.0460438E0,-2.6310748E-1,5.1107E-2,7.537997E-1,2.9609495E-1,-3.1524515E-1,-3.1399414E-2,-1.1932699E-1,2.5980014E-2,-6.539412E-2,6.35169E-2,-3.344265E-2,3.5541166E-2,1.3869101E-1,6.7984305E-2,-9.48644E-3,-4.3797027E-2,7.0720136E-2],"categories":[],"categories_nodes":[],"categories_segments":[],"categories_sizes":[],"default_left":[0,0,0,0,0,0,0,0,0,0,0,0,0,0,0,0,0,0,0,0,0,0,0,0,0,0,0,0,0,0,0,0,0,0,0,0,0,0,0],"id":15,"left_children":[1,3,5,7,9,-1,11,13,15,-1,-1,17,-1,-1,19,-1,-1,21,-1,23,25,27,29,31,33,35,37,-1,-1,-1,-1,-1,-1,-1,-1,-1,-1,-1,-1],"loss_changes":[8.396896E0,7.6405067E0,7.290102E0,4.7770147E0,8.790884E-1,0E0,4.3703737E0,4.6898527E0,1.4888768E0,0E0,0E0,5.205654E0,0E0,0E0,4.0580797E0,0E0,0E0,2.7465992E0,0E0,4.9739933E0,7.230573E0,1.6784744E0,1.793963E0,6.5361185E0,3.5908318E0,4.9799795E0,6.2465634E0,0E0,0E0,0E0,0E0,0E0,0E0,0E0,0E0,0E0,0E0,0E0,0E0],"parents":[2147483647,0,0,1,1,2,2,3,3,4,4,6,6,7,7,8,8,11,11,14,14,17,17,19,19,20,20,21,21,22,22,23,23,24,24,25,25,26,26],"right_children":[2,4,6,8,10,-1,12,14,16,-1,-1,18,-1,-1,20,-1,-1,22,-1,24,26,28,30,32,34,36,38,-1,-1,-1,-1,-1,-1,-1,-1,-1,-1,-1,-1],"split_conditions":[3.5166374E1,2.2929167E2,6.7880206E0,5.3308587E0,8.455953E0,8.152998E-2,1.448521E1,3.8126667E1,9.0290695E-1,5.3167492E-2,1.304946E-1,1.592E1,2.8060794E-2,9.2107184E-2,4.9666668E1,-1.1169421E-1,-1.4701282E-2,2.48E2,3.159758E-2,2.0809676E2,6.3E2,4.9958332E1,4.95E1,-2.8678522E-2,7.6871843E0,2.4846468E1,4.8822334E1,-3.1399414E-2,-1.1932699E-1,2.5980014E-2,-6.539412E-2,6.35169E-2,-3.344265E-2,3.5541166E-2,1.3869101E-1,6.7984305E-2,-9.48644E-3,-4.3797027E-2,7.0720136E-2],"split_indices":[13,8,5,48,56,0,69,25,1,0,0,73,0,0,3,0,0,66,0,31,50,3,62,67,9,21,34,0,0,0,0,0,0,0,0,0,0,0,0],"split_type":[0,0,0,0,0,0,0,0,0,0,0,0,0,0,0,0,0,0,0,0,0,0,0,0,0,0,0,0,0,0,0,0,0,0,0,0,0,0,0],"sum_hessian":[1.7969383E2,1.4207404E2,3.7619793E1,1.3246169E2,9.612363E0,3.6117535E0,3.400804E1,1.26201485E2,6.2601943E0,5.5039725E0,4.108391E0,2.8980337E1,5.027703E0,5.850643E0,1.2035084E2,3.126751E0,3.1334434E0,2.4996758E1,3.9835796E0,4.227446E1,7.807638E1,1.8050045E1,6.946714E0,2.7083443E1,1.5191017E1,3.1763384E1,4.6313E1,3.5468502E0,1.4503194E1,3.1147144E0,3.8319995E0,1.0511538E1,1.6571905E1,1.0282238E1,4.9087787E0,1.56566305E1,1.6106752E1,4.1860134E1,4.452863E0],"tree_param":{"num_deleted":"0","num_feature":"82","num_nodes":"39","size_leaf_vector":"1"}},{"base_weights":[6.4728837E-3,7.358436E-2,-3.5549742E-1,1.0130574E-2,6.071896E-1,8.4755264E-2,-5.623895E-1,6.545358E-2,-9.061321E-2,-1.7454153E-2,8.620901E-1,7.7800065E-2,-8.902876E-1,1.2009782E-1,-5.2579033E-1,1.0783905E0,1.7998472E-2,6.801953E-2,-5.8654703E-2,-1.0516852E-1,-2.3624985E-2,1.5944289E-1,-7.079735E-2,-1.0016029E-1,1.0824781E-2,1.2998776E-1,4.8160966E-2,-1.09042704E-1,2.9324433E-1,-2.2851108E-2,8.721828E-2,1.766684E-2,9.0250365E-2],"categories":[],"categories_nodes":[],"categories_segments":[],"categories_sizes":[],"default_left":[0,0,0,0,0,0,0,0,0,0,0,0,0,0,0,0,0,0,0,0,0,0,0,0,0,0,0,0,0,0,0,0,0],"id":16,"left_children":[1,3,5,7,9,-1,11,13,-1,-1,15,17,19,21,23,25,-1,-1,-1,-1,-1,27,-1,-1,-1,-1,-1,29,31,-1,-1,-1,-1],"loss_changes":[4.3065343E0,5.0548506E0,7.3789015E0,6.8824005E0,3.3124795E0,0E0,5.162433E0,4.1944246E0,0E0,0E0,1.5962849E0,4.0558343E0,1.4537163E0,3.9530525E0,3.428228E0,5.6529236E-1,0E0,0E0,0E0,0E0,0E0,4.103467E0,0E0,0E0,0E0,0E0,0E0,4.703695E0,5.2321997E0,0E0,0E0,0E0,0E0],"parents":[2147483647,0,0,1,1,2,2,3,3,4,4,6,6,7,7,10,10,11,11,12,12,13,13,14,14,15,15,21,21,27,27,28,28],"right_children":[2,4,6,8,10,-1,12,14,-1,-1,16,18,20,22,24,26,-1,-1,-1,-1,-1,28,-1,-1,-1,-1,-1,30,32,-1,-1,-1,-1],"split_conditions":[4.046019E1,1.01755835E3,6.7880206E0,7.603942E1,7.216884E-1,8.4755264E-2,8.351153E2,1.02022835E2,-9.061321E-2,-1.7454153E-2,2.375206E0,1.8090909E0,2.52E1,2.813948E1,8.666336E2,1.9467878E-3,1.7998472E-2,6.801953E-2,-5.8654703E-2,-1.0516852E-1,-2.3624985E-2,1.6566769E1,-7.079735E-2,-1.0016029E-1,1.0824781E-2,1.2998776E-1,4.8160966E-2,3.6929855E1,3.35307E-2,-2.2851108E-2,8.721828E-2,1.766684E-2,9.0250365E-2],"split_indices":[13,33,5,25,58,0,52,24,0,0,48,1,36,7,52,54,0,0,0,0,0,5,0,0,0,0,0,65,67,0,0,0,0],"split_type":[0,0,0,0,0,0,0,0,0,0,0,0,0,0,0,0,0,0,0,0,0,0,0,0,0,0,0,0,0,0,0,0,0],"sum_hessian":[1.752025E2,1.4847166E2,2.673083E1,1.336032E2,1.4868468E1,3.4680402E0,2.3262789E1,1.2687139E2,6.731801E0,3.733572E0,1.1134896E1,8.137612E0,1.5125177E1,1.1686712E2,1.0004278E1,8.012958E0,3.1219387E0,4.2552857E0,3.8823266E0,1.1643827E1,3.4813502E0,1.12336975E2,4.530137E0,5.384084E0,4.620194E0,4.9847765E0,3.0281813E0,3.7425045E1,7.4911934E1,3.4046818E1,3.3782282E0,6.3963165E1,1.0948767E1],"tree_param":{"num_deleted":"0","num_feature":"82","num_nodes":"33","size_leaf_vector":"1"}},{"base_weights":[1.0375689E-2,-5.20198E-2,5.510865E-1,-1.0158881E-1,-1.9779947E-2,-4.4735596E-2,8.18175E-1,1.6199386E-1,-1.8823007E-1,1.24751E0,1.0666318E-2,1.09024994E-1,9.800867E-2,-4.6982702E-2,-6.96795E-1,5.666687E-2,1.4992419E-1,5.2830744E-1,-5.9466355E-2,1.9314562E-1,-4.112717E-1,-5.1182965E-3,-9.8802465E-1,7.7479947E-1,5.2624848E-2,-4.2171115E-1,2.8909057E-1,3.063109E-1,-8.281403E-2,2.0917712E-1,-7.117632E-1,-1.1422687E-1,-5.218162E-2,-8.61835E-3,1.1406255E-1,5.2494247E-2,-4.011848E-2,-6.616413E-2,2.570116E-2,1.0563357E-1,3.3501887E-3,6.767874E-2,-1.3670923E-2,7.954837E-2,-3.535123E-2,-1.0885371E-1,-2.8512811E-2],"categories":[],"categories_nodes":[],"categories_segments":[],"categories_sizes":[],"default_left":[0,0,0,0,0,0,0,0,0,0,0,0,0,0,0,0,0,0,0,0,0,0,0,0,0,0,0,0,0,0,0,0,0,0,0,0,0,0,0,0,0,0,0,0,0,0,0],"id":17,"left_children":[1,3,5,-1,7,-1,9,11,13,15,-1,-1,17,19,21,-1,-1,23,25,27,29,-1,31,33,35,37,39,41,-1,43,45,-1,-1,-1,-1,-1,-1,-1,-1,-1,-1,-1,-1,-1,-1,-1,-1],"loss_changes":[5.9291115E0,4.8807626E0,5.214093E0,0E0,4.734497E0,0E0,4.356389E0,4.313789E0,5.7281513E0,7.053232E-1,0E0,0E0,4.824006E0,5.663719E0,3.2134838E0,0E0,0E0,2.192915E0,6.77309E0,4.779111E0,4.936956E0,0E0,2.603054E-1,4.0276227E0,1.834266E0,4.4428205E0,5.345393E0,5.9979067E0,0E0,3.3006883E0,2.507351E0,0E0,0E0,0E0,0E0,0E0,0E0,0E0,0E0,0E0,0E0,0E0,0E0,0E0,0E0,0E0,0E0],"parents":[2147483647,0,0,1,1,2,2,4,4,6,6,7,7,8,8,9,9,12,12,13,13,14,14,17,17,18,18,19,19,20,20,22,22,23,23,24,24,25,25,26,26,27,27,29,29,30,30],"right_children":[2,4,6,-1,8,-1,10,12,14,16,-1,-1,18,20,22,-1,-1,24,26,28,30,-1,32,34,36,38,40,42,-1,44,46,-1,-1,-1,-1,-1,-1,-1,-1,-1,-1,-1,-1,-1,-1,-1,-1],"split_conditions":[2.3854167E2,9.723713E2,8.271519E2,-1.0158881E-1,5.55E1,-4.4735596E-2,2.9761905E-2,-4.1994E3,1.01932306E3,3.7801814E0,1.0666318E-2,1.09024994E-1,-3.589453E-2,7.1614466E0,3.340871E1,5.666687E-2,1.4992419E-1,6.144904E1,1.78533E2,8.670197E0,1.5350417E2,-5.1182965E-3,1.8801786E1,5.0629E1,9.366667E0,8.696588E0,1.88875E2,6.509002E1,-8.281403E-2,6.996435E-2,9.638128E0,-1.1422687E-1,-5.218162E-2,-8.61835E-3,1.1406255E-1,5.2494247E-2,-4.011848E-2,-6.616413E-2,2.570116E-2,1.0563357E-1,3.3501887E-3,6.767874E-2,-1.3670923E-2,7.954837E-2,-3.535123E-2,-1.0885371E-1,-2.8512811E-2],"split_indices":[42,68,52,0,3,0,41,54,68,56,0,0,67,56,34,0,0,6,42,45,28,0,7,6,30,64,42,25,0,41,56,0,0,0,0,0,0,0,0,0,0,0,0,0,0,0,0],"split_type":[0,0,0,0,0,0,0,0,0,0,0,0,0,0,0,0,0,0,0,0,0,0,0,0,0,0,0,0,0,0,0,0,0,0,0,0,0,0,0,0,0,0,0,0,0,0,0],"sum_hessian":[1.7389061E2,1.5671072E2,1.717989E1,4.084579E0,1.5262614E2,3.483348E0,1.3696542E1,7.34283E1,7.919784E1,8.072297E0,5.6242447E0,3.7007728E0,6.972753E1,6.2837826E1,1.6360016E1,3.0565486E0,5.0157485E0,1.8050333E1,5.1677197E1,3.8156204E1,2.468162E1,5.4512253E0,1.0908791E1,1.147522E1,6.5751133E0,2.5238108E1,2.6439089E1,3.4980236E1,3.1759694E0,8.152462E0,1.6529156E1,7.10725E0,3.8015406E0,3.6497748E0,7.8254447E0,3.1450503E0,3.430063E0,1.8665113E1,6.5729947E0,5.8238053E0,2.0615284E1,1.876244E1,1.6217796E1,3.7898395E0,4.3626227E0,7.9536276E0,8.575529E0],"tree_param":{"num_deleted":"0","num_feature":"82","num_nodes":"47","size_leaf_vector":"1"}},{"base_weights":[-1.3761732E-2,6.104275E-1,-5.9155777E-2,1.0800948E0,-3.0404491E-2,-1.6713616E-1,2.174567E-1,1.2631877E-1,5.8233183E-2,4.4240266E-1,-2.2727408E-1,-1.4757863E-1,5.47577E-1,-3.246596E-2,9.181666E-1,-9.1069245E-1,-1.6772197E-1,-4.7910866E-1,5.0133723E-1,7.6782376E-1,-2.803698E-2,1.3596256E-1,2.3834942E-2,-4.8041236E-2,-1.0912844E-1,-2.2788076E-1,5.650351E-1,-1.1520135E-2,-8.7546974E-1,1.10355854E-1,-6.5721883E-3,1.2126431E0,2.4354018E-1,-1.2066389E-2,-4.3139142E-1,1.07162155E-1,-1.2079542E-2,-5.7579007E-2,5.047946E-2,-1.1639207E-1,-2.6589999E-2,5.910727E-2,1.5268233E-1,7.8548804E-2,-5.545596E-2,2.6149834E-2,-3.203564E-2,3.737868E-2,-5.147451E-2],"categories":[],"categories_nodes":[],"categories_segments":[],"categories_sizes":[],"default_left":[0,0,0,0,0,0,0,0,0,0,0,0,0,0,0,0,0,0,0,0,0,0,0,0,0,0,0,0,0,0,0,0,0,0,0,0,0,0,0,0,0,0,0,0,0,0,0,0,0],"id":18,"left_children":[1,3,5,7,-1,9,11,-1,-1,13,15,17,19,-1,21,23,25,27,29,31,-1,-1,-1,-1,-1,33,35,37,39,-1,-1,41,43,45,47,-1,-1,-1,-1,-1,-1,-1,-1,-1,-1,-1,-1,-1,-1],"loss_changes":[5.0249844E0,5.4930973E0,4.966053E0,8.475304E-3,0E0,4.4726305E0,5.7173095E0,0E0,0E0,4.3307505E0,4.29248E0,5.1882906E0,4.732839E0,0E0,1.801115E0,1.3846827E-1,4.6115723E0,2.9059641E0,2.8952963E0,4.330611E0,0E0,0E0,0E0,0E0,0E0,4.1536365E0,2.9099085E0,2.6889045E0,1.1854749E0,0E0,0E0,1.1440926E0,4.9148474E0,4.046333E0,3.4612541E0,0E0,0E0,0E0,0E0,0E0,0E0,0E0,0E0,0E0,0E0,0E0,0E0,0E0,0E0],"parents":[2147483647,0,0,1,1,2,2,3,3,5,5,6,6,9,9,10,10,11,11,12,12,14,14,15,15,16,16,17,17,18,18,19,19,25,25,26,26,27,27,28,28,31,31,32,32,33,33,34,34],"right_children":[2,4,6,8,-1,10,12,-1,-1,14,16,18,20,-1,22,24,26,28,30,32,-1,-1,-1,-1,-1,34,36,38,40,-1,-1,42,44,46,48,-1,-1,-1,-1,-1,-1,-1,-1,-1,-1,-1,-1,-1,-1],"split_conditions":[5.6294584E0,8.695652E-3,2.0079166E1,3.246594E1,-3.0404491E-2,8.563E2,1.0683761E-3,1.2631877E-1,5.8233183E-2,1.6878946E2,8.785871E2,1.9877083E2,2.07275E2,-3.246596E-2,3.2124127E-4,3.0711712E1,2.544292E1,4.2041668E1,1.0668441E0,4.4270832E-2,-2.803698E-2,1.3596256E-1,2.3834942E-2,-4.8041236E-2,-1.0912844E-1,3.3243912E2,1.1852478E1,1.4775952E1,2.5486683E1,1.10355854E-1,-6.5721883E-3,2.2865226E-4,5.757353E1,6.161623E1,8.669128E0,1.07162155E-1,-1.2079542E-2,-5.7579007E-2,5.047946E-2,-1.1639207E-1,-2.6589999E-2,5.910727E-2,1.5268233E-1,7.8548804E-2,-5.545596E-2,2.6149834E-2,-3.203564E-2,3.737868E-2,-5.147451E-2],"split_indices":[14,17,32,65,0,19,41,0,0,31,19,42,42,0,46,65,7,3,55,41,0,0,0,0,0,38,1,0,13,0,0,46,61,25,14,0,0,0,0,0,0,0,0,0,0,0,0,0,0],"split_type":[0,0,0,0,0,0,0,0,0,0,0,0,0,0,0,0,0,0,0,0,0,0,0,0,0,0,0,0,0,0,0,0,0,0,0,0,0,0,0,0,0,0,0,0,0,0,0,0,0],"sum_hessian":[1.750708E2,1.1024974E1,1.6404584E2,7.1643143E0,3.8606598E0,1.1827209E2,4.577375E1,4.113508E0,3.0508063E0,1.00501795E1,1.082219E2,2.1999947E1,2.3773802E1,3.9688716E0,6.081308E0,7.5288363E0,1.0069307E2,1.4734032E1,7.265914E0,1.8835804E1,4.9379992E0,3.080748E0,3.00056E0,3.3078141E0,4.2210217E0,9.3690186E1,7.002883E0,7.2317624E0,7.5022697E0,3.0648794E0,4.2010345E0,9.479841E0,9.355962E0,4.598468E1,4.7705505E1,3.7042408E0,3.2986422E0,3.4003725E0,3.83139E0,4.475182E0,3.0270877E0,4.1502833E0,5.329558E0,5.5815954E0,3.774367E0,2.4444948E1,2.1539732E1,4.1484127E0,4.355709E1],"tree_param":{"num_deleted":"0","num_feature":"82","num_nodes":"49","size_leaf_vector":"1"}},{"base_weights":[9.422677E-3,-8.717704E-2,3.636161E-1,4.9853802E-1,-1.4012323E-1,4.834193E-1,-3.5760473E-2,1.06732324E-1,-1.6885221E-2,-1.8269368E-1,6.7047946E-2,6.061286E-1,-2.8903944E-2,-2.1713014E-1,6.267502E-2,9.6930176E-1,2.6948988E-1,-6.6182446E-1,-1.4611238E-1,5.299906E-1,1.4254124E-1,-3.8958255E-2,6.549112E-1,-5.030062E-4,-8.6453575E-1,-2.6945728E-1,1.8062617E-1,2.0913163E-3,9.328803E-2,6.7962497E-3,9.707835E-2,-2.6435867E-2,-1.0389435E-1,-1.881394E-2,-9.245648E-2,5.3276207E-2,-2.341028E-2],"categories":[],"categories_nodes":[],"categories_segments":[],"categories_sizes":[],"default_left":[0,0,0,0,0,0,0,0,0,0,0,0,0,0,0,0,0,0,0,0,0,0,0,0,0,0,0,0,0,0,0,0,0,0,0,0,0],"id":19,"left_children":[1,3,5,7,9,11,-1,-1,-1,13,-1,15,-1,17,-1,19,21,23,25,27,-1,-1,29,-1,31,33,35,-1,-1,-1,-1,-1,-1,-1,-1,-1,-1],"loss_changes":[5.91378E0,4.283761E0,3.3726797E0,4.5396843E0,4.4496994E0,3.2257285E0,0E0,0E0,0E0,3.4789805E0,0E0,3.1735067E0,0E0,3.559641E0,0E0,1.8753242E0,4.31051E0,2.080614E0,4.1237993E0,1.6786757E0,0E0,0E0,1.8708467E0,0E0,9.773474E-1,3.7578735E0,4.259054E0,0E0,0E0,0E0,0E0,0E0,0E0,0E0,0E0,0E0,0E0],"parents":[2147483647,0,0,1,1,2,2,3,3,4,4,5,5,9,9,11,11,13,13,15,15,16,16,17,17,18,18,19,19,22,22,24,24,25,25,26,26],"right_children":[2,4,6,8,10,12,-1,-1,-1,14,-1,16,-1,18,-1,20,22,24,26,28,-1,-1,30,-1,32,34,36,-1,-1,-1,-1,-1,-1,-1,-1,-1,-1],"split_conditions":[1.7669565E2,6.0461335E0,7.3125E1,1.2457627E-1,1.71375E1,-1.176E2,-3.5760473E-2,1.06732324E-1,-1.6885221E-2,2.653089E2,6.7047946E-2,1.7072336E1,-2.8903944E-2,4.658382E-1,6.267502E-2,8.958333E-1,1.7774579E2,-1.247E2,1.4733793E1,2.1442455E2,1.4254124E-1,-3.8958255E-2,8.591305E0,-5.030062E-4,6.468842E1,4.6863346E0,1.9711042E1,2.0913163E-3,9.328803E-2,6.7962497E-3,9.707835E-2,-2.6435867E-2,-1.0389435E-1,-1.881394E-2,-9.245648E-2,5.3276207E-2,-2.341028E-2],"split_indices":[8,14,3,49,30,59,0,0,0,71,0,57,0,48,0,39,71,59,0,8,0,0,27,0,6,48,14,0,0,0,0,0,0,0,0,0,0],"split_type":[0,0,0,0,0,0,0,0,0,0,0,0,0,0,0,0,0,0,0,0,0,0,0,0,0,0,0,0,0,0,0,0,0,0,0,0,0],"sum_hessian":[1.7091536E2,1.3488252E2,3.6032845E1,1.0484312E1,1.2439821E2,3.1182747E1,4.8500977E0,5.3367786E0,5.1475334E0,1.18927124E2,5.4710803E0,2.7094036E1,4.0887094E0,1.14775925E2,4.1511993E0,1.2129313E1,1.4964724E1,1.4659969E1,1.0011596E2,7.27971E0,4.849604E0,5.518044E0,9.446679E0,3.6991994E0,1.0960771E1,7.280655E1,2.7309406E1,3.6807492E0,3.5989604E0,3.7302842E0,5.716395E0,3.0344126E0,7.9263577E0,6.5912125E1,6.8944235E0,1.4615312E1,1.2694096E1],"tree_param":{"num_deleted":"0","num_feature":"82","num_nodes":"37","size_leaf_vector":"1"}},{"base_weights":[4.7221426E-2,2.1448064E-1,-1.2901944E-1,-4.564776E-2,4.1037664E-1,3.6640236E-1,-2.5729886E-1,5.499542E-1,-2.2788475E-1,4.2003047E-2,6.4781827E-1,-6.0831435E-2,6.004176E-1,-3.9679387E-1,3.6064932E-1,2.561645E-3,9.3134224E-2,-3.9996323E-1,4.0529022E-1,-2.1514876E-1,7.591074E-2,7.8382266E-1,-2.1986126E-3,-1.8622441E-2,1.0214497E0,-5.758208E-1,-4.1550887E-3,-2.6981413E-2,5.950734E-1,-5.2777624E-1,4.022113E-2,8.369332E-2,-1.4199366E-2,-4.1083685E-1,4.662604E-2,1.2102037E-2,9.270783E-1,1.3548383E-1,2.2832057E-2,-6.616235E-1,2.9724253E-2,-3.507471E-1,6.399998E-2,1.7049095E-2,1.01203375E-1,-2.6748115E-1,-1.1314982E-1,-8.205453E-1,1.3344883E-2,2.9624432E-2,1.1255306E0,5.9629545E-2,-8.154453E-1,2.446842E-2,-8.141255E-2,-5.277881E-2,5.4173257E-2,-1.0228377E-1,-4.0331703E-2,4.790971E-2,1.2534617E-1,7.312964E-2,-6.2194522E-2,-6.3173966E-3,-9.0820245E-2],"categories":[],"categories_nodes":[],"categories_segments":[],"categories_sizes":[],"default_left":[0,0,0,0,0,0,0,0,0,0,0,0,0,0,0,0,0,0,0,0,0,0,0,0,0,0,0,0,0,0,0,0,0,0,0,0,0,0,0,0,0,0,0,0,0,0,0,0,0,0,0,0,0,0,0,0,0,0,0,0,0,0,0,0,0],"id":20,"left_children":[1,3,5,7,9,11,13,15,17,19,21,-1,23,25,27,-1,-1,29,31,33,-1,35,-1,-1,37,39,41,-1,43,45,-1,-1,-1,47,-1,-1,49,-1,-1,51,-1,53,-1,-1,-1,55,-1,57,-1,-1,59,61,63,-1,-1,-1,-1,-1,-1,-1,-1,-1,-1,-1,-1],"loss_changes":[5.208288E0,4.6327925E0,5.5724697E0,4.444824E0,4.499218E0,4.503315E0,6.0959516E0,1.8992438E0,3.5592835E0,4.100747E0,2.877468E0,0E0,5.2021523E0,3.991372E0,2.1176672E0,0E0,0E0,2.7775245E0,1.8101555E0,2.3911195E0,0E0,2.3684597E0,0E0,0E0,2.3378E0,3.1193876E0,4.421787E0,0E0,1.591558E0,3.1567163E0,0E0,0E0,0E0,3.0858073E0,0E0,0E0,2.3371964E0,0E0,0E0,4.024272E0,0E0,3.7499757E0,0E0,0E0,0E0,3.8018706E0,0E0,2.4198103E-1,0E0,0E0,7.119293E-1,3.7650704E0,2.0083256E0,0E0,0E0,0E0,0E0,0E0,0E0,0E0,0E0,0E0,0E0,0E0,0E0],"parents":[2147483647,0,0,1,1,2,2,3,3,4,4,5,5,6,6,7,7,8,8,9,9,10,10,12,12,13,13,14,14,17,17,18,18,19,19,21,21,24,24,25,25,26,26,28,28,29,29,33,33,36,36,39,39,41,41,45,45,47,47,50,50,51,51,52,52],"right_children":[2,4,6,8,10,12,14,16,18,20,22,-1,24,26,28,-1,-1,30,32,34,-1,36,-1,-1,38,40,42,-1,44,46,-1,-1,-1,48,-1,-1,50,-1,-1,52,-1,54,-1,-1,-1,56,-1,58,-1,-1,60,62,64,-1,-1,-1,-1,-1,-1,-1,-1,-1,-1,-1,-1],"split_conditions":[5.7565216E1,6.575E0,5.541667E-1,4.579167E0,3.420728E1,8.2654376E2,2.2556638E2,3.5733665E1,1.9104167E2,2.128125E1,1.07375E1,-6.0831435E-2,5.782714E0,8.074413E1,1.6986458E2,2.561645E-3,9.3134224E-2,2.2966635E2,3.1691555E1,8.45E0,7.591074E-2,6.7689285E0,-2.1986126E-3,-1.8622441E-2,7.225E1,1.0210621E2,1.4829074E1,-2.6981413E-2,7.686078E1,2.1841667E1,4.022113E-2,8.369332E-2,-1.4199366E-2,1.7647192E1,4.662604E-2,1.2102037E-2,8.430162E2,1.3548383E-1,2.2832057E-2,4.2604165E0,2.9724253E-2,3.9195075E0,6.399998E-2,1.7049095E-2,1.01203375E-1,1.2722222E1,-1.1314982E-1,1.8534956E2,1.3344883E-2,2.9624432E-2,4.087318E1,5.5625E0,1.0091586E2,2.446842E-2,-8.141255E-2,-5.277881E-2,5.4173257E-2,-1.0228377E-1,-4.0331703E-2,4.790971E-2,1.2534617E-1,7.312964E-2,-6.2194522E-2,-6.3173966E-3,-9.0820245E-2],"split_indices":[3,44,15,44,34,52,70,34,8,23,44,0,29,6,31,0,0,70,65,1,0,9,0,0,3,24,14,0,6,32,0,0,0,15,0,0,52,0,0,58,0,29,0,0,0,30,0,31,0,0,35,44,24,0,0,0,0,0,0,0,0,0,0,0,0],"split_type":[0,0,0,0,0,0,0,0,0,0,0,0,0,0,0,0,0,0,0,0,0,0,0,0,0,0,0,0,0,0,0,0,0,0,0,0,0,0,0,0,0,0,0,0,0,0,0,0,0,0,0,0,0,0,0,0,0,0,0,0,0,0,0,0,0],"sum_hessian":[1.7474571E2,8.954611E1,8.519961E1,3.8796112E1,5.075E1,1.7141596E1,6.8058014E1,8.616654E0,3.0179457E1,2.0352093E1,3.0397907E1,3.009018E0,1.4132579E1,5.581604E1,1.2241971E1,4.077717E0,4.5389376E0,2.4019876E1,6.15958E0,1.5495442E1,4.8566504E0,2.5125854E1,5.2720537E0,5.1214786E0,9.0111E0,3.8015854E1,1.7800184E1,3.2772152E0,8.964756E0,2.1013756E1,3.0061204E0,3.1477222E0,3.011858E0,1.2346759E1,3.1486833E0,4.7933235E0,2.0332531E1,5.845676E0,3.1654243E0,3.483457E1,3.181283E0,1.1869312E1,5.9308734E0,5.1398444E0,3.824912E0,1.5691437E1,5.322319E0,6.754658E0,5.5921006E0,5.462206E0,1.4870324E1,6.230905E0,2.8603666E1,5.4010434E0,6.4682684E0,1.2135485E1,3.5559525E0,3.5715117E0,3.1831467E0,3.2405975E0,1.1629726E1,3.10152E0,3.1293848E0,3.3242986E0,2.527937E1],"tree_param":{"num_deleted":"0","num_feature":"82","num_nodes":"65","size_leaf_vector":"1"}},{"base_weights":[3.0027129E-2,3.8580984E-1,-4.7044087E-2,7.008223E-1,-8.361758E-2,-9.881181E-2,-1.2401709E-2,-1.4540176E-2,9.588067E-1,-5.945607E-1,4.5264132E-2,-3.5006896E-1,7.678891E-2,1.1889194E0,2.9882072E-2,-8.65448E-2,-1.7873334E-2,-3.6152562E-3,-8.6206424E-1,4.9838874E-1,-2.9163964E-2,5.886023E-2,1.4554296E-1,3.1453022E-1,-9.4369866E-2,-1.1407914E-1,-7.223314E-3,-5.377218E-2,7.874575E-1,-1.2739344E-1,7.9403156E-1,5.9344214E-1,-4.267825E-2,1.0184042E0,-1.8865274E-2,-2.2778736E-1,3.7917328E-1,1.1597103E-1,1.9245232E-2,-4.815964E-3,9.298691E-2,4.0426567E-2,1.330438E-1,1.9989586E-2,-3.4642905E-2,7.871715E-2,-1.3925256E-2],"categories":[],"categories_nodes":[],"categories_segments":[],"categories_sizes":[],"default_left":[0,0,0,0,0,0,0,0,0,0,0,0,0,0,0,0,0,0,0,0,0,0,0,0,0,0,0,0,0,0,0,0,0,0,0,0,0,0,0,0,0,0,0,0,0,0,0],"id":21,"left_children":[1,3,5,7,9,-1,11,-1,13,15,-1,17,19,21,-1,-1,-1,23,25,27,29,-1,-1,31,-1,-1,-1,-1,33,35,37,39,-1,41,-1,43,45,-1,-1,-1,-1,-1,-1,-1,-1,-1,-1],"loss_changes":[4.714316E0,4.5840163E0,4.6060495E0,4.1607494E0,3.8811793E0,0E0,4.172281E0,0E0,1.808609E0,6.5442395E-1,0E0,5.1303806E0,4.9149847E0,7.7986336E-1,0E0,0E0,0E0,5.7594953E0,2.4879332E0,7.038973E0,7.2668276E0,0E0,0E0,3.2298996E0,0E0,0E0,0E0,0E0,4.176738E0,4.156432E0,1.8854218E0,2.3930478E0,0E0,2.2312412E0,0E0,3.4901109E0,2.988935E0,0E0,0E0,0E0,0E0,0E0,0E0,0E0,0E0,0E0,0E0],"parents":[2147483647,0,0,1,1,2,2,3,3,4,4,6,6,8,8,9,9,11,11,12,12,13,13,17,17,18,18,19,19,20,20,23,23,28,28,29,29,30,30,31,31,33,33,35,35,36,36],"right_children":[2,4,6,8,10,-1,12,-1,14,16,-1,18,20,22,-1,-1,-1,24,26,28,30,-1,-1,32,-1,-1,-1,-1,34,36,38,40,-1,42,-1,44,46,-1,-1,-1,-1,-1,-1,-1,-1,-1,-1],"split_conditions":[5.541667E-1,2.0977954E2,9.723713E2,3.027759E1,1.9097292E2,-9.881181E-2,1.0125146E2,-1.4540176E-2,8.960571E0,5.838881E1,4.5264132E-2,6.4333336E1,1.0138957E2,1.4455113E2,2.9882072E-2,-8.65448E-2,-1.7873334E-2,1.0116035E2,9.097826E0,2.6331968E0,7.988426E2,5.886023E-2,1.4554296E-1,5.694973E0,-9.4369866E-2,-1.1407914E-1,-7.223314E-3,-5.377218E-2,2.6269737E1,1.6273252E1,6.477378E1,1.9135096E1,-4.267825E-2,9.039792E2,-1.8865274E-2,7.1E0,1.0163671E2,1.1597103E-1,1.9245232E-2,-4.815964E-3,9.298691E-2,4.0426567E-2,1.330438E-1,1.9989586E-2,-3.4642905E-2,7.871715E-2,-1.3925256E-2],"split_indices":[15,70,68,65,71,0,24,0,56,35,0,3,24,8,0,0,0,24,51,15,15,0,0,37,0,0,0,0,55,0,6,5,0,19,0,0,24,0,0,0,0,0,0,0,0,0,0],"split_type":[0,0,0,0,0,0,0,0,0,0,0,0,0,0,0,0,0,0,0,0,0,0,0,0,0,0,0,0,0,0,0,0,0,0,0,0,0,0,0,0,0,0,0,0,0,0,0],"sum_hessian":[1.7026411E2,2.9602882E1,1.4066122E2,1.7420086E1,1.21827965E1,4.0169086E0,1.3664432E2,4.171941E0,1.3248144E1,6.1829824E0,5.9998145E0,2.7940245E1,1.0870408E2,9.228928E0,4.0192165E0,3.089249E0,3.0937333E0,1.7264723E1,1.0675522E1,2.108808E1,8.7616E1,3.8239636E0,5.404964E0,1.3396475E1,3.868247E0,7.562431E0,3.1130905E0,4.4124236E0,1.6675655E1,7.903074E1,8.5852585E0,9.879048E0,3.5174272E0,1.3450057E1,3.225599E0,6.6418015E1,1.2612722E1,4.7625165E0,3.8227425E0,3.6929848E0,6.1860633E0,5.304812E0,8.145245E0,1.4274822E1,5.2143196E1,6.767976E0,5.8447466E0],"tree_param":{"num_deleted":"0","num_feature":"82","num_nodes":"47","size_leaf_vector":"1"}},{"base_weights":[2.4855064E-2,-2.490106E-2,4.4867265E-1,-5.413463E-1,1.5839288E-2,-3.299138E-2,8.173034E-1,-8.3545023E-1,2.302747E-4,-3.127672E-2,5.8394605E-1,5.0591E-1,1.2535147E-1,-1.0093182E-1,-4.584591E-2,-6.6589993E-1,2.648094E-2,1.0136895E0,-3.5256553E-2,1.10034704E-1,-1.7655162E-2,-9.71963E-2,-3.9505023E-3,-5.0120898E-2,6.1475676E-1,1.3623168E-1,3.6319323E-2,1.302316E-1,-3.3265117E-1,8.809064E-1,5.7742475E-3,4.106347E-2,-1.2539133E-2,3.0953089E-2,-5.2859206E-2,1.1089452E-1,4.129678E-2],"categories":[],"categories_nodes":[],"categories_segments":[],"categories_sizes":[],"default_left":[0,0,0,0,0,0,0,0,0,0,0,0,0,0,0,0,0,0,0,0,0,0,0,0,0,0,0,0,0,0,0,0,0,0,0,0,0],"id":22,"left_children":[1,3,5,7,9,-1,11,13,-1,15,17,19,-1,-1,-1,21,23,25,-1,-1,-1,-1,-1,27,29,-1,-1,31,33,35,-1,-1,-1,-1,-1,-1,-1],"loss_changes":[3.5045862E0,3.1478643E0,5.280265E0,1.7507906E0,3.7460039E0,0E0,1.0142851E0,2.7041435E-3,0E0,4.766215E0,4.670307E0,3.7470994E0,0E0,0E0,0E0,2.040803E0,5.4250836E0,1.2295876E0,0E0,0E0,0E0,0E0,0E0,5.48727E0,2.0048819E0,0E0,0E0,4.7771587E0,5.436966E0,5.358348E-1,0E0,0E0,0E0,0E0,0E0,0E0,0E0],"parents":[2147483647,0,0,1,1,2,2,3,3,4,4,6,6,7,7,9,9,10,10,11,11,15,15,16,16,17,17,23,23,24,24,27,27,28,28,29,29],"right_children":[2,4,6,8,10,-1,12,14,-1,16,18,20,-1,-1,-1,22,24,26,-1,-1,-1,-1,-1,28,30,-1,-1,32,34,36,-1,-1,-1,-1,-1,-1,-1],"split_conditions":[2.4803508E2,-4.1502404E-1,1.9558567E-4,1.0361522E-2,2.625E0,-3.299138E-2,1.4294409E1,6.3064394E0,2.302747E-4,5.436627E-2,4.7368422E-2,9.2E0,1.2535147E-1,-1.0093182E-1,-4.584591E-2,1.9920492E1,1.56E1,1.8854141E2,-3.5256553E-2,1.10034704E-1,-1.7655162E-2,-9.71963E-2,-3.9505023E-3,4.906979E0,5.1718056E1,1.3623168E-1,3.6319323E-2,5.7199073E0,8.011967E2,2.1143272E0,5.7742475E-3,4.106347E-2,-1.2539133E-2,3.0953089E-2,-5.2859206E-2,1.1089452E-1,4.129678E-2],"split_indices":[71,53,46,67,39,0,0,37,0,58,43,30,0,0,0,13,30,71,0,0,0,0,0,45,35,0,0,51,52,48,0,0,0,0,0,0,0],"split_type":[0,0,0,0,0,0,0,0,0,0,0,0,0,0,0,0,0,0,0,0,0,0,0,0,0,0,0,0,0,0,0,0,0,0,0,0,0],"sum_hessian":[1.6466261E2,1.4820465E2,1.6457958E1,9.937986E0,1.3826666E2,5.322119E0,1.1135839E1,6.1008153E0,3.8371716E0,1.2855028E2,9.716389E0,7.757709E0,3.3781307E0,3.027319E0,3.073496E0,9.84519E0,1.18705086E2,6.6036954E0,3.112693E0,3.8189821E0,3.938727E0,6.2430787E0,3.602111E0,1.0583825E2,1.28668375E1,3.5870028E0,3.0166926E0,6.4929634E1,4.090862E1,8.313192E0,4.5536447E0,3.0674803E1,3.425483E1,9.4283085E0,3.148031E1,4.668337E0,3.6448562E0],"tree_param":{"num_deleted":"0","num_feature":"82","num_nodes":"37","size_leaf_vector":"1"}},{"base_weights":[3.193509E-2,3.2831508E-1,-5.581148E-2,-4.7044482E-2,4.59968E-1,1.4171481E-1,-2.2653978E-1,6.201007E-1,-3.398531E-2,-1.2571249E-2,5.152842E-1,-2.965482E-1,5.6297142E-2,-1.1148556E-2,7.485019E-1,-5.654203E-1,1.4817558E-1,-2.0839632E-2,7.672083E-1,5.9102077E-2,-3.6863422E-1,2.0408274E-3,8.699118E-1,4.7310344E-3,-8.835307E-2,4.1262057E-1,-3.0194175E-1,-4.3916967E-4,1.0230736E0,-6.179189E-1,-6.4143404E-2,1.1305873E0,2.7168283E-1,8.1978136E-1,-1.3894309E-2,5.0676137E-2,-7.126886E-1,3.333224E-2,1.2662332E-1,2.4319911E-2,-7.4175566E-1,4.345852E-1,-3.8729373E-1,1.2727296E-1,4.6402622E-2,7.567242E-2,-2.141702E-2,-7.7329013E-3,1.1464395E-1,-6.739403E-2,3.13828E-2,-1.0888815E-1,-6.4647133E-3,3.7022244E-2,-8.819042E-2,1.0598393E-1,-4.621042E-3,1.2522506E-2,-7.713837E-2],"categories":[],"categories_nodes":[],"categories_segments":[],"categories_sizes":[],"default_left":[0,0,0,0,0,0,0,0,0,0,0,0,0,0,0,0,0,0,0,0,0,0,0,0,0,0,0,0,0,0,0,0,0,0,0,0,0,0,0,0,0,0,0,0,0,0,0,0,0,0,0,0,0,0,0,0,0,0,0],"id":23,"left_children":[1,3,5,-1,7,9,11,13,-1,15,17,19,-1,-1,21,23,25,-1,27,-1,29,-1,31,-1,-1,33,35,-1,37,39,41,43,45,47,49,-1,51,-1,-1,-1,53,55,57,-1,-1,-1,-1,-1,-1,-1,-1,-1,-1,-1,-1,-1,-1,-1,-1],"loss_changes":[4.490215E0,4.3622847E0,4.5351453E0,0E0,4.6104603E0,3.609983E0,4.1469936E0,2.8053226E0,0E0,4.102706E0,3.4958458E0,4.4916763E0,0E0,0E0,2.1726599E0,2.0679038E0,4.3892875E0,0E0,2.7263355E0,0E0,4.6965227E0,0E0,3.0009747E0,0E0,0E0,4.004114E0,4.9573674E0,0E0,1.3151255E0,3.8265915E0,4.8749003E0,7.7936554E-1,1.9895096E0,3.5405688E0,2.8531554E0,0E0,2.2679605E0,0E0,0E0,0E0,5.0236225E0,3.6424797E0,3.6891694E0,0E0,0E0,0E0,0E0,0E0,0E0,0E0,0E0,0E0,0E0,0E0,0E0,0E0,0E0,0E0,0E0],"parents":[2147483647,0,0,1,1,2,2,4,4,5,5,6,6,7,7,9,9,10,10,11,11,14,14,15,15,16,16,18,18,20,20,22,22,25,25,26,26,28,28,29,29,30,30,31,31,32,32,33,33,34,34,36,36,40,40,41,41,42,42],"right_children":[2,4,6,-1,8,10,12,14,-1,16,18,20,-1,-1,22,24,26,-1,28,-1,30,-1,32,-1,-1,34,36,-1,38,40,42,44,46,48,50,-1,52,-1,-1,-1,54,56,58,-1,-1,-1,-1,-1,-1,-1,-1,-1,-1,-1,-1,-1,-1,-1,-1],"split_conditions":[2.0435184E1,3.8458333E0,5.3041668E1,-4.7044482E-2,2.2E0,2.18E2,8.0749176E2,4.3195835E1,-3.398531E-2,4.4566693E0,1.5397917E2,1.438E1,5.6297142E-2,-1.1148556E-2,-4.8646383E-2,1.5224584E1,6.2841667E1,-2.0839632E-2,1.5428201E2,5.9102077E-2,1.89625E2,2.0408274E-3,2.20532E2,4.7310344E-3,-8.835307E-2,4.0416668E1,5.8898034E0,-4.3916967E-4,2.642941E1,3.6849444E0,2.1063828E2,8.61E2,6.7692245E1,1.9877916E2,5.027743E1,5.0676137E-2,2.0809676E2,3.333224E-2,1.2662332E-1,2.4319911E-2,1.3876377E0,1.0139788E2,2.519933E1,1.2727296E-1,4.6402622E-2,7.567242E-2,-2.141702E-2,-7.7329013E-3,1.1464395E-1,-6.739403E-2,3.13828E-2,-1.0888815E-1,-6.4647133E-3,3.7022244E-2,-8.819042E-2,1.0598393E-1,-4.621042E-3,1.2522506E-2,-7.713837E-2],"split_indices":[21,44,3,0,74,66,72,25,0,29,42,36,0,0,67,22,6,0,71,0,42,0,31,0,0,3,29,0,36,13,70,50,6,70,6,0,31,0,0,0,18,24,21,0,0,0,0,0,0,0,0,0,0,0,0,0,0,0,0],"split_type":[0,0,0,0,0,0,0,0,0,0,0,0,0,0,0,0,0,0,0,0,0,0,0,0,0,0,0,0,0,0,0,0,0,0,0,0,0,0,0,0,0,0,0,0,0,0,0,0,0,0,0,0,0,0,0,0,0,0,0],"sum_hessian":[1.7095396E2,3.842498E1,1.3252899E2,5.072984E0,3.3351997E1,6.1521194E1,7.10078E1,2.7975672E1,5.3763256E0,4.4223152E1,1.729804E1,6.57977E1,5.2100964E0,4.196604E0,2.3779068E1,9.394754E0,3.48284E1,4.5113773E0,1.2786662E1,4.40175E0,6.1395947E1,3.5654135E0,2.0213655E1,3.5015314E0,5.8932233E0,2.1991592E1,1.2836807E1,3.4289598E0,9.357702E0,3.3192284E1,2.8203663E1,1.3459045E1,6.7546096E0,1.0779341E1,1.1212251E1,4.245081E0,8.591726E0,3.0569882E0,6.300714E0,4.052025E0,2.914026E1,1.0953667E1,1.7249996E1,1.0343851E1,3.1151938E0,3.101137E0,3.6534724E0,3.0810463E0,7.6982946E0,3.3695014E0,7.8427496E0,5.0056467E0,3.5860796E0,3.077877E0,2.6062384E1,4.2379937E0,6.7156725E0,7.678283E0,9.571713E0],"tree_param":{"num_deleted":"0","num_feature":"82","num_nodes":"59","size_leaf_vector":"1"}},{"base_weights":[3.0237008E-2,5.614802E-1,-2.9979695E-2,7.692449E-1,-6.552014E-3,-1.5012895E-1,1.5347663E-1,1.3109778E-2,1.0611049E0,-2.6450208E-1,2.710332E-1,2.9363713E-1,-5.111919E-1,1.3596763E-1,5.3818297E-2,-3.5092074E-1,4.4755208E-1,-6.116789E-2,7.3311234E-1,1.4796682E-1,8.3793813E-1,-8.100694E-2,-7.496462E-3,-4.6795538E-1,7.410277E-2,9.397946E-2,-2.4343114E-2,-6.7632176E-2,3.1211808E-1,1.2119199E-1,-7.945239E-3,5.9886885E-1,-6.305848E-2,1.0591928E-1,2.441196E-2,-1.4705917E-1,-7.688812E-1,6.2185115E-1,-5.5257535E-1,-3.8000017E-2,7.678647E-2,9.8729235E-1,-1.6991433E-2,5.8270868E-2,-2.4200177E-1,-3.607687E-2,1.08477905E-1,-9.331176E-2,6.036676E-3,2.9074894E-3,9.471072E-2,4.262451E-3,-9.790136E-2,2.6375575E-2,1.3228399E-1,1.63499E-2,-8.231844E-2],"categories":[],"categories_nodes":[],"categories_segments":[],"categories_sizes":[],"default_left":[0,0,0,0,0,0,0,0,0,0,0,0,0,0,0,0,0,0,0,0,0,0,0,0,0,0,0,0,0,0,0,0,0,0,0,0,0,0,0,0,0,0,0,0,0,0,0,0,0,0,0,0,0,0,0,0,0],"id":24,"left_children":[1,3,5,7,-1,9,11,-1,13,15,17,19,21,-1,-1,23,25,27,29,31,33,-1,-1,35,37,-1,-1,-1,39,-1,-1,41,43,-1,-1,45,47,49,51,-1,-1,53,-1,-1,55,-1,-1,-1,-1,-1,-1,-1,-1,-1,-1,-1,-1],"loss_changes":[5.303576E0,2.248845E0,3.3158636E0,2.2363944E0,0E0,4.444252E0,5.703699E0,0E0,6.126442E-1,4.5810304E0,3.0965428E0,3.8298802E0,1.3403821E0,0E0,0E0,3.2516894E0,3.0248463E0,3.0788193E0,3.3612256E0,3.8964674E0,1.0964961E0,0E0,0E0,4.796974E0,5.4330893E0,0E0,0E0,0E0,2.9592168E0,0E0,0E0,4.0568323E0,3.4377482E0,0E0,0E0,7.194743E0,3.597784E0,1.5885718E0,1.9313014E0,0E0,0E0,1.7873487E0,0E0,0E0,5.565772E0,0E0,0E0,0E0,0E0,0E0,0E0,0E0,0E0,0E0,0E0,0E0,0E0],"parents":[2147483647,0,0,1,1,2,2,3,3,5,5,6,6,8,8,9,9,10,10,11,11,12,12,15,15,16,16,17,17,18,18,19,19,20,20,23,23,24,24,28,28,31,31,32,32,35,35,36,36,37,37,38,38,41,41,44,44],"right_children":[2,4,6,8,-1,10,12,-1,14,16,18,20,22,-1,-1,24,26,28,30,32,34,-1,-1,36,38,-1,-1,-1,40,-1,-1,42,44,-1,-1,46,48,50,52,-1,-1,54,-1,-1,56,-1,-1,-1,-1,-1,-1,-1,-1,-1,-1,-1,-1],"split_conditions":[4.106875E1,8.767549E2,1.99875E2,1.8747177E0,-6.552014E-3,1.7669565E2,9.693544E2,1.3109778E-2,5.188538E0,5.47E1,5.4166667E-2,9.157039E2,1.9E2,1.3596763E-1,5.3818297E-2,1.1130001E3,6.276125E1,2.1901041E-1,2.2857143E-1,4.98E1,2.908E1,-8.100694E-2,-7.496462E-3,9.1123956E2,2.5724137E-2,9.397946E-2,-2.4343114E-2,-6.7632176E-2,1.7150404E2,1.2119199E-1,-7.945239E-3,3.264287E0,1.5354402E2,1.0591928E-1,2.441196E-2,4.6534938E-4,9.767391E1,4.88175E0,4.06941E0,-3.8000017E-2,7.678647E-2,1.9754167E2,-1.6991433E-2,5.8270868E-2,-1.201E2,-3.607687E-2,1.08477905E-1,-9.331176E-2,6.036676E-3,2.9074894E-3,9.471072E-2,4.262451E-3,-9.790136E-2,2.6375575E-2,1.3228399E-1,1.63499E-2,-8.231844E-2],"split_indices":[25,63,31,18,0,8,19,0,20,62,38,63,42,0,0,68,11,58,74,62,21,0,0,19,64,0,0,0,71,0,0,18,71,0,0,12,15,56,20,0,0,42,0,0,59,0,0,0,0,0,0,0,0,0,0,0,0],"split_type":[0,0,0,0,0,0,0,0,0,0,0,0,0,0,0,0,0,0,0,0,0,0,0,0,0,0,0,0,0,0,0,0,0,0,0,0,0,0,0,0,0,0,0,0,0,0,0,0,0,0,0,0,0,0,0,0,0],"sum_hessian":[1.6426385E2,1.5876247E1,1.483876E2,1.1754407E1,4.1218405E0,8.977428E1,5.8613327E1,4.1436224E0,7.610784E0,7.0893906E1,1.888037E1,4.8866856E1,9.74647E0,3.8260705E0,3.7847135E0,6.3673344E1,7.2205625E0,1.1488561E1,7.391809E0,3.955316E1,9.313695E0,5.2752132E0,4.471257E0,4.984656E1,1.3826781E1,4.0064006E0,3.214162E0,4.0320945E0,7.456466E0,4.3418684E0,3.0499406E0,1.20237875E1,2.7529371E1,6.2144976E0,3.0991974E0,2.4843287E1,2.5003277E1,7.3821297E0,6.444652E0,3.0264938E0,4.4299726E0,7.799105E0,4.224683E0,5.4836597E0,2.2045712E1,2.1773046E1,3.070239E0,2.0765347E1,4.2379303E0,3.0014343E0,4.3806953E0,3.065723E0,3.378929E0,3.036844E0,4.762261E0,1.3408828E1,8.636885E0],"tree_param":{"num_deleted":"0","num_feature":"82","num_nodes":"57","size_leaf_vector":"1"}},{"base_weights":[2.34409E-2,-6.9484554E-2,3.6138964E-1,-6.922787E-1,-4.362955E-3,4.603868E-1,-4.0490124E-2,-8.878537E-1,-6.9169076E-3,1.02534436E-1,-5.0966337E-2,1.465011E-1,8.474949E-1,-1.0402888E-1,-4.5448206E-2,2.6478048E-2,-6.3728374E-1,3.7746137E-1,-3.4258153E-2,1.16111554E-1,4.0988863E-1,1.1026782E-1,-4.7350916E-1,1.7095203E-2,-8.9394647E-1,8.300497E-2,7.1291246E-2,-3.2079208E-3,8.001422E-2,4.8735818E-1,-3.548447E-2,-7.9593605E-1,5.741627E-3,-1.04865946E-1,-3.8763493E-2,6.197393E-2,-4.7622286E-2,4.1263127E-3,8.786468E-2,-3.5472907E-2,1.3546579E-2,-1.0814094E-1,-2.7384048E-2],"categories":[],"categories_nodes":[],"categories_segments":[],