{"learner":{"attributes":{"scikit_learn":"{\"_estimator_type\": \"classifier\"}"},"feature_names":["rel_hum","SolarRadiation","Year","TEMP_MEAN","rnfl_amt_pst24hrs","dwpt_temp","RH","avg_air_temp_pst1hr","Longitude","pcpn_amt_pst24hrs","Rainmm","wind_speed","Pressurembar","CURRENT_AIR_TEMPERATURE1","air_temperature_yesterday_low","WindSpeed","wind_direction","DewPtC","SnowWaterEquivalent","ONE_DAY_PRECIPITATION","ATMOSPHERIC_PRESSURE","cum_pcpn_amt","tasmax","BAR_PRESS","pcp","AirTemperature","HUMIDITY","WDIR_VECT","SnowDepth","MEASURED_WIND_DIRECTION1","MAX_TEMP","air_temperature_yesterday_high","WindDirection","avg_rel_hum_pst1hr","HEIGHT_OF_SNOW","air_temp","dew_point","Latitude","MIN_TEMP","SolarRadiationWm","snw_dpth_wtr_equiv","DEW_POINT","tasmin","SWE","WSPD_SCLR","Wetness","WindSpeedms","air_temperature","Precipitation","avg_wnd_dir_10m_pst10mts","TempC","Month","rnfl_amt_pst1hr","precipitation","temperature","WIND_DIRECTION_STD_DEVIATION1","min_air_temp_snc_last_reset","DayOfYear","PRECIP_TOTAL","Rain","air_temp_1","pcpn_amt_pst1hr","tendency_amount","Elevation (m)","mean_sea_level","MEASURED_WIND_SPEED1","wind_gust_speed","Snow_WE","ONE_DAY_RAIN","RelativeHumidity","RELATIVE_HUMIDITY1","snwfl_amt_pst1hr","avg_wnd_spd_10m_pst10mts","relative_humidity"],"feature_types":["float","float","int","float","float","float","float","float","float","float","float","float","float","float","float","float","float","float","float","float","float","float","float","float","float","float","float","float","float","float","float","float","float","float","float","float","float","float","float","float","float","float","float","float","float","float","float","float","float","float","float","int","float","float","float","float","float","int","float","float","float","float","float","float","float","float","float","float","float","float","float","float","float","float"],"gradient_booster":{"model":{"gbtree_model_param":{"num_parallel_tree":"1","num_trees":"50"},"iteration_indptr":[0,1,2,3,4,5,6,7,8,9,10,11,12,13,14,15,16,17,18,19,20,21,22,23,24,25,26,27,28,29,30,31,32,33,34,35,36,37,38,39,40,41,42,43,44,45,46,47,48,49,50],"tree_info":[0,0,0,0,0,0,0,0,0,0,0,0,0,0,0,0,0,0,0,0,0,0,0,0,0,0,0,0,0,0,0,0,0,0,0,0,0,0,0,0,0,0,0,0,0,0,0,0,0,0],"trees":[{"base_weights":[3.3971714E-3,8.836713E-1,-5.65678E-1,1.5100847E0,-3.4020144E-1,-1.1363391E0,-2.624601E-1,-1.8367041E-3,1.6133646E-2,5.995131E-4,-9.463853E-3,-1.4772339E-2,-1.0584592E-3,2.7435736E-3,-6.4454195E-3],"categories":[],"categories_nodes":[],"categories_segments":[],"categories_sizes":[],"default_left":[0,0,0,0,0,0,0,0,0,0,0,0,0,0,0],"id":0,"left_children":[1,3,5,7,9,11,13,-1,-1,-1,-1,-1,-1,-1,-1],"loss_changes":[1.4160764E2,8.5605415E1,2.941063E1,1.3171112E1,9.369399E0,2.0665863E1,2.3440126E1,0E0,0E0,0E0,0E0,0E0,0E0,0E0,0E0],"parents":[2147483647,0,0,1,1,2,2,3,3,4,4,5,5,6,6],"right_children":[2,4,6,8,10,12,14,-1,-1,-1,-1,-1,-1,-1,-1],"split_conditions":[-2.065706E0,2.022E3,2.018E3,2.019E3,9.5025E2,-1.185E2,6.7027214E1,-1.8367041E-3,1.6133646E-2,5.995131E-4,-9.463853E-3,-1.4772339E-2,-1.0584592E-3,2.7435736E-3,-6.4454195E-3],"split_indices":[42,2,2,2,20,8,6,0,0,0,0,0,0,0,0],"split_type":[0,0,0,0,0,0,0,0,0,0,0,0,0,0,0],"sum_hessian":[2.8068472E2,1.0999151E2,1.7069322E2,7.259925E1,3.7392258E1,5.8273647E1,1.1241958E2,4.1277165E0,6.8471535E1,2.3066652E1,1.4325605E1,4.346243E1,1.4811219E1,4.6861725E1,6.555785E1],"tree_param":{"num_deleted":"0","num_feature":"74","num_nodes":"15","size_leaf_vector":"1"}},{"base_weights":[3.3228484E-3,8.762388E-1,-5.5961204E-1,1.4990722E0,-3.36849E-1,-1.1231567E0,-2.5975323E-1,-1.8214615E-3,1.6018996E-2,5.9382315E-4,-9.3614515E-3,-1.459273E-2,-1.0483674E-3,2.71796E-3,-6.3750925E-3],"categories":[],"categories_nodes":[],"categories_segments":[],"categories_sizes":[],"default_left":[0,0,0,0,0,0,0,0,0,0,0,0,0,0,0],"id":1,"left_children":[1,3,5,7,9,11,13,-1,-1,-1,-1,-1,-1,-1,-1],"loss_changes":[1.3890326E2,8.423647E1,2.8748425E1,1.2982391E1,9.177046E0,2.0172287E1,2.2957335E1,0E0,0E0,0E0,0E0,0E0,0E0,0E0,0E0],"parents":[2147483647,0,0,1,1,2,2,3,3,4,4,5,5,6,6],"right_children":[2,4,6,8,10,12,14,-1,-1,-1,-1,-1,-1,-1,-1],"split_conditions":[-2.065706E0,2.022E3,2.018E3,2.019E3,9.5025E2,-1.185E2,6.7027214E1,-1.8214615E-3,1.6018996E-2,5.9382315E-4,-9.3614515E-3,-1.459273E-2,-1.0483674E-3,2.71796E-3,-6.3750925E-3],"split_indices":[42,2,2,2,20,8,6,0,0,0,0,0,0,0,0],"split_type":[0,0,0,0,0,0,0,0,0,0,0,0,0,0,0],"sum_hessian":[2.806735E2,1.0982171E2,1.7085178E2,7.2409096E1,3.7412613E1,5.8383034E1,1.1246874E2,4.1289997E0,6.82801E1,2.3064304E1,1.4348309E1,4.356916E1,1.4813874E1,4.6839836E1,6.562891E1],"tree_param":{"num_deleted":"0","num_feature":"74","num_nodes":"15","size_leaf_vector":"1"}},{"base_weights":[3.2501975E-3,8.689302E-1,-5.5363613E-1,1.4882857E0,-3.3353615E-1,-1.110236E0,-2.5707883E-1,-1.8063508E-3,1.5906816E-2,-5.451781E-3,7.262552E-3,-1.4417195E-2,-1.0383731E-3,2.6925844E-3,-6.3057328E-3],"categories":[],"categories_nodes":[],"categories_segments":[],"categories_sizes":[],"default_left":[0,0,0,0,0,0,0,0,0,0,0,0,0,0,0],"id":2,"left_children":[1,3,5,7,9,11,13,-1,-1,-1,-1,-1,-1,-1,-1],"loss_changes":[1.3625908E2,8.289932E1,2.8105999E1,1.279863E1,9.016132E0,1.9695366E1,2.248521E1,0E0,0E0,0E0,0E0,0E0,0E0,0E0,0E0],"parents":[2147483647,0,0,1,1,2,2,3,3,4,4,5,5,6,6],"right_children":[2,4,6,8,10,12,14,-1,-1,-1,-1,-1,-1,-1,-1],"split_conditions":[-2.065706E0,2.022E3,2.018E3,2.019E3,-1.179E2,-1.185E2,6.7027214E1,-1.8063508E-3,1.5906816E-2,-5.451781E-3,7.262552E-3,-1.4417195E-2,-1.0383731E-3,2.6925844E-3,-6.3057328E-3],"split_indices":[42,2,2,2,8,8,6,0,0,0,0,0,0,0,0],"split_type":[0,0,0,0,0,0,0,0,0,0,0,0,0,0,0],"sum_hessian":[2.8064722E2,1.09644485E2,1.7100275E2,7.2212326E1,3.7432163E1,5.8486794E1,1.12515945E2,4.130265E0,6.808206E1,3.1605978E1,5.8261833E0,4.36703E1,1.4816497E1,4.6817993E1,6.569795E1],"tree_param":{"num_deleted":"0","num_feature":"74","num_nodes":"15","size_leaf_vector":"1"}},{"base_weights":[3.2163062E-3,8.618185E-1,-5.47748E-1,1.477718E0,-3.2996997E-1,-1.0975686E0,-2.5443628E-1,-1.7913679E-3,1.5797026E-2,6.094696E-4,-9.202208E-3,-1.4245581E-2,-1.0284785E-3,2.6674431E-3,-6.237316E-3],"categories":[],"categories_nodes":[],"categories_segments":[],"categories_sizes":[],"default_left":[0,0,0,0,0,0,0,0,0,0,0,0,0,0,0],"id":3,"left_children":[1,3,5,7,9,11,13,-1,-1,-1,-1,-1,-1,-1,-1],"loss_changes":[1.3368965E2,8.156943E1,2.7482578E1,1.2619614E1,8.928749E0,1.9234314E1,2.2023457E1,0E0,0E0,0E0,0E0,0E0,0E0,0E0,0E0],"parents":[2147483647,0,0,1,1,2,2,3,3,4,4,5,5,6,6],"right_children":[2,4,6,8,10,12,14,-1,-1,-1,-1,-1,-1,-1,-1],"split_conditions":[-2.065706E0,2.022E3,2.018E3,2.019E3,9.5025E2,-1.185E2,6.7027214E1,-1.7913679E-3,1.5797026E-2,6.094696E-4,-9.202208E-3,-1.4245581E-2,-1.0284785E-3,2.6674431E-3,-6.237316E-3],"split_indices":[42,2,2,2,20,8,6,0,0,0,0,0,0,0,0],"split_type":[0,0,0,0,0,0,0,0,0,0,0,0,0,0,0],"sum_hessian":[2.806087E2,1.094624E2,1.711463E2,7.200916E1,3.745324E1,5.8585068E1,1.1256123E2,4.1315145E0,6.787765E1,2.3070581E1,1.4382659E1,4.3765984E1,1.4819087E1,4.6796196E1,6.576504E1],"tree_param":{"num_deleted":"0","num_feature":"74","num_nodes":"15","size_leaf_vector":"1"}},{"base_weights":[3.1464174E-3,8.547437E-1,-5.419456E-1,1.4673622E0,-3.2673642E-1,-1.5838517E-1,-9.529421E-1,-1.7765166E-3,1.5689548E-2,-5.353767E-3,7.203733E-3,-3.2226704E-3,6.785805E-3,-1.0880007E-2,4.8341295E-3],"categories":[],"categories_nodes":[],"categories_segments":[],"categories_sizes":[],"default_left":[0,0,0,0,0,0,0,0,0,0,0,0,0,0,0],"id":4,"left_children":[1,3,5,7,9,11,13,-1,-1,-1,-1,-1,-1,-1,-1],"loss_changes":[1.3116025E2,8.029342E1,2.7008045E1,1.244516E1,8.790504E0,1.2606627E1,1.662101E1,0E0,0E0,0E0,0E0,0E0,0E0,0E0,0E0],"parents":[2147483647,0,0,1,1,2,2,3,3,4,4,5,5,6,6],"right_children":[2,4,6,8,10,12,14,-1,-1,-1,-1,-1,-1,-1,-1],"split_conditions":[-2.065706E0,2.022E3,2.320177E1,2.019E3,-1.179E2,5.3399518E-2,3.0666666E1,-1.7765166E-3,1.5689548E-2,-5.353767E-3,7.203733E-3,-3.2226704E-3,6.785805E-3,-1.0880007E-2,4.8341295E-3],"split_indices":[42,2,45,2,8,48,30,0,0,0,0,0,0,0,0],"split_type":[0,0,0,0,0,0,0,0,0,0,0,0,0,0,0],"sum_hessian":[2.80554E2,1.0927132E2,1.7128267E2,7.179985E1,3.7471462E1,8.931515E1,8.196753E1,4.1327477E0,6.76671E1,3.1653168E1,5.818295E0,7.5204666E1,1.4110476E1,7.5144325E1,6.8232036E0],"tree_param":{"num_deleted":"0","num_feature":"74","num_nodes":"15","size_leaf_vector":"1"}},{"base_weights":[3.1719685E-3,8.478586E-1,-5.360923E-1,1.4572114E0,-3.232524E-1,-1.0783879E0,-2.4649934E-1,-1.7617946E-3,1.5584311E-2,6.2446453E-4,-9.046943E-3,-1.3994617E-2,-9.944576E-4,2.6776693E-3,-6.1033326E-3],"categories":[],"categories_nodes":[],"categories_segments":[],"categories_sizes":[],"default_left":[0,0,0,0,0,0,0,0,0,0,0,0,0,0,0],"id":5,"left_children":[1,3,5,7,9,11,13,-1,-1,-1,-1,-1,-1,-1,-1],"loss_changes":[1.2868085E2,7.902332E1,2.6812683E1,1.2275085E1,8.688591E0,1.8633942E1,2.1437122E1,0E0,0E0,0E0,0E0,0E0,0E0,0E0,0E0],"parents":[2147483647,0,0,1,1,2,2,3,3,4,4,5,5,6,6],"right_children":[2,4,6,8,10,12,14,-1,-1,-1,-1,-1,-1,-1,-1],"split_conditions":[-2.065706E0,2.022E3,2.018E3,2.019E3,9.5025E2,-1.185E2,6.7027214E1,-1.7617946E-3,1.5584311E-2,6.2446453E-4,-9.046943E-3,-1.3994617E-2,-9.944576E-4,2.6776693E-3,-6.1033326E-3],"split_indices":[42,2,2,2,20,8,6,0,0,0,0,0,0,0,0],"split_type":[0,0,0,0,0,0,0,0,0,0,0,0,0,0,0],"sum_hessian":[2.80501E2,1.0907582E2,1.7142519E2,7.15846E1,3.7491215E1,5.8727497E1,1.1269769E2,4.1339636E0,6.745064E1,2.3076227E1,1.4414989E1,4.3899693E1,1.48278055E1,4.680481E1,6.589288E1],"tree_param":{"num_deleted":"0","num_feature":"74","num_nodes":"15","size_leaf_vector":"1"}},{"base_weights":[3.1041852E-3,8.410043E-1,-5.304496E-1,1.4472593E0,-3.2009548E-1,-1.0663259E0,-2.4397746E-1,-1.747197E-3,1.5481243E-2,-5.2579837E-3,7.145369E-3,-1.3832197E-2,-9.849875E-4,2.6526668E-3,-6.0376367E-3],"categories":[],"categories_nodes":[],"categories_segments":[],"categories_sizes":[],"default_left":[0,0,0,0,0,0,0,0,0,0,0,0,0,0,0],"id":6,"left_children":[1,3,5,7,9,11,13,-1,-1,-1,-1,-1,-1,-1,-1],"loss_changes":[1.2625989E2,7.78045E1,2.6228622E1,1.2109238E1,8.571276E0,1.8208183E1,2.099902E1,0E0,0E0,0E0,0E0,0E0,0E0,0E0,0E0],"parents":[2147483647,0,0,1,1,2,2,3,3,4,4,5,5,6,6],"right_children":[2,4,6,8,10,12,14,-1,-1,-1,-1,-1,-1,-1,-1],"split_conditions":[-2.065706E0,2.022E3,2.018E3,2.019E3,-1.179E2,-1.185E2,6.7027214E1,-1.747197E-3,1.5481243E-2,-5.2579837E-3,7.145369E-3,-1.3832197E-2,-9.849875E-4,2.6526668E-3,-6.0376367E-3],"split_indices":[42,2,2,2,8,8,6,0,0,0,0,0,0,0,0],"split_type":[0,0,0,0,0,0,0,0,0,0,0,0,0,0,0],"sum_hessian":[2.804218E2,1.088718E2,1.7154999E2,7.136364E1,3.7508167E1,5.8812588E1,1.12737404E2,4.1351643E0,6.722848E1,3.1697878E1,5.8102875E0,4.3982334E1,1.48302555E1,4.6783047E1,6.595435E1],"tree_param":{"num_deleted":"0","num_feature":"74","num_nodes":"15","size_leaf_vector":"1"}},{"base_weights":[3.0741594E-3,8.3433264E-1,-5.2488714E-1,1.4374994E0,-3.166911E-1,-6.800152E-1,4.3568933E-1,-1.7327263E-3,1.5380274E-2,6.3882954E-4,-8.895495E-3,-2.7741522E-3,-1.0590491E-2,-1.0970813E-3,1.244693E-2],"categories":[],"categories_nodes":[],"categories_segments":[],"categories_sizes":[],"default_left":[0,0,0,0,0,0,0,0,0,0,0,0,0,0,0],"id":7,"left_children":[1,3,5,7,9,11,13,-1,-1,-1,-1,-1,-1,-1,-1],"loss_changes":[1.2390669E2,7.659038E1,2.6025944E1,1.1947479E1,8.456215E0,2.2451202E1,1.0998426E1,0E0,0E0,0E0,0E0,0E0,0E0,0E0,0E0],"parents":[2147483647,0,0,1,1,2,2,3,3,4,4,5,5,6,6],"right_children":[2,4,6,8,10,12,14,-1,-1,-1,-1,-1,-1,-1,-1],"split_conditions":[-2.065706E0,2.022E3,3.0666666E1,2.019E3,9.5025E2,2.320177E1,1.6666667E-3,-1.7327263E-3,1.5380274E-2,6.3882954E-4,-8.895495E-3,-2.7741522E-3,-1.0590491E-2,-1.0970813E-3,1.244693E-2],"split_indices":[42,2,30,2,20,45,53,0,0,0,0,0,0,0,0],"split_type":[0,0,0,0,0,0,0,0,0,0,0,0,0,0,0],"sum_hessian":[2.8033188E2,1.0866381E2,1.7166806E2,7.113717E1,3.752664E1,1.4805072E2,2.3617338E1,4.1363487E0,6.7000824E1,2.3081266E1,1.4445377E1,7.263336E1,7.541736E1,1.4623297E1,8.994041E0],"tree_param":{"num_deleted":"0","num_feature":"74","num_nodes":"15","size_leaf_vector":"1"}},{"base_weights":[3.0657572E-3,8.2768613E-1,-5.192639E-1,1.4279262E0,-3.136083E-1,-1.047934E0,-2.3640548E-1,-1.7183779E-3,1.5281342E-2,-5.1643574E-3,7.087455E-3,-1.3597588E-2,-9.411446E-4,2.6514316E-3,-5.9014717E-3],"categories":[],"categories_nodes":[],"categories_segments":[],"categories_sizes":[],"default_left":[0,0,0,0,0,0,0,0,0,0,0,0,0,0,0],"id":8,"left_children":[1,3,5,7,9,11,13,-1,-1,-1,-1,-1,-1,-1,-1],"loss_changes":[1.215677E2,7.542507E1,2.5591816E1,1.1789688E1,8.358223E0,1.7698586E1,2.0357105E1,0E0,0E0,0E0,0E0,0E0,0E0,0E0,0E0],"parents":[2147483647,0,0,1,1,2,2,3,3,4,4,5,5,6,6],"right_children":[2,4,6,8,10,12,14,-1,-1,-1,-1,-1,-1,-1,-1],"split_conditions":[-2.065706E0,2.022E3,2.018E3,2.019E3,-1.179E2,-1.185E2,6.7027214E1,-1.7183779E-3,1.5281342E-2,-5.1643574E-3,7.087455E-3,-1.3597588E-2,-9.411446E-4,2.6514316E-3,-5.9014717E-3],"split_indices":[42,2,2,2,8,8,6,0,0,0,0,0,0,0,0],"split_type":[0,0,0,0,0,0,0,0,0,0,0,0,0,0,0],"sum_hessian":[2.8024274E2,1.0844778E2,1.7179495E2,7.090541E1,3.754237E1,5.89364E1,1.1285855E2,4.1375184E0,6.676789E1,3.1740202E1,5.802166E0,4.4095135E1,1.4841268E1,4.6781044E1,6.607751E1],"tree_param":{"num_deleted":"0","num_feature":"74","num_nodes":"15","size_leaf_vector":"1"}},{"base_weights":[3.0373042E-3,8.2121587E-1,-5.1385164E-1,1.4185334E0,-3.1028128E-1,-6.667944E-1,4.3486074E-1,-1.7041555E-3,1.5184382E-2,6.5258646E-4,-8.74772E-3,-1.1991723E-2,-3.8706593E-3,-1.0487303E-3,1.2370097E-2],"categories":[],"categories_nodes":[],"categories_segments":[],"categories_sizes":[],"default_left":[0,0,0,0,0,0,0,0,0,0,0,0,0,0,0],"id":9,"left_children":[1,3,5,7,9,11,13,-1,-1,-1,-1,-1,-1,-1,-1],"loss_changes":[1.1931406E2,7.426344E1,2.5377834E1,1.1635681E1,8.231294E0,2.1768715E1,1.0784229E1,0E0,0E0,0E0,0E0,0E0,0E0,0E0,0E0],"parents":[2147483647,0,0,1,1,2,2,3,3,4,4,5,5,6,6],"right_children":[2,4,6,8,10,12,14,-1,-1,-1,-1,-1,-1,-1,-1],"split_conditions":[-2.065706E0,2.022E3,3.0666666E1,2.019E3,9.5025E2,2.018E3,1.6666667E-3,-1.7041555E-3,1.5184382E-2,6.5258646E-4,-8.74772E-3,-1.1991723E-2,-3.8706593E-3,-1.0487303E-3,1.2370097E-2],"split_indices":[42,2,30,2,20,2,53,0,0,0,0,0,0,0,0],"split_type":[0,0,0,0,0,0,0,0,0,0,0,0,0,0,0],"sum_hessian":[2.8013025E2,1.08228165E2,1.7190208E2,7.066854E1,3.7559616E1,1.4829283E2,2.3609257E1,4.138672E0,6.652987E1,2.3085726E1,1.4473893E1,4.9947002E1,9.8345825E1,1.4632737E1,8.976521E0],"tree_param":{"num_deleted":"0","num_feature":"74","num_nodes":"15","size_leaf_vector":"1"}},{"base_weights":[3.0203671E-3,8.1476545E-1,-5.084011E-1,1.409316E0,-3.072704E-1,-1.4025475E-1,-9.015372E-1,-1.6900527E-3,1.5089333E-2,-4.557004E-3,1.037943E-2,-3.0141664E-3,6.8348628E-3,-1.0314052E-2,4.860437E-3],"categories":[],"categories_nodes":[],"categories_segments":[],"categories_sizes":[],"default_left":[0,0,0,0,0,0,0,0,0,0,0,0,0,0,0],"id":10,"left_children":[1,3,5,7,9,11,13,-1,-1,-1,-1,-1,-1,-1,-1],"loss_changes":[1.1707661E2,7.314833E1,2.4914421E1,1.1485321E1,8.175096E0,1.2224629E1,1.5545319E1,0E0,0E0,0E0,0E0,0E0,0E0,0E0,0E0],"parents":[2147483647,0,0,1,1,2,2,3,3,4,4,5,5,6,6],"right_children":[2,4,6,8,10,12,14,-1,-1,-1,-1,-1,-1,-1,-1],"split_conditions":[-2.065706E0,2.022E3,2.320177E1,2.019E3,-1.17E2,5.3399518E-2,3.0666666E1,-1.6900527E-3,1.5089333E-2,-4.557004E-3,1.037943E-2,-3.0141664E-3,6.8348628E-3,-1.0314052E-2,4.860437E-3],"split_indices":[42,2,45,2,8,48,30,0,0,0,0,0,0,0,0],"split_type":[0,0,0,0,0,0,0,0,0,0,0,0,0,0,0],"sum_hessian":[2.8001678E2,1.0800095E2,1.7201582E2,7.042679E1,3.757416E1,8.9531845E1,8.248398E1,4.1398106E0,6.628698E1,3.4435783E1,3.1383803E0,7.541188E1,1.4119967E1,7.565946E1,6.824518E0],"tree_param":{"num_deleted":"0","num_feature":"74","num_nodes":"15","size_leaf_vector":"1"}},{"base_weights":[3.0631816E-3,8.0851096E-1,-5.029937E-1,1.4002682E0,-3.0390745E-1,-6.5321076E-1,4.3094513E-1,-1.6760716E-3,1.4996139E-2,-5.025364E-3,7.003912E-3,-1.1781984E-2,-3.7720832E-3,1.01173045E-2,-2.9281185E-3],"categories":[],"categories_nodes":[],"categories_segments":[],"categories_sizes":[],"default_left":[0,0,0,0,0,0,0,0,0,0,0,0,0,0,0],"id":11,"left_children":[1,3,5,7,9,11,13,-1,-1,-1,-1,-1,-1,-1,-1],"loss_changes":[1.1490257E2,7.202808E1,2.4570374E1,1.13385315E1,8.050325E0,2.122337E1,1.0632877E1,0E0,0E0,0E0,0E0,0E0,0E0,0E0,0E0],"parents":[2147483647,0,0,1,1,2,2,3,3,4,4,5,5,6,6],"right_children":[2,4,6,8,10,12,14,-1,-1,-1,-1,-1,-1,-1,-1],"split_conditions":[-2.065706E0,2.022E3,3.0666666E1,2.019E3,-1.179E2,2.018E3,2.8411874E2,-1.6760716E-3,1.4996139E-2,-5.025364E-3,7.003912E-3,-1.1781984E-2,-3.7720832E-3,1.01173045E-2,-2.9281185E-3],"split_indices":[42,2,30,2,8,2,39,0,0,0,0,0,0,0,0],"split_type":[0,0,0,0,0,0,0,0,0,0,0,0,0,0,0],"sum_hessian":[2.799009E2,1.0777188E2,1.7212903E2,7.018031E1,3.759157E1,1.4853835E2,2.3590685E1,4.140935E0,6.6039375E1,3.180152E1,5.790051E0,5.0056477E1,9.8481865E1,1.2867311E1,1.0723374E1],"tree_param":{"num_deleted":"0","num_feature":"74","num_nodes":"15","size_leaf_vector":"1"}},{"base_weights":[3.0678185E-3,9.423583E-1,-4.236056E-1,1.5435141E-2,-1.446369E-1,-9.6639574E-1,-1.6321307E-1,-6.608546E-3,2.828608E-3,-1.2732761E-2,-2.1921929E-4,2.6101032E-3,-5.2533415E-3],"categories":[],"categories_nodes":[],"categories_segments":[],"categories_sizes":[],"default_left":[0,0,0,0,0,0,0,0,0,0,0,0,0],"id":12,"left_children":[1,3,5,-1,7,9,11,-1,-1,-1,-1,-1,-1],"loss_changes":[1.1292305E2,5.7734543E1,2.7227695E1,0E0,7.3051167E0,1.8119923E1,2.0437181E1,0E0,0E0,0E0,0E0,0E0,0E0],"parents":[2147483647,0,0,1,1,2,2,4,4,5,5,6,6],"right_children":[2,4,6,-1,8,10,12,-1,-1,-1,-1,-1,-1],"split_conditions":[7.9958336E1,2.022E3,2.018E3,1.5435141E-2,1.7133333E2,-1.185E2,6.893063E1,-6.608546E-3,2.828608E-3,-1.2732761E-2,-2.1921929E-4,2.6101032E-3,-5.2533415E-3],"split_indices":[0,2,2,0,16,8,6,0,0,0,0,0,0],"split_type":[0,0,0,0,0,0,0,0,0,0,0,0,0],"sum_hessian":[2.7976898E2,8.701131E1,1.9275768E2,5.5755886E1,3.1255423E1,6.16132E1,1.3114447E2,1.3911254E1,1.734417E1,4.624051E1,1.5372691E1,6.0522194E1,7.0622284E1],"tree_param":{"num_deleted":"0","num_feature":"74","num_nodes":"13","size_leaf_vector":"1"}},{"base_weights":[3.0329546E-3,7.968872E-1,-4.9319574E-1,1.3841105E0,-2.990447E-1,-1.3182901E-1,-8.7863576E-1,-1.606062E-3,1.482745E-2,7.0761156E-4,-8.544634E-3,-6.278773E-3,1.3455361E-3,-1.00561725E-2,4.821496E-3],"categories":[],"categories_nodes":[],"categories_segments":[],"categories_sizes":[],"default_left":[0,0,0,0,0,0,0,0,0,0,0,0,0,0,0],"id":13,"left_children":[1,3,5,7,9,11,13,-1,-1,-1,-1,-1,-1,-1,-1],"loss_changes":[1.1094475E2,7.0129395E1,2.4023304E1,1.1012039E1,7.992122E0,1.2059337E1,1.4944969E1,0E0,0E0,0E0,0E0,0E0,0E0,0E0,0E0],"parents":[2147483647,0,0,1,1,2,2,3,3,4,4,5,5,6,6],"right_children":[2,4,6,8,10,12,14,-1,-1,-1,-1,-1,-1,-1,-1],"split_conditions":[-2.065706E0,2.022E3,2.320177E1,2.019E3,9.5025E2,1.5368055E1,3.0666666E1,-1.606062E-3,1.482745E-2,7.0761156E-4,-8.544634E-3,-6.278773E-3,1.3455361E-3,-1.00561725E-2,4.821496E-3],"split_indices":[42,2,45,2,20,54,30,0,0,0,0,0,0,0,0],"split_type":[0,0,0,0,0,0,0,0,0,0,0,0,0,0,0],"sum_hessian":[2.7963565E2,1.0732843E2,1.7230722E2,6.971221E1,3.7616215E1,8.962341E1,8.2683815E1,4.1464477E0,6.5565765E1,2.3105103E1,1.4511112E1,3.0839024E1,5.8784386E1,7.586544E1,6.8183737E0],"tree_param":{"num_deleted":"0","num_feature":"74","num_nodes":"15","size_leaf_vector":"1"}},{"base_weights":[2.9962177E-3,9.292751E-1,-4.1539282E-1,1.5259028E-2,-1.4053018E-1,-9.506563E-1,-1.5839268E-1,5.3991345E-3,-4.585554E-3,-1.252905E-2,-1.9317721E-4,2.59693E-3,-5.1472965E-3],"categories":[],"categories_nodes":[],"categories_segments":[],"categories_sizes":[],"default_left":[0,0,0,0,0,0,0,0,0,0,0,0,0],"id":14,"left_children":[1,3,5,-1,7,9,11,-1,-1,-1,-1,-1,-1],"loss_changes":[1.0908778E2,5.611582E1,2.6523708E1,0E0,7.2312574E0,1.7625801E1,1.9829567E1,0E0,0E0,0E0,0E0,0E0,0E0],"parents":[2147483647,0,0,1,1,2,2,4,4,5,5,6,6],"right_children":[2,4,6,-1,8,10,12,-1,-1,-1,-1,-1,-1],"split_conditions":[7.9958336E1,2.022E3,2.018E3,1.5259028E-2,6E0,-1.185E2,6.893063E1,5.3991345E-3,-4.585554E-3,-1.252905E-2,-1.9317721E-4,2.59693E-3,-5.1472965E-3],"split_indices":[0,2,2,0,41,8,6,0,0,0,0,0,0],"split_type":[0,0,0,0,0,0,0,0,0,0,0,0,0],"sum_hessian":[2.7948816E2,8.6581894E1,1.9290627E2,5.5309555E1,3.127234E1,6.1700775E1,1.3120549E2,9.738415E0,2.1533926E1,4.632242E1,1.5378356E1,6.0496693E1,7.070879E1],"tree_param":{"num_deleted":"0","num_feature":"74","num_nodes":"13","size_leaf_vector":"1"}},{"base_weights":[2.9789424E-3,9.225771E-1,-4.1115332E-1,1.5172122E-2,-1.3907382E-1,-9.405492E-1,-1.5679938E-1,-6.501996E-3,2.8449509E-3,-1.2392522E-2,-1.9135882E-4,2.5725476E-3,-5.092915E-3],"categories":[],"categories_nodes":[],"categories_segments":[],"categories_sizes":[],"default_left":[0,0,0,0,0,0,0,0,0,0,0,0,0],"id":15,"left_children":[1,3,5,-1,7,9,11,-1,-1,-1,-1,-1,-1],"loss_changes":[1.07141716E2,5.5357735E1,2.597303E1,0E0,7.1730595E0,1.7248001E1,1.9429888E1,0E0,0E0,0E0,0E0,0E0,0E0],"parents":[2147483647,0,0,1,1,2,2,4,4,5,5,6,6],"right_children":[2,4,6,-1,8,10,12,-1,-1,-1,-1,-1,-1],"split_conditions":[7.9958336E1,2.022E3,2.018E3,1.5172122E-2,1.7133333E2,-1.185E2,6.893063E1,-6.501996E-3,2.8449509E-3,-1.2392522E-2,-1.9135882E-4,2.5725476E-3,-5.092915E-3],"split_indices":[0,2,2,0,16,8,6,0,0,0,0,0,0],"split_type":[0,0,0,0,0,0,0,0,0,0,0,0,0],"sum_hessian":[2.7933746E2,8.635494E1,1.9298253E2,5.5076984E1,3.1277958E1,6.1753983E1,1.3122855E2,1.3931543E1,1.7346415E1,4.637517E1,1.537881E1,6.046898E1,7.075957E1],"tree_param":{"num_deleted":"0","num_feature":"74","num_nodes":"13","size_leaf_vector":"1"}},{"base_weights":[2.9463072E-3,7.803298E-1,-4.792927E-1,1.3616699E0,-2.9286095E-1,-6.254313E-1,4.3176043E-1,-1.4832595E-3,1.459222E-2,-4.380625E-3,1.0273897E-2,-2.4586353E-3,-9.8152775E-3,-9.922906E-4,1.22348415E-2],"categories":[],"categories_nodes":[],"categories_segments":[],"categories_sizes":[],"default_left":[0,0,0,0,0,0,0,0,0,0,0,0,0,0,0],"id":16,"left_children":[1,3,5,7,9,11,13,-1,-1,-1,-1,-1,-1,-1,-1],"loss_changes":[1.05408485E2,6.755732E1,2.3374237E1,1.0527603E1,7.8584833E0,2.0026794E1,1.045458E1,0E0,0E0,0E0,0E0,0E0,0E0,0E0,0E0],"parents":[2147483647,0,0,1,1,2,2,3,3,4,4,5,5,6,6],"right_children":[2,4,6,8,10,12,14,-1,-1,-1,-1,-1,-1,-1,-1],"split_conditions":[-2.065706E0,2.022E3,3.0666666E1,2.019E3,-1.17E2,2.320177E1,1.6666667E-3,-1.4832595E-3,1.459222E-2,-4.380625E-3,1.0273897E-2,-2.4586353E-3,-9.8152775E-3,-9.922906E-4,1.22348415E-2],"split_indices":[42,2,30,2,8,45,53,0,0,0,0,0,0,0,0],"split_type":[0,0,0,0,0,0,0,0,0,0,0,0,0,0,0],"sum_hessian":[2.791781E2,1.0664503E2,1.7253308E2,6.899961E1,3.764542E1,1.489535E2,2.3579563E1,4.155576E0,6.484403E1,3.4517387E1,3.1280344E0,7.291883E1,7.603468E1,1.4637334E1,8.94223E0],"tree_param":{"num_deleted":"0","num_feature":"74","num_nodes":"15","size_leaf_vector":"1"}},{"base_weights":[2.9919858E-3,9.101698E-1,-4.0319124E-1,1.5006169E-2,-1.3467188E-1,-9.2507756E-1,-1.5225852E-1,8.945366E-3,-3.3938717E-3,-1.2195838E-2,-1.592347E-4,2.5593655E-3,-4.992708E-3],"categories":[],"categories_nodes":[],"categories_segments":[],"categories_sizes":[],"default_left":[0,0,0,0,0,0,0,0,0,0,0,0,0],"id":17,"left_children":[1,3,5,-1,7,9,11,-1,-1,-1,-1,-1,-1],"loss_changes":[1.0354508E2,5.381623E1,2.527871E1,0E0,7.108257E0,1.6802921E1,1.88645E1,0E0,0E0,0E0,0E0,0E0,0E0],"parents":[2147483647,0,0,1,1,2,2,4,4,5,5,6,6],"right_children":[2,4,6,-1,8,10,12,-1,-1,-1,-1,-1,-1],"split_conditions":[7.9958336E1,2.022E3,2.018E3,1.5006169E-2,4.438889E1,-1.185E2,6.893063E1,8.945366E-3,-3.3938717E-3,-1.2195838E-2,-1.592347E-4,2.5593655E-3,-4.992708E-3],"split_indices":[0,2,2,0,73,8,6,0,0,0,0,0,0],"split_type":[0,0,0,0,0,0,0,0,0,0,0,0,0],"sum_hessian":[2.7900977E2,8.590563E1,1.9310416E2,5.4609318E1,3.129631E1,6.182819E1,1.3127596E2,4.6331964E0,2.6663113E1,4.6442444E1,1.5385747E1,6.0440945E1,7.0835014E1],"tree_param":{"num_deleted":"0","num_feature":"74","num_nodes":"13","size_leaf_vector":"1"}},{"base_weights":[2.9926621E-3,7.695539E-1,-4.7002804E-1,1.3468812E0,-2.8788838E-1,-6.1424565E-1,4.3033823E-1,-1.4176079E-3,1.443841E-2,7.649405E-4,-8.34885E-3,-2.405155E-3,-9.645745E-3,1.0023604E-2,-2.806795E-3],"categories":[],"categories_nodes":[],"categories_segments":[],"categories_sizes":[],"default_left":[0,0,0,0,0,0,0,0,0,0,0,0,0,0,0],"id":18,"left_children":[1,3,5,7,9,11,13,-1,-1,-1,-1,-1,-1,-1,-1],"loss_changes":[1.0183011E2,6.5810196E1,2.2815453E1,1.0235397E1,7.7712793E0,1.9421246E1,1.0272621E1,0E0,0E0,0E0,0E0,0E0,0E0,0E0,0E0],"parents":[2147483647,0,0,1,1,2,2,3,3,4,4,5,5,6,6],"right_children":[2,4,6,8,10,12,14,-1,-1,-1,-1,-1,-1,-1,-1],"split_conditions":[-2.065706E0,2.022E3,3.0666666E1,2.019E3,9.5025E2,2.320177E1,2.8411874E2,-1.4176079E-3,1.443841E-2,7.649405E-4,-8.34885E-3,-2.405155E-3,-9.645745E-3,1.0023604E-2,-2.806795E-3],"split_indices":[42,2,30,2,20,45,39,0,0,0,0,0,0,0,0],"split_type":[0,0,0,0,0,0,0,0,0,0,0,0,0,0,0],"sum_hessian":[2.7883612E2,1.0616379E2,1.7267232E2,6.849445E1,3.766934E1,1.491067E2,2.356562E1,4.1601944E0,6.433426E1,2.312485E1,1.454449E1,7.295985E1,7.614686E1,1.2832206E1,1.0733416E1],"tree_param":{"num_deleted":"0","num_feature":"74","num_nodes":"15","size_leaf_vector":"1"}},{"base_weights":[2.9760262E-3,8.980808E-1,-3.9544582E-1,1.4846513E-2,-1.3048963E-1,-9.1010463E-1,-1.4783382E-1,-6.3617127E-3,2.8868997E-3,-1.2003064E-2,-1.3524544E-4,2.5480636E-3,-4.8968876E-3],"categories":[],"categories_nodes":[],"categories_segments":[],"categories_sizes":[],"default_left":[0,0,0,0,0,0,0,0,0,0,0,0,0],"id":19,"left_children":[1,3,5,-1,7,9,11,-1,-1,-1,-1,-1,-1],"loss_changes":[1.00086174E2,5.23461E1,2.4614492E1,0E0,7.032871E0,1.6347466E1,1.8337412E1,0E0,0E0,0E0,0E0,0E0,0E0],"parents":[2147483647,0,0,1,1,2,2,4,4,5,5,6,6],"right_children":[2,4,6,-1,8,10,12,-1,-1,-1,-1,-1,-1],"split_conditions":[7.9958336E1,2.022E3,2.018E3,1.4846513E-2,1.7133333E2,-1.185E2,6.893063E1,-6.3617127E-3,2.8868997E-3,-1.2003064E-2,-1.3524544E-4,2.5480636E-3,-4.8968876E-3],"split_indices":[0,2,2,0,16,8,6,0,0,0,0,0,0],"split_type":[0,0,0,0,0,0,0,0,0,0,0,0,0],"sum_hessian":[2.7864902E2,8.544099E1,1.9320802E2,5.4129017E1,3.131197E1,6.1891563E1,1.3131645E2,1.3957064E1,1.7354906E1,4.65014E1,1.5390164E1,6.04144E1,7.0902054E1],"tree_param":{"num_deleted":"0","num_feature":"74","num_nodes":"13","size_leaf_vector":"1"}},{"base_weights":[2.9452192E-3,7.588682E-1,-4.6100712E-1,1.3325887E0,-2.836371E-1,-6.0332644E-1,4.287357E-1,-1.353497E-3,1.429E-2,-4.268566E-3,1.0210818E-2,-2.3529327E-3,-9.480689E-3,-9.4883173E-4,1.2117688E-2],"categories":[],"categories_nodes":[],"categories_segments":[],"categories_sizes":[],"default_left":[0,0,0,0,0,0,0,0,0,0,0,0,0,0,0],"id":20,"left_children":[1,3,5,7,9,11,13,-1,-1,-1,-1,-1,-1,-1,-1],"loss_changes":[9.835977E1,6.417453E1,2.226598E1,9.955353E0,7.665081E0,1.8839493E1,1.0181008E1,0E0,0E0,0E0,0E0,0E0,0E0,0E0,0E0],"parents":[2147483647,0,0,1,1,2,2,3,3,4,4,5,5,6,6],"right_children":[2,4,6,8,10,12,14,-1,-1,-1,-1,-1,-1,-1,-1],"split_conditions":[-2.065706E0,2.022E3,3.0666666E1,2.019E3,-1.17E2,2.320177E1,1.6666667E-3,-1.353497E-3,1.429E-2,-4.268566E-3,1.0210818E-2,-2.3529327E-3,-9.480689E-3,-9.4883173E-4,1.2117688E-2],"split_indices":[42,2,30,2,8,45,53,0,0,0,0,0,0,0,0],"split_type":[0,0,0,0,0,0,0,0,0,0,0,0,0,0,0],"sum_hessian":[2.784597E2,1.0566417E2,1.7279552E2,6.79765E1,3.7687668E1,1.4924487E2,2.3550644E1,4.164518E0,6.381198E1,3.4566162E1,3.1215053E0,7.299783E1,7.624705E1,1.4639769E1,8.910874E0],"tree_param":{"num_deleted":"0","num_feature":"74","num_nodes":"15","size_leaf_vector":"1"}},{"base_weights":[2.9922314E-3,8.863471E-1,-3.8786042E-1,1.4692816E-2,-1.2627116E-1,-8.954311E-1,-1.4352182E-1,5.405373E-3,-4.375461E-3,-1.18174E-2,-1.0492087E-4,2.5345227E-3,-4.801297E-3],"categories":[],"categories_nodes":[],"categories_segments":[],"categories_sizes":[],"default_left":[0,0,0,0,0,0,0,0,0,0,0,0,0],"id":21,"left_children":[1,3,5,-1,7,9,11,-1,-1,-1,-1,-1,-1],"loss_changes":[9.676195E1,5.093009E1,2.3967873E1,0E0,6.9465985E0,1.593623E1,1.7806744E1,0E0,0E0,0E0,0E0,0E0,0E0],"parents":[2147483647,0,0,1,1,2,2,4,4,5,5,6,6],"right_children":[2,4,6,-1,8,10,12,-1,-1,-1,-1,-1,-1],"split_conditions":[7.9958336E1,2.022E3,2.018E3,1.4692816E-2,6E0,-1.185E2,6.893063E1,5.405373E-3,-4.375461E-3,-1.18174E-2,-1.0492087E-4,2.5345227E-3,-4.801297E-3],"split_indices":[0,2,2,0,41,8,6,0,0,0,0,0,0],"split_type":[0,0,0,0,0,0,0,0,0,0,0,0,0],"sum_hessian":[2.782612E2,8.496546E1,1.9329575E2,5.3637157E1,3.1328306E1,6.194699E1,1.3134875E2,9.735831E0,2.1592474E1,4.655078E1,1.5396214E1,6.038341E1,7.096534E1],"tree_param":{"num_deleted":"0","num_feature":"74","num_nodes":"13","size_leaf_vector":"1"}},{"base_weights":[2.97797E-3,8.8024867E-1,-3.839612E-1,1.4616886E-2,-1.2495936E-1,-8.862115E-1,-1.4208718E-1,8.90384E-3,-3.2666335E-3,-1.1693842E-2,-1.039342E-4,2.5107195E-3,-4.751171E-3],"categories":[],"categories_nodes":[],"categories_segments":[],"categories_sizes":[],"default_left":[0,0,0,0,0,0,0,0,0,0,0,0,0],"id":22,"left_children":[1,3,5,-1,7,9,11,-1,-1,-1,-1,-1,-1],"loss_changes":[9.506424E1,5.028061E1,2.348303E1,0E0,6.912485E0,1.5607143E1,1.7450098E1,0E0,0E0,0E0,0E0,0E0,0E0],"parents":[2147483647,0,0,1,1,2,2,4,4,5,5,6,6],"right_children":[2,4,6,-1,8,10,12,-1,-1,-1,-1,-1,-1],"split_conditions":[7.9958336E1,2.022E3,2.018E3,1.4616886E-2,4.438889E1,-1.185E2,6.893063E1,8.90384E-3,-3.2666335E-3,-1.1693842E-2,-1.039342E-4,2.5107195E-3,-4.751171E-3],"split_indices":[0,2,2,0,73,8,6,0,0,0,0,0,0],"split_type":[0,0,0,0,0,0,0,0,0,0,0,0,0],"sum_hessian":[2.7805774E2,8.471546E1,1.9334227E2,5.3383095E1,3.1332365E1,6.1979073E1,1.313632E2,4.6269226E0,2.6705442E1,4.658262E1,1.5396453E1,6.0355957E1,7.100725E1],"tree_param":{"num_deleted":"0","num_feature":"74","num_nodes":"13","size_leaf_vector":"1"}},{"base_weights":[2.98064E-3,7.4390626E-1,-4.4818833E-1,1.312755E0,-2.7733892E-1,-5.8836895E-1,4.2931446E-1,-1.2399544E-3,1.4083055E-2,8.1788126E-4,-8.162153E-3,-2.275198E-3,-9.26154E-3,-8.839215E-4,1.2049633E-2],"categories":[],"categories_nodes":[],"categories_segments":[],"categories_sizes":[],"default_left":[0,0,0,0,0,0,0,0,0,0,0,0,0,0,0],"id":23,"left_children":[1,3,5,7,9,11,13,-1,-1,-1,-1,-1,-1,-1,-1],"loss_changes":[9.3547615E1,6.1891403E1,2.1648445E1,9.536758E0,7.5590363E0,1.8121494E1,9.959602E0,0E0,0E0,0E0,0E0,0E0,0E0,0E0,0E0],"parents":[2147483647,0,0,1,1,2,2,3,3,4,4,5,5,6,6],"right_children":[2,4,6,8,10,12,14,-1,-1,-1,-1,-1,-1,-1,-1],"split_conditions":[-2.065706E0,2.022E3,3.0666666E1,2.019E3,9.5025E2,2.320177E1,1.6666667E-3,-1.2399544E-3,1.4083055E-2,8.1788126E-4,-8.162153E-3,-2.275198E-3,-9.26154E-3,-8.839215E-4,1.2049633E-2],"split_indices":[42,2,30,2,20,45,53,0,0,0,0,0,0,0,0],"split_type":[0,0,0,0,0,0,0,0,0,0,0,0,0,0,0],"sum_hessian":[2.7784848E2,1.0491103E2,1.7293744E2,6.7196266E1,3.7714767E1,1.4940031E2,2.3537127E1,4.17163E0,6.3024635E1,2.3140985E1,1.457378E1,7.304324E1,7.635708E1,1.4647018E1,8.890107E0],"tree_param":{"num_deleted":"0","num_feature":"74","num_nodes":"15","size_leaf_vector":"1"}},{"base_weights":[2.9805666E-3,8.6894935E-1,-3.7664703E-1,1.447154E-2,-1.2098279E-1,-8.7212545E-1,-1.3793604E-1,-6.2121856E-3,2.937228E-3,-1.151632E-2,-7.485847E-5,2.4970653E-3,-4.658979E-3],"categories":[],"categories_nodes":[],"categories_segments":[],"categories_sizes":[],"default_left":[0,0,0,0,0,0,0,0,0,0,0,0,0],"id":24,"left_children":[1,3,5,-1,7,9,11,-1,-1,-1,-1,-1,-1],"loss_changes":[9.1924904E1,4.895436E1,2.287333E1,0E0,6.892605E0,1.5221691E1,1.6946808E1,0E0,0E0,0E0,0E0,0E0,0E0],"parents":[2147483647,0,0,1,1,2,2,4,4,5,5,6,6],"right_children":[2,4,6,-1,8,10,12,-1,-1,-1,-1,-1,-1],"split_conditions":[7.9958336E1,2.022E3,2.018E3,1.447154E-2,1.7133333E2,-1.185E2,6.893063E1,-6.2121856E-3,2.937228E-3,-1.151632E-2,-7.485847E-5,2.4970653E-3,-4.658979E-3],"split_indices":[0,2,2,0,16,8,6,0,0,0,0,0,0],"split_type":[0,0,0,0,0,0,0,0,0,0,0,0,0],"sum_hessian":[2.7762762E2,8.422133E1,1.934063E2,5.2875603E1,3.1345728E1,6.2020496E1,1.313858E2,1.3982028E1,1.7363699E1,4.661851E1,1.5401986E1,6.0323532E1,7.106226E1],"tree_param":{"num_deleted":"0","num_feature":"74","num_nodes":"13","size_leaf_vector":"1"}},{"base_weights":[2.9518672E-3,7.33842E-1,-4.3966103E-1,1.2995911E0,-2.733093E-1,-5.780672E-1,4.2781398E-1,-1.1797675E-3,1.3946917E-2,-4.6397974E-3,6.939726E-3,-2.2259764E-3,-9.106621E-3,9.902672E-3,-2.6914137E-3],"categories":[],"categories_nodes":[],"categories_segments":[],"categories_sizes":[],"default_left":[0,0,0,0,0,0,0,0,0,0,0,0,0,0,0],"id":25,"left_children":[1,3,5,7,9,11,13,-1,-1,-1,-1,-1,-1,-1,-1],"loss_changes":[9.038706E1,6.0400948E1,2.1141258E1,9.284676E0,7.465109E0,1.759098E1,9.878405E0,0E0,0E0,0E0,0E0,0E0,0E0,0E0,0E0],"parents":[2147483647,0,0,1,1,2,2,3,3,4,4,5,5,6,6],"right_children":[2,4,6,8,10,12,14,-1,-1,-1,-1,-1,-1,-1,-1],"split_conditions":[-2.065706E0,2.022E3,3.0666666E1,2.019E3,-1.179E2,2.320177E1,2.8411874E2,-1.1797675E-3,1.3946917E-2,-4.6397974E-3,6.939726E-3,-2.2259764E-3,-9.106621E-3,9.902672E-3,-2.6914137E-3],"split_indices":[42,2,30,2,8,45,39,0,0,0,0,0,0,0,0],"split_type":[0,0,0,0,0,0,0,0,0,0,0,0,0,0,0],"sum_hessian":[2.7740503E2,1.0438134E2,1.730237E2,6.6650986E1,3.7730354E1,1.4950389E2,2.351981E1,4.1751857E0,6.24758E1,3.195226E1,5.7780976E0,7.307372E1,7.643016E1,1.2782941E1,1.073687E1],"tree_param":{"num_deleted":"0","num_feature":"74","num_nodes":"15","size_leaf_vector":"1"}},{"base_weights":[2.973104E-3,8.5794467E-1,-3.695256E-1,1.43313985E-2,-1.1704849E-1,-8.584764E-1,-1.3388933E-1,-6.1214166E-3,2.9370082E-3,-1.1341875E-2,-5.3639495E-5,2.4854168E-3,-4.5709712E-3],"categories":[],"categories_nodes":[],"categories_segments":[],"categories_sizes":[],"default_left":[0,0,0,0,0,0,0,0,0,0,0,0,0],"id":26,"left_children":[1,3,5,-1,7,9,11,-1,-1,-1,-1,-1,-1],"loss_changes":[8.8908646E1,4.76786E1,2.2289186E1,0E0,6.7602887E0,1.4824623E1,1.647928E1,0E0,0E0,0E0,0E0,0E0,0E0],"parents":[2147483647,0,0,1,1,2,2,4,4,5,5,6,6],"right_children":[2,4,6,-1,8,10,12,-1,-1,-1,-1,-1,-1],"split_conditions":[7.9958336E1,2.022E3,2.018E3,1.43313985E-2,1.7133333E2,-1.185E2,6.893063E1,-6.1214166E-3,2.9370082E-3,-1.1341875E-2,-5.3639495E-5,2.4854168E-3,-4.5709712E-3],"split_indices":[0,2,2,0,16,8,6,0,0,0,0,0,0],"split_type":[0,0,0,0,0,0,0,0,0,0,0,0,0],"sum_hessian":[2.7717374E2,8.371805E1,1.9345569E2,5.235904E1,3.135901E1,6.205236E1,1.3140334E2,1.3997245E1,1.7361765E1,4.6647297E1,1.54050665E1,6.0293236E1,7.11101E1],"tree_param":{"num_deleted":"0","num_feature":"74","num_nodes":"13","size_leaf_vector":"1"}},{"base_weights":[2.945233E-3,7.2408503E-1,-4.3135116E-1,1.2868378E0,-2.6910767E-1,-5.680003E-1,4.2613453E-1,-1.1209644E-3,1.381525E-2,8.5779466E-4,-8.014591E-3,-2.1778888E-3,-8.955556E-3,-8.4569986E-4,1.1935879E-2],"categories":[],"categories_nodes":[],"categories_segments":[],"categories_sizes":[],"default_left":[0,0,0,0,0,0,0,0,0,0,0,0,0,0,0],"id":27,"left_children":[1,3,5,7,9,11,13,-1,-1,-1,-1,-1,-1,-1,-1],"loss_changes":[8.735976E1,5.894539E1,2.0641739E1,9.042534E0,7.388932E0,1.70802E1,9.704236E0,0E0,0E0,0E0,0E0,0E0,0E0,0E0,0E0],"parents":[2147483647,0,0,1,1,2,2,3,3,4,4,5,5,6,6],"right_children":[2,4,6,8,10,12,14,-1,-1,-1,-1,-1,-1,-1,-1],"split_conditions":[-2.065706E0,2.022E3,3.0666666E1,2.019E3,9.5025E2,2.320177E1,1.6666667E-3,-1.1209644E-3,1.381525E-2,8.5779466E-4,-8.014591E-3,-2.1778888E-3,-8.955556E-3,-8.4569986E-4,1.1935879E-2],"split_indices":[42,2,30,2,20,45,53,0,0,0,0,0,0,0,0],"split_type":[0,0,0,0,0,0,0,0,0,0,0,0,0,0,0],"sum_hessian":[2.7693945E2,1.0384305E2,1.730964E2,6.609647E1,3.774657E1,1.4959457E2,2.3501833E1,4.1784897E0,6.1917988E1,2.3151627E1,1.4594947E1,7.3101616E1,7.6492966E1,1.4645643E1,8.85619E0],"tree_param":{"num_deleted":"0","num_feature":"74","num_nodes":"15","size_leaf_vector":"1"}},{"base_weights":[2.9469805E-3,8.4711325E-1,-3.6254632E-1,1.4196189E-2,-1.1351338E-1,-8.450759E-1,-1.299449E-1,8.890526E-3,-3.1259705E-3,-1.1173658E-2,-2.6189384E-5,2.4714575E-3,-4.4828877E-3],"categories":[],"categories_nodes":[],"categories_segments":[],"categories_sizes":[],"default_left":[0,0,0,0,0,0,0,0,0,0,0,0,0],"id":28,"left_children":[1,3,5,-1,7,9,11,-1,-1,-1,-1,-1,-1],"loss_changes":[8.598616E1,4.6470257E1,2.171924E1,0E0,6.7387013E0,1.446664E1,1.6006224E1,0E0,0E0,0E0,0E0,0E0,0E0],"parents":[2147483647,0,0,1,1,2,2,4,4,5,5,6,6],"right_children":[2,4,6,-1,8,10,12,-1,-1,-1,-1,-1,-1],"split_conditions":[7.9958336E1,2.022E3,2.018E3,1.4196189E-2,4.438889E1,-1.185E2,6.893063E1,8.890526E-3,-3.1259705E-3,-1.1173658E-2,-2.6189384E-5,2.4714575E-3,-4.4828877E-3],"split_indices":[0,2,2,0,73,8,6,0,0,0,0,0,0],"split_type":[0,0,0,0,0,0,0,0,0,0,0,0,0],"sum_hessian":[2.7669443E2,8.320386E1,1.9349059E2,5.1834305E1,3.1369553E1,6.2077732E1,1.3141284E2,4.6229753E0,2.6746578E1,4.6667908E1,1.5409824E1,6.0258255E1,7.1154594E1],"tree_param":{"num_deleted":"0","num_feature":"74","num_nodes":"13","size_leaf_vector":"1"}},{"base_weights":[2.9522127E-3,8.415513E-1,-3.5894883E-1,1.412932E-2,-1.1218361E-1,-8.366161E-1,-1.2865284E-1,5.401719E-3,-4.163481E-3,-1.1061021E-2,-2.5943462E-5,2.4482377E-3,-4.436561E-3],"categories":[],"categories_nodes":[],"categories_segments":[],"categories_sizes":[],"default_left":[0,0,0,0,0,0,0,0,0,0,0,0,0],"id":29,"left_children":[1,3,5,-1,7,9,11,-1,-1,-1,-1,-1,-1],"loss_changes":[8.45055E1,4.590061E1,2.1289598E1,0E0,6.648641E0,1.4177444E1,1.5687345E1,0E0,0E0,0E0,0E0,0E0,0E0],"parents":[2147483647,0,0,1,1,2,2,4,4,5,5,6,6],"right_children":[2,4,6,-1,8,10,12,-1,-1,-1,-1,-1,-1],"split_conditions":[7.9958336E1,2.022E3,2.018E3,1.412932E-2,6E0,-1.185E2,6.893063E1,5.401719E-3,-4.163481E-3,-1.1061021E-2,-2.5943462E-5,2.4482377E-3,-4.436561E-3],"split_indices":[0,2,2,0,41,8,6,0,0,0,0,0,0],"split_type":[0,0,0,0,0,0,0,0,0,0,0,0,0],"sum_hessian":[2.764505E2,8.293883E1,1.9351169E2,5.1564915E1,3.1373917E1,6.20917E1,1.3141998E2,9.729877E0,2.1644037E1,4.668182E1,1.5409883E1,6.0231102E1,7.118888E1],"tree_param":{"num_deleted":"0","num_feature":"74","num_nodes":"13","size_leaf_vector":"1"}},{"base_weights":[2.9412594E-3,7.102055E-1,-4.1953617E-1,1.2691625E0,-2.636319E-1,-5.542219E-1,4.2652673E-1,-1.0157328E-3,1.3631736E-2,-4.0265974E-3,1.007749E-2,-2.1062796E-3,-8.755111E-3,9.815642E-3,-2.5971786E-3],"categories":[],"categories_nodes":[],"categories_segments":[],"categories_sizes":[],"default_left":[0,0,0,0,0,0,0,0,0,0,0,0,0,0,0],"id":30,"left_children":[1,3,5,7,9,11,13,-1,-1,-1,-1,-1,-1,-1,-1],"loss_changes":[8.3125916E1,5.6962967E1,2.0083118E1,8.6779785E0,7.2577896E0,1.6449966E1,9.580413E0,0E0,0E0,0E0,0E0,0E0,0E0,0E0,0E0],"parents":[2147483647,0,0,1,1,2,2,3,3,4,4,5,5,6,6],"right_children":[2,4,6,8,10,12,14,-1,-1,-1,-1,-1,-1,-1,-1],"split_conditions":[-2.065706E0,2.022E3,3.0666666E1,2.019E3,-1.17E2,2.320177E1,2.8411874E2,-1.0157328E-3,1.3631736E-2,-4.0265974E-3,1.007749E-2,-2.1062796E-3,-8.755111E-3,9.815642E-3,-2.5971786E-3],"split_indices":[42,2,30,2,8,45,39,0,0,0,0,0,0,0,0],"split_type":[0,0,0,0,0,0,0,0,0,0,0,0,0,0,0],"sum_hessian":[2.7619907E2,1.0303253E2,1.7316653E2,6.526746E1,3.7765064E1,1.4968323E2,2.3483307E1,4.183869E0,6.10836E1,3.4658394E1,3.1066701E0,7.313093E1,7.65523E1,1.2744864E1,1.0738441E1],"tree_param":{"num_deleted":"0","num_feature":"74","num_nodes":"15","size_leaf_vector":"1"}},{"base_weights":[2.977569E-3,8.31288E-1,-3.5222346E-1,1.4001051E-2,-1.0822407E-1,-8.238073E-1,-1.24840416E-1,-5.9814183E-3,2.9822877E-3,-1.0898081E-2,-6.485568E-6,2.4360146E-3,-4.3530045E-3],"categories":[],"categories_nodes":[],"categories_segments":[],"categories_sizes":[],"default_left":[0,0,0,0,0,0,0,0,0,0,0,0,0],"id":31,"left_children":[1,3,5,-1,7,9,11,-1,-1,-1,-1,-1,-1],"loss_changes":[8.177375E1,4.4729237E1,2.0756346E1,0E0,6.6272373E0,1.3816521E1,1.5253506E1,0E0,0E0,0E0,0E0,0E0,0E0],"parents":[2147483647,0,0,1,1,2,2,4,4,5,5,6,6],"right_children":[2,4,6,-1,8,10,12,-1,-1,-1,-1,-1,-1],"split_conditions":[7.9958336E1,2.022E3,2.018E3,1.4001051E-2,1.7133333E2,-1.185E2,6.893063E1,-5.9814183E-3,2.9822877E-3,-1.0898081E-2,-6.485568E-6,2.4360146E-3,-4.3530045E-3],"split_indices":[0,2,2,0,16,8,6,0,0,0,0,0,0],"split_type":[0,0,0,0,0,0,0,0,0,0,0,0,0],"sum_hessian":[2.7594196E2,8.2414734E1,1.9352722E2,5.102934E1,3.1385393E1,6.2103634E1,1.3142358E2,1.40176325E1,1.7367762E1,4.6691505E1,1.5412128E1,6.0198135E1,7.122545E1],"tree_param":{"num_deleted":"0","num_feature":"74","num_nodes":"13","size_leaf_vector":"1"}},{"base_weights":[2.951631E-3,7.010013E-1,-4.1168454E-1,1.2573473E0,-2.5953415E-1,-5.447004E-1,4.2479566E-1,-9.604763E-4,1.3510282E-2,-6.9715E-4,-1.25173805E-2,-9.984028E-3,-3.0591767E-3,-7.8450947E-4,1.18317865E-2],"categories":[],"categories_nodes":[],"categories_segments":[],"categories_sizes":[],"default_left":[0,0,0,0,0,0,0,0,0,0,0,0,0,0,0],"id":32,"left_children":[1,3,5,7,9,11,13,-1,-1,-1,-1,-1,-1,-1,-1],"loss_changes":[8.0370316E1,5.5621674E1,1.9614622E1,8.458908E0,7.2165203E0,1.6025646E1,9.429331E0,0E0,0E0,0E0,0E0,0E0,0E0,0E0,0E0],"parents":[2147483647,0,0,1,1,2,2,3,3,4,4,5,5,6,6],"right_children":[2,4,6,8,10,12,14,-1,-1,-1,-1,-1,-1,-1,-1],"split_conditions":[-2.065706E0,2.022E3,3.0666666E1,2.019E3,7.9421875E1,2.018E3,1.6666667E-3,-9.604763E-4,1.3510282E-2,-6.9715E-4,-1.25173805E-2,-9.984028E-3,-3.0591767E-3,-7.8450947E-4,1.18317865E-2],"split_indices":[42,2,30,2,73,2,53,0,0,0,0,0,0,0,0],"split_type":[0,0,0,0,0,0,0,0,0,0,0,0,0,0,0],"sum_hessian":[2.7568137E2,1.02473755E2,1.7320761E2,6.4693825E1,3.7779934E1,1.4974431E2,2.3463303E1,4.186516E0,6.0507305E1,3.261131E1,5.168627E0,5.0537884E1,9.920642E1,1.4643046E1,8.820256E0],"tree_param":{"num_deleted":"0","num_feature":"74","num_nodes":"15","size_leaf_vector":"1"}},{"base_weights":[2.9239357E-3,8.2056504E-1,-3.4544277E-1,1.3877124E-2,-1.0626483E-1,-8.0776274E-1,-1.22444935E-1,8.832837E-3,-3.024757E-3,-1.0710244E-2,5.8876867E-5,2.4170284E-3,-4.289866E-3],"categories":[],"categories_nodes":[],"categories_segments":[],"categories_sizes":[],"default_left":[0,0,0,0,0,0,0,0,0,0,0,0,0],"id":33,"left_children":[1,3,5,-1,7,9,11,-1,-1,-1,-1,-1,-1],"loss_changes":[7.90163E1,4.3712982E1,1.9956667E1,0E0,6.556366E0,1.3526974E1,1.4884311E1,0E0,0E0,0E0,0E0,0E0,0E0],"parents":[2147483647,0,0,1,1,2,2,4,4,5,5,6,6],"right_children":[2,4,6,-1,8,10,12,-1,-1,-1,-1,-1,-1],"split_conditions":[7.9958336E1,2.022E3,2.018E3,1.3877124E-2,4.438889E1,-1.185E2,6.893063E1,8.832837E-3,-3.024757E-3,-1.0710244E-2,5.8876867E-5,2.4170284E-3,-4.289866E-3],"split_indices":[0,2,2,0,73,8,6,0,0,0,0,0,0],"split_type":[0,0,0,0,0,0,0,0,0,0,0,0,0],"sum_hessian":[2.7541177E2,8.187947E1,1.935323E2,5.0487686E1,3.139178E1,6.212085E1,1.3141145E2,4.615047E0,2.6776735E1,4.669581E1,1.5425041E1,6.0158882E1,7.125258E1],"tree_param":{"num_deleted":"0","num_feature":"74","num_nodes":"13","size_leaf_vector":"1"}},{"base_weights":[2.930906E-3,6.918861E-1,-4.0400836E-1,1.2458751E0,-2.5577024E-1,-5.3541577E-1,4.232067E-1,-9.065798E-4,1.3392574E-2,9.351998E-4,-7.7984678E-3,-1.9863136E-3,-8.504898E-3,9.719182E-3,-2.53525E-3],"categories":[],"categories_nodes":[],"categories_segments":[],"categories_sizes":[],"default_left":[0,0,0,0,0,0,0,0,0,0,0,0,0,0,0],"id":34,"left_children":[1,3,5,7,9,11,13,-1,-1,-1,-1,-1,-1,-1,-1],"loss_changes":[7.7699745E1,5.4344967E1,1.91662E1,8.248192E0,7.1745396E0,1.5831848E1,9.322616E0,0E0,0E0,0E0,0E0,0E0,0E0,0E0,0E0],"parents":[2147483647,0,0,1,1,2,2,3,3,4,4,5,5,6,6],"right_children":[2,4,6,8,10,12,14,-1,-1,-1,-1,-1,-1,-1,-1],"split_conditions":[-2.065706E0,2.022E3,3.0666666E1,2.019E3,9.5025E2,2.320177E1,2.8411874E2,-9.065798E-4,1.3392574E-2,9.351998E-4,-7.7984678E-3,-1.9863136E-3,-8.504898E-3,9.719182E-3,-2.53525E-3],"split_indices":[42,2,30,2,20,45,39,0,0,0,0,0,0,0,0],"split_type":[0,0,0,0,0,0,0,0,0,0,0,0,0,0,0],"sum_hessian":[2.7514282E2,1.01908966E2,1.7323387E2,6.411398E1,3.7794987E1,1.4979146E2,2.3442406E1,4.188945E0,5.9925037E1,2.3172422E1,1.4622565E1,7.318937E1,7.66021E1,1.2704818E1,1.0737587E1],"tree_param":{"num_deleted":"0","num_feature":"74","num_nodes":"15","size_leaf_vector":"1"}},{"base_weights":[2.921579E-3,8.1068856E-1,-3.3902222E-1,1.3757322E-2,-1.0269152E-1,-7.955926E-1,-1.1881314E-1,-5.8730403E-3,2.9954028E-3,-1.0555728E-2,7.651946E-5,2.4045142E-3,-4.2097974E-3],"categories":[],"categories_nodes":[],"categories_segments":[],"categories_sizes":[],"default_left":[0,0,0,0,0,0,0,0,0,0,0,0,0],"id":35,"left_children":[1,3,5,-1,7,9,11,-1,-1,-1,-1,-1,-1],"loss_changes":[7.647156E1,4.2637768E1,1.9462963E1,0E0,6.491732E0,1.318882E1,1.4474794E1,0E0,0E0,0E0,0E0,0E0,0E0],"parents":[2147483647,0,0,1,1,2,2,4,4,5,5,6,6],"right_children":[2,4,6,-1,8,10,12,-1,-1,-1,-1,-1,-1],"split_conditions":[7.9958336E1,2.022E3,2.018E3,1.3757322E-2,1.7133333E2,-1.185E2,6.893063E1,-5.8730403E-3,2.9954028E-3,-1.0555728E-2,7.651946E-5,2.4045142E-3,-4.2097974E-3],"split_indices":[0,2,2,0,16,8,6,0,0,0,0,0,0],"split_type":[0,0,0,0,0,0,0,0,0,0,0,0,0],"sum_hessian":[2.748643E2,8.134167E1,1.9352261E2,4.9940697E1,3.140097E1,6.2117798E1,1.3140482E2,1.4033349E1,1.736762E1,4.66914E1,1.5426398E1,6.0123955E1,7.128085E1],"tree_param":{"num_deleted":"0","num_feature":"74","num_nodes":"13","size_leaf_vector":"1"}},{"base_weights":[2.897531E-3,8.054512E-1,-3.3569637E-1,1.36979995E-2,-1.0174546E-1,-7.878318E-1,-1.1763681E-1,8.787223E-3,-2.9595338E-3,-1.0452858E-2,7.580194E-5,2.3819117E-3,-4.1666487E-3],"categories":[],"categories_nodes":[],"categories_segments":[],"categories_sizes":[],"default_left":[0,0,0,0,0,0,0,0,0,0,0,0,0],"id":36,"left_children":[1,3,5,-1,7,9,11,-1,-1,-1,-1,-1,-1],"loss_changes":[7.515805E1,4.215424E1,1.908569E1,0E0,6.430088E0,1.2932846E1,1.4187605E1,0E0,0E0,0E0,0E0,0E0,0E0],"parents":[2147483647,0,0,1,1,2,2,4,4,5,5,6,6],"right_children":[2,4,6,-1,8,10,12,-1,-1,-1,-1,-1,-1],"split_conditions":[7.9958336E1,2.022E3,2.018E3,1.36979995E-2,4.438889E1,-1.185E2,6.893063E1,8.787223E-3,-2.9595338E-3,-1.0452858E-2,7.580194E-5,2.3819117E-3,-4.1666487E-3],"split_indices":[0,2,2,0,73,8,6,0,0,0,0,0,0],"split_type":[0,0,0,0,0,0,0,0,0,0,0,0,0],"sum_hessian":[2.7458594E2,8.106424E1,1.9352168E2,4.9661125E1,3.1403116E1,6.2115482E1,1.314062E2,4.6091185E0,2.6793997E1,4.6689247E1,1.5426235E1,6.009715E1,7.130906E1],"tree_param":{"num_deleted":"0","num_feature":"74","num_nodes":"13","size_leaf_vector":"1"}},{"base_weights":[2.9056335E-3,6.789761E-1,-3.9311343E-1,1.2300013E0,-2.5079086E-1,-5.226851E-1,4.2325494E-1,1.36690475E-2,2.8141134E-3,-4.361836E-3,6.9113593E-3,-1.9206181E-3,-8.320223E-3,-7.281802E-4,1.1729434E-2],"categories":[],"categories_nodes":[],"categories_segments":[],"categories_sizes":[],"default_left":[0,0,0,0,0,0,0,0,0,0,0,0,0,0,0],"id":37,"left_children":[1,3,5,7,9,11,13,-1,-1,-1,-1,-1,-1,-1,-1],"loss_changes":[7.3975914E1,5.2596973E1,1.8652319E1,7.959442E0,7.0785656E0,1.5265488E1,9.167118E0,0E0,0E0,0E0,0E0,0E0,0E0,0E0,0E0],"parents":[2147483647,0,0,1,1,2,2,3,3,4,4,5,5,6,6],"right_children":[2,4,6,8,10,12,14,-1,-1,-1,-1,-1,-1,-1,-1],"split_conditions":[-2.065706E0,2.022E3,3.0666666E1,3.9573407E0,-1.179E2,2.320177E1,1.6666667E-3,1.36690475E-2,2.8141134E-3,-4.361836E-3,6.9113593E-3,-1.9206181E-3,-8.320223E-3,-7.281802E-4,1.1729434E-2],"split_indices":[42,2,30,22,8,45,53,0,0,0,0,0,0,0,0],"split_type":[0,0,0,0,0,0,0,0,0,0,0,0,0,0,0],"sum_hessian":[2.74304E2,1.0106119E2,1.7324278E2,6.3252037E1,3.7809155E1,1.4982304E2,2.3419743E1,5.4889267E1,8.362772E0,3.2039894E1,5.76926E0,7.320332E1,7.661971E1,1.4637137E1,8.782604E0],"tree_param":{"num_deleted":"0","num_feature":"74","num_nodes":"15","size_leaf_vector":"1"}},{"base_weights":[2.960167E-3,7.9583263E-1,-3.2931665E-1,1.3582175E-2,-9.795824E-2,-7.763003E-1,-1.1380557E-1,5.4027312E-3,-3.9523947E-3,-1.0308628E-2,9.659383E-5,2.372639E-3,-4.0862374E-3],"categories":[],"categories_nodes":[],"categories_segments":[],"categories_sizes":[],"default_left":[0,0,0,0,0,0,0,0,0,0,0,0,0],"id":38,"left_children":[1,3,5,-1,7,9,11,-1,-1,-1,-1,-1,-1],"loss_changes":[7.271692E1,4.110491E1,1.864868E1,0E0,6.3633585E0,1.2635223E1,1.3801241E1,0E0,0E0,0E0,0E0,0E0,0E0],"parents":[2147483647,0,0,1,1,2,2,4,4,5,5,6,6],"right_children":[2,4,6,-1,8,10,12,-1,-1,-1,-1,-1,-1],"split_conditions":[7.9958336E1,2.022E3,2.018E3,1.3582175E-2,6E0,-1.185E2,6.893063E1,5.4027312E-3,-3.9523947E-3,-1.0308628E-2,9.659383E-5,2.372639E-3,-4.0862374E-3],"split_indices":[0,2,2,0,41,8,6,0,0,0,0,0,0],"split_type":[0,0,0,0,0,0,0,0,0,0,0,0,0],"sum_hessian":[2.7401987E2,8.0510994E1,1.9350887E2,4.909817E1,3.1412823E1,6.2102398E1,1.3140646E2,9.722425E0,2.1690397E1,4.6673756E1,1.5428644E1,6.0070152E1,7.133632E1],"tree_param":{"num_deleted":"0","num_feature":"74","num_nodes":"13","size_leaf_vector":"1"}},{"base_weights":[2.952259E-3,6.704467E-1,-3.8582665E-1,1.2192925E0,-2.4694511E-1,-5.1385933E-1,4.2161846E-1,-8.035012E-4,1.3122578E-2,-5.987863E-4,-1.2249036E-2,6.35123E-5,-7.063654E-3,9.633391E-3,-2.4507777E-3],"categories":[],"categories_nodes":[],"categories_segments":[],"categories_sizes":[],"default_left":[0,0,0,0,0,0,0,0,0,0,0,0,0,0,0],"id":39,"left_children":[1,3,5,7,9,11,13,-1,-1,-1,-1,-1,-1,-1,-1],"loss_changes":[7.155296E1,5.1398872E1,1.8230003E1,7.7975082E0,7.0283756E0,1.5110966E1,9.0474205E0,0E0,0E0,0E0,0E0,0E0,0E0,0E0,0E0],"parents":[2147483647,0,0,1,1,2,2,3,3,4,4,5,5,6,6],"right_children":[2,4,6,8,10,12,14,-1,-1,-1,-1,-1,-1,-1,-1],"split_conditions":[-2.065706E0,2.022E3,3.0666666E1,2.019E3,7.9421875E1,2.0912616E2,2.8411874E2,-8.035012E-4,1.3122578E-2,-5.987863E-4,-1.2249036E-2,6.35123E-5,-7.063654E-3,9.633391E-3,-2.4507777E-3],"split_indices":[42,2,30,2,73,27,39,0,0,0,0,0,0,0,0],"split_type":[0,0,0,0,0,0,0,0,0,0,0,0,0,0,0],"sum_hessian":[2.7372894E2,1.0048381E2,1.7324512E2,6.266455E1,3.781926E1,1.4984804E2,2.3397085E1,4.192316E0,5.8472237E1,3.26375E1,5.1817594E0,4.073542E1,1.0911262E2,1.2662935E1,1.073415E1],"tree_param":{"num_deleted":"0","num_feature":"74","num_nodes":"15","size_leaf_vector":"1"}},{"base_weights":[2.9331935E-3,7.8592026E-1,-3.2300785E-1,1.3471877E-2,-9.607198E-2,-7.635131E-1,-1.1066192E-1,-5.748889E-3,3.0147862E-3,-1.0154215E-2,1.3416981E-4,2.367622E-3,-4.022514E-3],"categories":[],"categories_nodes":[],"categories_segments":[],"categories_sizes":[],"default_left":[0,0,0,0,0,0,0,0,0,0,0,0,0],"id":40,"left_children":[1,3,5,-1,7,9,11,-1,-1,-1,-1,-1,-1],"loss_changes":[7.0294426E1,4.0206112E1,1.8107815E1,0E0,6.344001E0,1.2361202E1,1.3507891E1,0E0,0E0,0E0,0E0,0E0,0E0],"parents":[2147483647,0,0,1,1,2,2,4,4,5,5,6,6],"right_children":[2,4,6,-1,8,10,12,-1,-1,-1,-1,-1,-1],"split_conditions":[7.9958336E1,2.022E3,2.018E3,1.3471877E-2,1.7133333E2,-1.185E2,6.893063E1,-5.748889E-3,3.0147862E-3,-1.0154215E-2,1.3416981E-4,2.367622E-3,-4.022514E-3],"split_indices":[0,2,2,0,16,8,6,0,0,0,0,0,0],"split_type":[0,0,0,0,0,0,0,0,0,0,0,0,0],"sum_hessian":[2.7344547E2,7.99575E1,1.9348796E2,4.85406E1,3.1416899E1,6.208951E1,1.3139844E2,1.4049436E1,1.7367462E1,4.665525E1,1.5434263E1,6.0044468E1,7.135397E1],"tree_param":{"num_deleted":"0","num_feature":"74","num_nodes":"13","size_leaf_vector":"1"}},{"base_weights":[2.9108056E-3,6.6186905E-1,-3.7867668E-1,1.2088923E0,-2.4366033E-1,-5.0516176E-1,4.1980755E-1,1.3458875E-2,2.7626893E-3,1.002276E-3,-7.5975186E-3,-1.808281E-3,-8.088719E-3,-6.9891964E-4,1.1621684E-2],"categories":[],"categories_nodes":[],"categories_segments":[],"categories_sizes":[],"default_left":[0,0,0,0,0,0,0,0,0,0,0,0,0,0,0],"id":41,"left_children":[1,3,5,7,9,11,13,-1,-1,-1,-1,-1,-1,-1,-1],"loss_changes":[6.918528E1,5.0274536E1,1.781059E1,7.686157E0,6.967664E0,1.4715458E1,8.941946E0,0E0,0E0,0E0,0E0,0E0,0E0,0E0,0E0],"parents":[2147483647,0,0,1,1,2,2,3,3,4,4,5,5,6,6],"right_children":[2,4,6,8,10,12,14,-1,-1,-1,-1,-1,-1,-1,-1],"split_conditions":[-2.065706E0,2.022E3,3.0666666E1,3.9573407E0,9.5025E2,2.320177E1,1.6666667E-3,1.3458875E-2,2.7626893E-3,1.002276E-3,-7.5975186E-3,-1.808281E-3,-8.088719E-3,-6.9891964E-4,1.1621684E-2],"split_indices":[42,2,30,22,20,45,53,0,0,0,0,0,0,0,0],"split_type":[0,0,0,0,0,0,0,0,0,0,0,0,0,0,0],"sum_hessian":[2.7314825E2,9.9899185E1,1.7324907E2,6.2068863E1,3.7830326E1,1.4987521E2,2.3373856E1,5.3732803E1,8.336059E0,2.3186338E1,1.4643989E1,7.3248344E1,7.662688E1,1.46294E1,8.744455E0],"tree_param":{"num_deleted":"0","num_feature":"74","num_nodes":"15","size_leaf_vector":"1"}},{"base_weights":[2.9322081E-3,7.7650464E-1,-3.169019E-1,1.3363294E-2,-9.2988856E-2,-7.5249684E-1,-1.07008874E-1,8.748262E-3,-2.8451632E-3,-1.0016684E-2,1.5345396E-4,2.357591E-3,-3.9450275E-3],"categories":[],"categories_nodes":[],"categories_segments":[],"categories_sizes":[],"default_left":[0,0,0,0,0,0,0,0,0,0,0,0,0],"id":42,"left_children":[1,3,5,-1,7,9,11,-1,-1,-1,-1,-1,-1],"loss_changes":[6.800012E1,3.9256947E1,1.7698118E1,0E0,6.258912E0,1.208123E1,1.3139162E1,0E0,0E0,0E0,0E0,0E0,0E0],"parents":[2147483647,0,0,1,1,2,2,4,4,5,5,6,6],"right_children":[2,4,6,-1,8,10,12,-1,-1,-1,-1,-1,-1],"split_conditions":[7.9958336E1,2.022E3,2.018E3,1.3363294E-2,4.438889E1,-1.185E2,6.893063E1,8.748262E-3,-2.8451632E-3,-1.0016684E-2,1.5345396E-4,2.357591E-3,-3.9450275E-3],"split_indices":[0,2,2,0,73,8,6,0,0,0,0,0,0],"split_type":[0,0,0,0,0,0,0,0,0,0,0,0,0],"sum_hessian":[2.7284793E2,7.939353E1,1.934544E2,4.7970646E1,3.142289E1,6.206487E1,1.3138954E2,4.601787E0,2.6821102E1,4.6628864E1,1.5436005E1,6.0015408E1,7.137413E1],"tree_param":{"num_deleted":"0","num_feature":"74","num_nodes":"13","size_leaf_vector":"1"}},{"base_weights":[2.9417784E-3,6.5362245E-1,-3.7170005E-1,1.1987463E0,-2.4007785E-1,-4.9670434E-1,4.181449E-1,1.3357017E-2,2.755007E-3,-3.7525657E-3,9.986083E-3,1.4452051E-4,-6.859877E-3,9.538844E-3,-2.395559E-3],"categories":[],"categories_nodes":[],"categories_segments":[],"categories_sizes":[],"default_left":[0,0,0,0,0,0,0,0,0,0,0,0,0,0,0],"id":43,"left_children":[1,3,5,7,9,11,13,-1,-1,-1,-1,-1,-1,-1,-1],"loss_changes":[6.692569E1,4.9158043E1,1.7410345E1,7.531502E0,6.8780093E0,1.4608299E1,8.808349E0,0E0,0E0,0E0,0E0,0E0,0E0,0E0,0E0],"parents":[2147483647,0,0,1,1,2,2,3,3,4,4,5,5,6,6],"right_children":[2,4,6,8,10,12,14,-1,-1,-1,-1,-1,-1,-1,-1],"split_conditions":[-2.065706E0,2.022E3,3.0666666E1,3.9573407E0,-1.17E2,2.0912616E2,2.8411874E2,1.3357017E-2,2.755007E-3,-3.7525657E-3,9.986083E-3,1.4452051E-4,-6.859877E-3,9.538844E-3,-2.395559E-3],"split_indices":[42,2,30,22,8,27,39,0,0,0,0,0,0,0,0],"split_type":[0,0,0,0,0,0,0,0,0,0,0,0,0,0,0],"sum_hessian":[2.7254532E2,9.931304E1,1.7323227E2,6.1474533E1,3.783851E1,1.4988237E2,2.3349897E1,5.31443E1,8.330235E0,3.474393E1,3.0945773E0,4.075308E1,1.091293E2,1.2619872E1,1.0730026E1],"tree_param":{"num_deleted":"0","num_feature":"74","num_nodes":"15","size_leaf_vector":"1"}},{"base_weights":[3.007501E-3,7.6750886E-1,-3.109105E-1,1.3258111E-2,-8.93209E-2,-7.4052376E-1,-1.0398963E-1,-5.63447E-3,3.0433359E-3,-9.871811E-3,1.8661974E-4,2.355142E-3,-3.8864103E-3],"categories":[],"categories_nodes":[],"categories_segments":[],"categories_sizes":[],"default_left":[0,0,0,0,0,0,0,0,0,0,0,0,0],"id":44,"left_children":[1,3,5,-1,7,9,11,-1,-1,-1,-1,-1,-1],"loss_changes":[6.581671E1,3.8306522E1,1.7206404E1,0E0,6.2245536E0,1.1822941E1,1.2885196E1,0E0,0E0,0E0,0E0,0E0,0E0],"parents":[2147483647,0,0,1,1,2,2,4,4,5,5,6,6],"right_children":[2,4,6,-1,8,10,12,-1,-1,-1,-1,-1,-1],"split_conditions":[7.9958336E1,2.022E3,2.018E3,1.3258111E-2,1.7133333E2,-1.185E2,6.893063E1,-5.63447E-3,3.0433359E-3,-9.871811E-3,1.8661974E-4,2.355142E-3,-3.8864103E-3],"split_indices":[0,2,2,0,16,8,6,0,0,0,0,0,0],"split_type":[0,0,0,0,0,0,0,0,0,0,0,0,0],"sum_hessian":[2.722526E2,7.882962E1,1.9342296E2,4.739811E1,3.1431513E1,6.203853E1,1.3138443E2,1.406273E1,1.7368782E1,4.659849E1,1.5440037E1,5.9997734E1,7.1386696E1],"tree_param":{"num_deleted":"0","num_feature":"74","num_nodes":"13","size_leaf_vector":"1"}},{"base_weights":[2.985835E-3,6.455585E-1,-3.648516E-1,1.1888641E0,-2.364504E-1,-4.8836496E-1,4.1631103E-1,1.3258304E-2,2.74708E-3,-5.19511E-4,-1.2011607E-2,1.606748E-4,-6.7516216E-3,-6.717717E-4,1.1515813E-2],"categories":[],"categories_nodes":[],"categories_segments":[],"categories_sizes":[],"default_left":[0,0,0,0,0,0,0,0,0,0,0,0,0,0,0],"id":45,"left_children":[1,3,5,7,9,11,13,-1,-1,-1,-1,-1,-1,-1,-1],"loss_changes":[6.4749016E1,4.8069584E1,1.7012547E1,7.3833923E0,6.8520474E0,1.4228928E1,8.724901E0,0E0,0E0,0E0,0E0,0E0,0E0,0E0,0E0],"parents":[2147483647,0,0,1,1,2,2,3,3,4,4,5,5,6,6],"right_children":[2,4,6,8,10,12,14,-1,-1,-1,-1,-1,-1,-1,-1],"split_conditions":[-2.065706E0,2.022E3,3.0666666E1,3.9573407E0,7.9421875E1,2.0912616E2,1.6666667E-3,1.3258304E-2,2.74708E-3,-5.19511E-4,-1.2011607E-2,1.606748E-4,-6.7516216E-3,-6.717717E-4,1.1515813E-2],"split_indices":[42,2,30,22,73,27,53,0,0,0,0,0,0,0,0],"split_type":[0,0,0,0,0,0,0,0,0,0,0,0,0,0,0],"sum_hessian":[2.7194324E2,9.872545E1,1.732178E2,6.0877693E1,3.784775E1,1.4989241E2,2.3325388E1,5.2553387E1,8.324309E0,3.2656166E1,5.191587E0,4.0753773E1,1.0913864E2,1.4620253E1,8.705135E0],"tree_param":{"num_deleted":"0","num_feature":"74","num_nodes":"15","size_leaf_vector":"1"}},{"base_weights":[2.9960976E-3,7.5792694E-1,-3.048327E-1,1.3156169E-2,-8.772929E-2,-7.2872984E-1,-1.0076599E-1,4.7207465E-3,-4.151836E-3,-9.731727E-3,2.2533059E-4,2.3522552E-3,-3.823554E-3],"categories":[],"categories_nodes":[],"categories_segments":[],"categories_sizes":[],"default_left":[0,0,0,0,0,0,0,0,0,0,0,0,0],"id":46,"left_children":[1,3,5,-1,7,9,11,-1,-1,-1,-1,-1,-1],"loss_changes":[6.35907E1,3.749479E1,1.6741596E1,0E0,6.1416235E0,1.1592827E1,1.2614407E1,0E0,0E0,0E0,0E0,0E0,0E0],"parents":[2147483647,0,0,1,1,2,2,4,4,5,5,6,6],"right_children":[2,4,6,-1,8,10,12,-1,-1,-1,-1,-1,-1],"split_conditions":[7.9958336E1,2.022E3,2.018E3,1.3156169E-2,6.521739E0,-1.185E2,6.893063E1,4.7207465E-3,-4.151836E-3,-9.731727E-3,2.2533059E-4,2.3522552E-3,-3.823554E-3],"split_indices":[0,2,2,0,41,8,6,0,0,0,0,0,0],"split_type":[0,0,0,0,0,0,0,0,0,0,0,0,0],"sum_hessian":[2.7164432E2,7.825838E1,1.9338594E2,4.68236E1,3.1434774E1,6.2008297E1,1.3137764E2,1.1438419E1,1.9996355E1,4.6562572E1,1.5445723E1,5.9977432E1,7.1400215E1],"tree_param":{"num_deleted":"0","num_feature":"74","num_nodes":"13","size_leaf_vector":"1"}},{"base_weights":[2.9866467E-3,6.374896E-1,-3.581292E-1,1.1792328E0,-2.3328885E-1,-4.8020002E-1,4.1461843E-1,-7.4057624E-4,1.272558E-2,1.8962518E-3,-6.3829343E-3,-1.6343051E-3,-7.7737193E-3,9.445286E-3,-2.3430355E-3],"categories":[],"categories_nodes":[],"categories_segments":[],"categories_sizes":[],"default_left":[0,0,0,0,0,0,0,0,0,0,0,0,0,0,0],"id":47,"left_children":[1,3,5,7,9,11,13,-1,-1,-1,-1,-1,-1,-1,-1],"loss_changes":[6.2626846E1,4.7040817E1,1.6630844E1,7.2616425E0,6.776366E0,1.4077381E1,8.577421E0,0E0,0E0,0E0,0E0,0E0,0E0,0E0,0E0],"parents":[2147483647,0,0,1,1,2,2,3,3,4,4,5,5,6,6],"right_children":[2,4,6,8,10,12,14,-1,-1,-1,-1,-1,-1,-1,-1],"split_conditions":[-2.065706E0,2.022E3,3.0666666E1,2.019E3,9.340278E2,2.320177E1,2.8411874E2,-7.4057624E-4,1.272558E-2,1.8962518E-3,-6.3829343E-3,-1.6343051E-3,-7.7737193E-3,9.445286E-3,-2.3430355E-3],"split_indices":[42,2,30,2,20,45,39,0,0,0,0,0,0,0,0],"split_type":[0,0,0,0,0,0,0,0,0,0,0,0,0,0,0],"sum_hessian":[2.7132922E2,9.813486E1,1.7319438E2,6.027891E1,3.785595E1,1.498942E2,2.3300186E1,4.19185E0,5.6087063E1,1.8778671E1,1.9077276E1,7.330495E1,7.658924E1,1.2575493E1,1.0724693E1],"tree_param":{"num_deleted":"0","num_feature":"74","num_nodes":"15","size_leaf_vector":"1"}},{"base_weights":[2.987426E-3,7.492619E-1,-2.992685E-1,1.3058941E-2,-8.474013E-2,-7.182313E-1,-9.767015E-2,-5.542511E-3,3.0518514E-3,-9.599115E-3,2.3846333E-4,2.3386965E-3,-3.7534696E-3],"categories":[],"categories_nodes":[],"categories_segments":[],"categories_sizes":[],"default_left":[0,0,0,0,0,0,0,0,0,0,0,0,0],"id":48,"left_children":[1,3,5,-1,7,9,11,-1,-1,-1,-1,-1,-1],"loss_changes":[6.1580017E1,3.6644E1,1.6341879E1,0E0,6.1078887E0,1.1315861E1,1.22715225E1,0E0,0E0,0E0,0E0,0E0,0E0],"parents":[2147483647,0,0,1,1,2,2,4,4,5,5,6,6],"right_children":[2,4,6,-1,8,10,12,-1,-1,-1,-1,-1,-1],"split_conditions":[7.9958336E1,2.022E3,2.018E3,1.3058941E-2,1.7133333E2,-1.185E2,6.893063E1,-5.542511E-3,3.0518514E-3,-9.599115E-3,2.3846333E-4,2.3386965E-3,-3.7534696E-3],"split_indices":[0,2,2,0,16,8,6,0,0,0,0,0,0],"split_type":[0,0,0,0,0,0,0,0,0,0,0,0,0],"sum_hessian":[2.7100827E2,7.769623E1,1.9331206E2,4.625725E1,3.1438974E1,6.1967716E1,1.3134433E2,1.4072625E1,1.736635E1,4.6522655E1,1.5445063E1,5.9937763E1,7.140657E1],"tree_param":{"num_deleted":"0","num_feature":"74","num_nodes":"13","size_leaf_vector":"1"}},{"base_weights":[2.9671714E-3,6.2960505E-1,-3.5160586E-1,1.1698492E0,-2.3007767E-1,-4.7225374E-1,4.1276413E-1,1.3073074E-2,2.6958354E-3,-4.1057062E-3,6.8803243E-3,2.3602016E-4,-6.5604984E-3,-6.466894E-4,1.1411737E-2],"categories":[],"categories_nodes":[],"categories_segments":[],"categories_sizes":[],"default_left":[0,0,0,0,0,0,0,0,0,0,0,0,0,0,0],"id":49,"left_children":[1,3,5,7,9,11,13,-1,-1,-1,-1,-1,-1,-1,-1],"loss_changes":[6.0587605E1,4.603332E1,1.6255184E1,7.1560135E0,6.7223654E0,1.3765938E1,8.515659E0,0E0,0E0,0E0,0E0,0E0,0E0,0E0,0E0],"parents":[2147483647,0,0,1,1,2,2,3,3,4,4,5,5,6,6],"right_children":[2,4,6,8,10,12,14,-1,-1,-1,-1,-1,-1,-1,-1],"split_conditions":[-2.065706E0,2.022E3,3.0666666E1,3.9573407E0,-1.179E2,2.0912616E2,1.6666667E-3,1.3073074E-2,2.6958354E-3,-4.1057062E-3,6.8803243E-3,2.3602016E-4,-6.5604984E-3,-6.466894E-4,1.1411737E-2],"split_indices":[42,2,30,22,8,27,53,0,0,0,0,0,0,0,0],"split_type":[0,0,0,0,0,0,0,0,0,0,0,0,0,0,0],"sum_hessian":[2.706888E2,9.7536545E1,1.7315227E2,5.967477E1,3.7861774E1,1.4987778E2,2.3274487E1,5.137793E1,8.296841E0,3.210333E1,5.758445E0,4.0766674E1,1.091111E2,1.4609784E1,8.664703E0],"tree_param":{"num_deleted":"0","num_feature":"74","num_nodes":"15","size_leaf_vector":"1"}}]},"name":"gbtree"},"learner_model_param":{"base_score":"5.8481234E-1","boost_from_average":"1","num_class":"0","num_feature":"74","num_target":"1"},"objective":{"name":"binary:logistic","reg_loss_param":{"scale_pos_weight":"1"}}},"version":[2,0,3]}